{"weights_input_hidden": [[0.022735946242316552, 0.01592770733951303, -0.00878527745055959, 0.01949623339804084, -0.026323969376320006, -0.00963092142171774, -0.020639235780743014, 0.006722439573219132, 0.024901384781967108, -0.0035830224024462056, -0.026458456913577122, 0.013775262393103532, 0.008189290309189036, 0.010421180185525746, -0.028248902988211932, -0.010713674427945526, 0.00579360460807161, -0.01388401153963394, -0.0045869974592124, -0.023581558244694666], [0.053245831631452106, 0.05977353068536318, -0.014978057321343987, -0.011412653576056076, -0.021499896741609716, -0.00792031593099116, -0.025074104685491528, 0.040459484324273744, 0.026760351721837994, 0.01418466096709939, -0.02310583355260272, 0.033449313936943385, 0.0016187207051259894, 0.0013064932815917544, -0.027040075086312943, -0.0200047068789313, -0.015295812443388027, -0.026455307078605585, -0.02328624713322375, -0.006478453488531354], [0.04750595738448423, 0.019576220595388084, -0.01376371910791369, 0.017094986373232257, -0.03614336716001806, -0.015937487732780097, -0.008633322821108015, 0.03285135141333543, 0.019822604231170438, 0.03455843378234698, -0.026354268943845714, 0.021111027886605384, 0.017171321859882842, 0.010483190593136951, -0.028957691568998824, -0.010288173226652153, 0.017449473789145444, -0.034269414663337126, -0.011356961865687949, -0.016525645652586338], [0.002437867650459822, 0.00995143103689267, 0.004421346124644599, 0.003115035306190959, 0.014687420781868814, -0.004771077310434988, 0.011998700472281102, -0.020780205564545268, 0.0017338412377245036, -0.0030067555418041058, -0.00696577234743994, 0.004594598945749578, -0.004475247345139453, -0.007258516307953538, -0.006474076351695329, -0.019807475488346184, -0.00804958389421139, -0.010374971013878213, -0.004168621154802338, -0.008920868586816668], [0.0014817534397191733, -0.01335729345099728, 0.012594750557590146, 0.0025556140959915046, 0.015787332236775076, 0.006795198911071463, -0.0008592627569969805, -0.01142710637664655, -0.012942051518399568, -0.0059625354529094605, -0.010944129327338244, 0.014088049219842252, 0.009324273050523245, 0.005800963463797381, 0.01010346923891053, 0.002835030681967393, 0.0006292271044420016, -0.006493023116078185, 0.006283608717764777, 0.015067331921152961], [0.0017451247953600587, -0.015977706791058484, -0.0008520274807857191, -0.009638412683203087, 0.012123210227589686, 0.011806793612600605, -0.007708874610290393, -0.00048392877124579483, 0.003508957406673108, -0.006563962715488366, 0.004670840429253036, 0.006273992051072053, -0.004640020289079938, -0.008888050902290716, -0.0067561563307561995, -0.0167079320977831, -0.009838513219708035, -0.008908834186979651, -0.013931247028190466, 0.013693785467739989], [-0.006319870025833666, 0.013247374158014014, -0.002035791585965168, -0.004041513341674998, -0.009982749424444002, 0.006926472534414119, -0.00577743859584172, 0.0051543818162479915, 0.00481821889854923, 0.005930149919628172, 0.017948965258377258, -0.027461900140521158, -0.006939653023791791, 0.022590241821647893, 0.01001331411799861, -0.0008484030959174542, 0.016767922757202625, -0.006476202895738694, 0.0019140399157808053, -0.0001938696964078029], [0.0009199312636724175, -0.010201604890359466, 0.008997422509625137, -0.003994040931757663, 0.009810283813711003, 0.00014472213098693578, -0.003853783435122435, -0.008419519488011097, 0.004910804727524, 0.007100007584059017, -0.017620327848378883, 0.007347469394854398, 0.010714469328042564, 0.0187636779464523, 0.018640071707439938, 0.001454541451619349, 0.004530014245414546, 0.0043898798034057345, 0.005123252214077686, 0.019056399354512445], [-0.020814262356903902, 0.011749292983760339, 0.005307574185002296, -0.00506476650834228, 0.006994121655648349, -0.010358597465691437, 0.001760558815197474, 0.01341398287402203, 0.002189859224576783, 0.0039589952256230175, 0.002255164552070384, 0.0017177260062688862, 0.022946337418926984, 0.007776909792195006, 0.011543851769411079, -0.023015434388442408, -0.020883675810285683, -0.023759587653086073, -0.02095556114311683, -0.006963596507238507], [0.017670973011249244, -0.0025433530504797856, -0.008152730212762223, -0.008597225109027412, 0.006538240239929865, -0.003265482415266633, -0.00029461711467283286, -0.013256020633677321, 0.008167617440793605, 0.004759934065786309, -0.008002311088870532, 0.005263192378224478, 0.012909212974327764, 0.0066907607073116455, 0.006281990802456747, 0.005175187902110211, -1.34255433470497e-05, -0.0037811066434986344, 0.004481524293105608, -0.027103066237016565]], "bias_hidden": [[0.009318289744041591, 0.008679007840094812, -0.0032582961752454205, 0.0022912559169108913, -0.005460612182512502, -0.0016096752066607277, -0.004247394475849689, 0.00556464511559436, 0.004636556374424362, 0.003208742351470132, -0.006008598354995388, 0.0035907342816021504, 0.0023550401271931684, 0.002337453301776479, -0.005998235538861242, -0.001689682325049418, -0.00017257243017975422, -0.005417718586287309, -0.0024160531407310514, -0.004806212569389457]], "weights_hidden_output": [[0.05017710926509405, 0.04247342666496807, 0.0461853474372768], [0.04277406393072321, 0.036574427865962024, 0.025123484054434486], [-0.004253667239059738, -0.013270119660555812, -0.024301972958212372], [0.00714293464435545, 0.02078789654411578, -0.00173108696759989], [-0.04366088423933586, -0.015580540187220914, -0.024831650576419947], [-0.02122085637438808, -0.02608900349326357, 0.016474616236327157], [-0.02557656748738676, -0.015813099554727244, -0.01152115224179176], [0.03298437395417707, 0.04168986430470172, 0.011673989335068082], [0.026025803161329148, 0.026369356958355718, 0.019149111765999424], [0.005030415099987464, 0.017768845880840826, 0.031942098042247964], [-0.023005060013475864, -0.0256497113990089, -0.03343942118019701], [0.024958559421978683, 0.020231578955485226, 0.02277783488024264], [0.004622956908830387, 0.013752785705289526, 0.01483412874875598], [0.006546625629150551, 0.0035492272123611814, 0.01580388877868961], [-0.0327854180018148, -0.03303433336708416, -0.019976794518197828], [-0.015122292084069533, -0.002067109173293585, -0.021336547138535562], [0.011191041809279155, -0.0068491006202225395, 0.0005104832403338491], [-0.0231289337525169, -0.0289559418618832, -0.030467062685646158], [-0.02292279900843644, -0.007541285469500842, -0.00791108852075511], [-0.023000930300740758, -0.00717510073643534, -0.01937688330312447]], "bias_output": [[0.19878425382105944, 0.15312411932074504, 0.16349841533811035]], "input_size": 10, "hidden_size": 20, "output_size": 3}