{"weights_input_hidden": [[0.022718368075262205, 0.01598095163338826, -0.00906078941611602, 0.01995256234905511, -0.025757814453297903, -0.009902063404616815, -0.02049131441495144, 0.0071532243076770675, 0.025052840126759603, -0.00319925381500064, -0.026639546409990993, 0.013742300655360041, 0.008479318941506431, 0.010373323750403403, -0.028431541180123525, -0.010426887066947773, 0.005336826921914214, -0.014186583364032494, -0.0042718252578964845, -0.023258325891807253], [0.053885005407129136, 0.05965428649503059, -0.01595017982097874, -0.011830646399190061, -0.021510775351313537, -0.006351251371340849, -0.024894173636623804, 0.03983961772720888, 0.026864082711461512, 0.015509989452851173, -0.024029068041916235, 0.03381915492535887, 0.0021204880474737908, 0.001916376257456706, -0.02693313935994815, -0.020707313431992055, -0.015464796693442882, -0.027178372131669758, -0.023043143519820283, -0.006772538866585062], [0.04454065829240342, 0.016640137868016155, -0.013814756047318048, 0.016235695623628886, -0.033496044771016954, -0.013640228092696636, -0.0068968339031987335, 0.030099539365002995, 0.01808829911306877, 0.03474654748405454, -0.02528060770291522, 0.01968232486771737, 0.017000456158864495, 0.010423052349767595, -0.026625531476531357, -0.00976784554621283, 0.0168823785684101, -0.032971508346663306, -0.009822110287962203, -0.015270453757377993], [-0.00159338362263445, 0.006286731116559958, 0.004972256507690301, 0.0019107562402688558, 0.017607147325062276, -0.002429760749345461, 0.014021148667754555, -0.02425061786229723, -0.0005835074579122231, -0.0035972277237239585, -0.00506055264726161, 0.0026050743929500442, -0.0050872844393510044, -0.0075408058172374125, -0.003427858963268912, -0.019016861633676618, -0.00835452858333472, -0.008205771247544973, -0.0025532804407335055, -0.007486810280193152], [0.003977486795754929, -0.011852903850901545, 0.011251935118222258, 0.0028047609204855557, 0.014691203331477698, 0.007291759220288144, -0.001516530801961435, -0.010352499263612215, -0.011779138566461874, -0.004236175526278292, -0.0127797937670851, 0.01534635555910844, 0.010195281117217533, 0.006498721257740754, 0.008774404233848091, 0.0018766986236285216, 0.00039809444343013597, -0.008276718862501866, 0.005918940088328515, 0.014261201751381436], [0.006142971427115886, -0.012358935531480729, -0.0020235484589671174, -0.008560570344633048, 0.009303484438700393, 0.01025517326222508, -0.009583123371890363, 0.0027655503489990995, 0.005927870276132891, -0.005125678789311823, 0.002218779930209483, 0.00843358925836409, -0.003658681705849016, -0.008260125394220785, -0.009774545922998909, -0.017804885287951426, -0.009730288973878351, -0.011545052628411179, -0.015334446034887242, 0.012126268696220667], [-0.0055550494223525, 0.013290558692790415, -0.002571193645547234, -0.004377440513419862, -0.010170053704015462, 0.007843322695349967, -0.0057670256815233155, 0.004813843677651636, 0.00491403710693982, 0.006656178160940529, 0.017321253082948396, -0.027086691985951893, -0.006689047707476547, 0.02296128931953183, 0.00998019852061685, -0.0013140554398447786, 0.016765736997936695, -0.006889390186703752, 0.0019567749780968224, -0.00044765362950722006], [-0.005862436611372254, -0.01625554415972498, 0.010230030142073432, -0.0060904572558399045, 0.014396552139896806, 0.0038232173913578, -0.0006164270663754567, -0.01422796777733486, 0.0009889392936840214, 0.005670758078560494, -0.014207003657418721, 0.004017335326349821, 0.009448440220528539, 0.018166077802750216, 0.023707787562839627, 0.0027674150850168257, 0.004257327007630022, 0.008256537190561875, 0.007601329362000547, 0.02136572290513314], [-0.01913273500486607, 0.0134581554880421, 0.005476049661506978, -0.004473865732322892, 0.005556336779887756, -0.011953199606707796, 0.0007464157108238274, 0.015128192751697597, 0.0031756902716271883, 0.003656386405577618, 0.0017570205890554713, 0.0025094568137751182, 0.022975028981104192, 0.007691483741332418, 0.010152700306883556, -0.023160238346538624, -0.020583695209278448, -0.02440056215855917, -0.021840395957522726, -0.007576338675971767], [0.0142635919400109, -0.005446437357193657, -0.007276657662070748, -0.009552825621937037, 0.008651684497629363, -0.0018322133770754146, 0.0011931007733910419, -0.015973271706441968, 0.006236132803999991, 0.0037060161736364654, -0.006150833058178346, 0.0036064453421146433, 0.012145910224056436, 0.006271733226473269, 0.008714611185685117, 0.005924168307279907, -1.7582292620577002e-05, -0.0017079801781573372, 0.005574252951586602, -0.025960194434527576]], "bias_hidden": [[0.018907336166276153, 0.01636271457219738, -0.005944620960541355, 0.00441381490511281, -0.011514694171771526, -0.004471045920515748, -0.008254825194011217, 0.012305109610032767, 0.009783420126041668, 0.006495065348884359, -0.01143368719265559, 0.008340317629434057, 0.004491742425272949, 0.003781542771686981, -0.012435908692637308, -0.00425712876700881, 3.3686440824500386e-05, -0.011185336884514169, -0.005419165346402412, -0.008188991349181737]], "weights_hidden_output": [[0.04521665474803011, 0.04238028662299144, 0.05068660281331165], [0.04121075527446698, 0.03720245745130151, 0.028262606008972787], [-0.0038117552872583716, -0.013828686227236216, -0.02506501143493924], [0.006039190375346182, 0.021678688547601833, -0.0017423961869705753], [-0.04223195421652146, -0.017086582491896204, -0.026417700721896656], [-0.019954200701208173, -0.02582059048621915, 0.016658733630354895], [-0.025190877430857572, -0.017168912544329482, -0.013484358410396274], [0.033588936768975786, 0.043879336235949286, 0.013961430152854247], [0.023834352984660915, 0.026494161173579698, 0.020719910872745412], [0.0021912239894806545, 0.016420755299588672, 0.0333692367670742], [-0.018645750753217775, -0.02494191919950421, -0.035613380181330236], [0.02249555551168138, 0.020537343975369857, 0.025120828024091928], [0.0033000769339579673, 0.013282823326278986, 0.01500825580403313], [0.004249079421125639, 0.002190425623579622, 0.016789419773052146], [-0.031881982775176676, -0.035575809084744135, -0.022000489149837783], [-0.014750720318545145, -0.002866937206052841, -0.022624472798237902], [0.008986390302810747, -0.007726757219008346, 0.0008705961488175063], [-0.021577834390568797, -0.029974221292193244, -0.03310896877951177], [-0.023773300563762517, -0.00893431121643876, -0.008963182574157843], [-0.021964292686881663, -0.007513590112195293, -0.01898358774962102]], "bias_output": [[0.27963107192434133, 0.23344689113406772, 0.21555766098275198]], "input_size": 10, "hidden_size": 20, "output_size": 3}