{"weights_input_hidden": [[-0.0014187146657829233, -0.007225466667666454, -0.001207973810276675, 0.011761255235493708, -0.01027887125699327, -2.2781388052591834e-05, -0.00841613106350245, -0.012031224252728883, 0.010705724913296952, -0.01199260111721569, -0.011056792801924974, 0.0020566003634318215, 0.002120144763492335, 0.005618078328442575, -0.010247886449017637, -0.005741429519004955, 0.005195938622335512, 0.0013354992901004302, 0.003463731231457934, -0.012300265307461172], [0.02452358320117051, 0.032538779786001414, -0.005666670865250323, -0.020117653813530225, -0.0025869601900653074, 0.0022842473266706754, -0.01077162773697753, 0.01906481854938929, 0.010226088676515163, 0.003918882952980265, -0.004650645551247297, 0.019749150590757623, -0.0056603562848866135, -0.004721856940342097, -0.006093252721916291, -0.013895557626410345, -0.015948999144983822, -0.008446066888801639, -0.01394841277423639, 0.0071935357852383145], [0.01241137040174075, -0.013278572703363144, -0.0023290662452256365, 0.006867188938440633, -0.013236445179053303, -0.004257727861169844, 0.008534637658583795, 0.007359750074160927, -7.087425333904241e-05, 0.02192914615608054, -0.003878144547111264, 0.004546196341188387, 0.008328260812852047, 0.003035079630979674, -0.0037748319820455306, -0.0027146362758094164, 0.016665764782236876, -0.012429321578147402, -0.00017116374011687084, 0.00010394342079682892], [0.0033183535795908857, 0.010702003946298038, 0.004231474685435291, 0.0033847183312024852, 0.014138006170914716, -0.005199805479454166, 0.0116151794620787, -0.020069897582690798, 0.002231768498151391, -0.0027592534849402335, -0.007437744982236494, 0.005025470573060136, -0.0043025152959946245, -0.0071636193350835325, -0.007103543004786804, -0.019967245163518357, -0.008012992783821124, -0.010882905132187601, -0.0044422476304090555, -0.009197444421400287], [0.0018734395822714866, -0.013023399406967085, 0.012510285821534517, 0.0026755831951943156, 0.015542923913476978, 0.0066044782224485765, -0.0010298729395153937, -0.011111124276045279, -0.012720547458589412, -0.005852433607190648, -0.01115408741366014, 0.014279723430698821, 0.009401113290425162, 0.005843178595253287, 0.009823449584924654, 0.002763956783231973, 0.0006455047420580995, -0.006718978749086034, 0.006161885365710361, 0.014944296540135397], [0.0020834460942321447, -0.015689303770400526, -0.0009249844126419729, -0.009534788640743152, 0.011912101044981017, 0.011642057452479608, -0.007856240197886395, -0.00021099730116838557, 0.003700282891746667, -0.006468861573515165, 0.004489487849327045, 0.006439551821848513, -0.004573649062362905, -0.008851587324556893, -0.006998025017835323, -0.016769322612084636, -0.009824453310759094, -0.009104004745602285, -0.014036386317269639, 0.013587512905627265], [-0.005363608218014471, 0.014062542445775775, -0.00224200363286376, -0.0037486210097212366, -0.010579447442811812, 0.006460847405828712, -0.006193965972849016, 0.005925819919190637, 0.005358998491345423, 0.0061989523575833, 0.017436373983423948, -0.026993947084557376, -0.006752055407386315, 0.022693305763763123, 0.00932967466422427, -0.0010219227779021535, 0.016807662950900484, -0.007027850550922611, 0.0016168647542321119, -0.0004942480429863164], [-0.0005631189382074846, -0.01146583554753505, 0.009317233271994147, -0.0044482826765197105, 0.010735692639375446, 0.000866852237305588, -0.0032077981981213422, -0.00961592974402255, 0.004072118838669005, 0.0066831264468897944, -0.016825358743071773, 0.006621728945489275, 0.01042352736988069, 0.01860383782849432, 0.01970031652914341, 0.0017236501803098928, 0.004468381853736411, 0.005245420785694727, 0.0055841361265426, 0.01952225103225491], [-0.023707124332588335, 0.009283263990269833, 0.005931402287853585, -0.005950817883760989, 0.008799239243936332, -0.008949998671518349, 0.0030206281821043737, 0.011080245464089974, 0.0005539048149847939, 0.0031458200623222477, 0.0038058442887857575, 0.0003020848179104401, 0.02237882127764547, 0.007465123044286248, 0.01361198265650742, -0.02249050650160025, -0.021003896961349997, -0.022090755422615186, -0.020056553446759433, -0.006054898606694267], [0.01696329370860111, -0.003146616425328685, -0.008000123472271723, -0.008813979390682479, 0.006979825205550386, -0.00292089763356941, 1.3632991400747161e-05, -0.013826921588063102, 0.007767414774549809, 0.004561007453548157, -0.007622969120973949, 0.004916884819343982, 0.012770381799360062, 0.006614488479258733, 0.0067879165729453775, 0.005303600734807881, -4.283518026158717e-05, -0.0033728610932362672, 0.004701448072733216, -0.026880771947838517]], "bias_hidden": [[0.0012010104548545364, 0.001571485400227826, -0.0007587439041580843, 0.0002340028233926677, -0.00037780079428104965, 0.0007151718359339001, -0.000621851741053941, 6.0026257169095614e-05, 0.0002905522406105248, 0.0003547349276527913, -0.0010523099570139086, -0.00012783223663487446, 0.0004487369267125875, 0.0007296264173090465, -0.0005147257911350534, 9.13357764139525e-05, -0.00037561073717923466, -0.0005802454766690068, -2.5818375672767392e-05, -0.0013004967527091044]], "weights_hidden_output": [[0.009041632089312008, 0.007300384594619685, 0.017121284268208373], [0.015831929158905435, 0.013070242892158102, 0.005253146671617342], [0.006756993995098105, -0.003955511607344816, -0.01630826977327643], [0.0014669914158172961, 0.015716861024022966, -0.006395004731095657], [-0.01537088391258652, 0.008794254626024624, -0.00505986812289466], [-0.010313872008991577, -0.01628400955761859, 0.024611192863113227], [-0.010512729538228424, -0.002532189074966904, -0.0008192993218964584], [0.006435429872397312, 0.01870495062859624, -0.007738288401690649], [0.0034052547899061044, 0.006663910694306776, 0.0035175182555552366], [-0.012437466500297601, 0.0031488297093238025, 0.019373581320115876], [0.00043028650931479904, -0.005293135524289975, -0.01718368797765967], [0.000560771708643854, -0.0008054229400263762, 0.00621394629718184], [-0.0045733477821203435, 0.00560690640759093, 0.00868271241899848], [0.00019403253416261406, -0.0020461286083449225, 0.011511075653558505], [-0.007198204321625212, -0.010955927217935386, -0.0014946786545124162], [0.0006488159859802552, 0.011518109589071457, -0.011258906199480997], [0.006729295988882051, -0.010466769418842718, -0.002762001877549824], [0.002111174127994409, -0.007221419510014531, -0.012676705152794206], [-0.009323525077549537, 0.004340507977655727, 0.0015137740957168165], [-0.011100709465921019, 0.003359045543874928, -0.010801175752356191]], "bias_output": [[0.056414710897696355, 0.030880275142462447, 0.06607250234262714]], "input_size": 10, "hidden_size": 20, "output_size": 3}