{"weights_input_hidden": [[0.024205383500635797, 0.0169521609928814, -0.009623563838036546, 0.01998860582157311, -0.02671144745590376, -0.009756566398591375, -0.021014451956004897, 0.007764833000761699, 0.02572232867972712, -0.002494985052371782, -0.02757451475042677, 0.01449494695366182, 0.008824899633224692, 0.010743070096840746, -0.029218136478975965, -0.01104360600630417, 0.005425503728282082, -0.015075305728267974, -0.004689157700676943, -0.023870250777051974], [0.05244160736521205, 0.058731082822196544, -0.015371316939439076, -0.011863005717425094, -0.02061657744279139, -0.006535824624755295, -0.024408530364126484, 0.0392690701296932, 0.026219300589949264, 0.014782864024751149, -0.023101376574292495, 0.03308850017194622, 0.0017688496582061012, 0.0015485919263989363, -0.02617922639992095, -0.0201061629145769, -0.015532951950995579, -0.026302552919886674, -0.02266443079941209, -0.006185043811638127], [0.04340621420969509, 0.015905900859089116, -0.013283983094641407, 0.016051051345831815, -0.0330022690043096, -0.013680387728994544, -0.0065641681718815485, 0.02950797220616034, 0.017537380766278227, 0.03406018399236663, -0.02448933956435769, 0.01910977222963792, 0.016631973519346775, 0.010156701851626303, -0.02597277931429295, -0.009404150005739829, 0.01698069605726698, -0.032189936081778295, -0.009636274696132496, -0.014941005282031974], [-0.001160040086595468, 0.0065901851378970385, 0.0047303712770623094, 0.0021036183230986206, 0.017547738259313998, -0.0025226581826886885, 0.01391745156072888, -0.023901013029924756, -0.0003356699925471659, -0.003277791730027735, -0.005394239604216922, 0.0028218575099617548, -0.0048910471347146465, -0.007467324723883992, -0.0037346321949699645, -0.01907240495957942, -0.008492661962654845, -0.008562799245463323, -0.002559020874711761, -0.007525645087199204], [0.0012930720170427135, -0.013793583595033371, 0.012173822556388346, 0.002468172788044153, 0.016373740248662248, 0.00751837391273311, -0.0004952849444122542, -0.011855565090501008, -0.013098072072247427, -0.005363042737250449, -0.01116406511661409, 0.013997536433135295, 0.009573243930799677, 0.005974830861516456, 0.010402000791949263, 0.002799685622477608, 0.0003262333705783218, -0.0066480141260081265, 0.006703378407456975, 0.01527150719264813], [0.006503939159295756, -0.012165686726072995, -0.0021803698428620824, -0.008611437740291343, 0.009075309031463615, 0.01039727022664816, -0.009691298480055769, 0.0028278160263438407, 0.006064060173211828, -0.004918588102497715, 0.0019769523889428277, 0.008617025297559587, -0.003571366808727943, -0.008136149593408712, -0.00991433785487754, -0.017991611418548985, -0.009692342833514334, -0.011759030032400412, -0.015424533071705888, 0.011965919960233995], [-0.008684678810479182, 0.011259017872094502, -0.0013001410356106833, -0.004564108139028576, -0.008362123318284157, 0.007572272167639844, -0.004727168803604102, 0.0034434965944905222, 0.00348276009088257, 0.005041535657018311, 0.019348128853475154, -0.028665773105456895, -0.007501263946969466, 0.02218900139853004, 0.01166114519250988, -0.00010162792906003524, 0.01670881319311243, -0.00493470199299275, 0.002721999917063893, 0.0007268016022687821], [-0.005944704392136917, -0.016212970503078607, 0.010181845167700708, -0.005699972453254241, 0.014812661837251325, 0.0034158451054784236, -0.0005453765656168207, -0.013840473184153823, 0.001079560704805715, 0.00575274462452502, -0.014233036063685806, 0.003972033749418105, 0.009584681319021803, 0.01804630235449218, 0.023554705833561576, 0.0030643097707586946, 0.003956816494293511, 0.008137826213317146, 0.007794079521195423, 0.021665694655766603], [-0.019228761164188365, 0.013426660931661805, 0.005466695854260144, -0.004319217845411321, 0.00577367616574987, -0.01210529611105794, 0.000805831517570875, 0.015248420300609819, 0.003182371215167726, 0.0036763844656136553, 0.001777571072270556, 0.0024597843516479443, 0.023021007266985832, 0.007630332595654816, 0.010126544707809779, -0.023016966025459554, -0.02071497252724265, -0.024415105817791473, -0.021735486921013573, -0.007429778987558918], [0.013149288012856628, -0.006416291852017068, -0.006883847654102921, -0.010116334732673848, 0.009073541024905695, -0.0012012262958228962, 0.0016271759579879574, -0.01710434452055016, 0.00553768271408826, 0.003226297272962124, -0.005456960233983105, 0.0030522801208294186, 0.011776357564823575, 0.006199573100230351, 0.009642061670713438, 0.006024380972650115, 0.00021150790861101558, -0.0008989955596473157, 0.005794954652741444, -0.025777366146929787]], "bias_hidden": [[0.016643654314579048, 0.01487524152955055, -0.005012882728402804, 0.0042145641689693945, -0.010254033096194283, -0.004600673514164698, -0.007507107882202132, 0.011245379190652261, 0.008725238137854769, 0.005313050357844191, -0.00995513705971875, 0.00719758028829897, 0.0038824973019500964, 0.0032423771577681274, -0.011182203520150735, -0.0034190260816775067, 3.728805152047818e-05, -0.009748037021646963, -0.004888346127932187, -0.007374128390650399]], "weights_hidden_output": [[0.04531753268219044, 0.041062955843423295, 0.04917922458679137], [0.0410085193984085, 0.03692219618130147, 0.026441153698299583], [-0.0041861864755388285, -0.013240493979636813, -0.024860922200445033], [0.006400543711170183, 0.021634949929006005, -0.0013112000156522499], [-0.042809038658619035, -0.016436500428979865, -0.02567459426192413], [-0.020163578438765352, -0.025834570358244387, 0.016491094224028162], [-0.025182808909357493, -0.01682261979350472, -0.01279096042339517], [0.0337121633707939, 0.043536592476449684, 0.012546333476330494], [0.024023726111142854, 0.02620415102297917, 0.020290293659964726], [0.002020380628701688, 0.016042166399830297, 0.03202637926184673], [-0.018524228612670904, -0.024784972153070566, -0.03535187721148541], [0.02238985508923444, 0.02033065730930205, 0.025027566688279154], [0.003048970780607904, 0.013054893685626737, 0.014584858399595928], [0.003692032446023703, 0.002010506547451349, 0.015270830937006258], [-0.03262410295714042, -0.03505489867521979, -0.022318662014989738], [-0.014544700087156687, -0.0032069120476629744, -0.022358021210313696], [0.009090102860148252, -0.008208201455811671, 0.00022179471413305907], [-0.021248271378486748, -0.029450440828065964, -0.03164760228306145], [-0.02374851475851431, -0.009033361565860506, -0.008651466808596561], [-0.02261474561205723, -0.006486960965595425, -0.01931793542524822]], "bias_output": [[0.27251680778048726, 0.22392326339289692, 0.18434072439070684]], "input_size": 10, "hidden_size": 20, "output_size": 3}