{"weights_input_hidden": [[0.02129736023398269, 0.014701380319420157, -0.008475055121284792, 0.019055610540104195, -0.025426305772686078, -0.008930441919520292, -0.020012618204101287, 0.005561899591266053, 0.024087844024166416, -0.00398740478296829, -0.02568732224092556, 0.01307128079166133, 0.007907071251655864, 0.010266132327419991, -0.027220445985220637, -0.010452634005089981, 0.005733820053094356, -0.013054121030791394, -0.004139931576278866, -0.023129673537953338], [0.05432374093904022, 0.06069239775444852, -0.015210501912219895, -0.011082501970969867, -0.02217250161044252, -0.008445173931012866, -0.02554361913526899, 0.0413290582260971, 0.027369924698257588, 0.014487658166616317, -0.023683632332960478, 0.033976796003479116, 0.0018301828958684652, 0.0014226681424659813, -0.027810681341035547, -0.020200300260086602, -0.015251016840006182, -0.027077130659940468, -0.023621226393085507, -0.006817043415398042], [0.04929561097771459, 0.021101816246444464, -0.014149647028156671, 0.017643137318950855, -0.037260093504114924, -0.016808909845069223, -0.00941285799740031, 0.03429510558358161, 0.020834678679276335, 0.035061500249105246, -0.027313588671537038, 0.021986806738401858, 0.017522412686198672, 0.010676075797618405, -0.030237129684081026, -0.010612917057076909, 0.0175238479614333, -0.03530182879953325, -0.011913128170078295, -0.017087806749983708], [0.0033183535795908857, 0.010702003946298038, 0.004231474685435291, 0.0033847183312024852, 0.014138006170914716, -0.005199805479454166, 0.0116151794620787, -0.020069897582690798, 0.002231768498151391, -0.0027592534849402335, -0.007437744982236494, 0.005025470573060136, -0.0043025152959946245, -0.0071636193350835325, -0.007103543004786804, -0.019967245163518357, -0.008012992783821124, -0.010882905132187601, -0.0044422476304090555, -0.009197444421400287], [0.0018734395822714866, -0.013023399406967085, 0.012510285821534517, 0.0026755831951943156, 0.015542923913476978, 0.0066044782224485765, -0.0010298729395153937, -0.011111124276045279, -0.012720547458589412, -0.005852433607190648, -0.01115408741366014, 0.014279723430698821, 0.009401113290425162, 0.005843178595253287, 0.009823449584924654, 0.002763956783231973, 0.0006455047420580995, -0.006718978749086034, 0.006161885365710361, 0.014944296540135397], [0.0020834460942321447, -0.015689303770400526, -0.0009249844126419729, -0.009534788640743152, 0.011912101044981017, 0.011642057452479608, -0.007856240197886395, -0.00021099730116838557, 0.003700282891746667, -0.006468861573515165, 0.004489487849327045, 0.006439551821848513, -0.004573649062362905, -0.008851587324556893, -0.006998025017835323, -0.016769322612084636, -0.009824453310759094, -0.009104004745602285, -0.014036386317269639, 0.013587512905627265], [-0.005363608218014471, 0.014062542445775775, -0.00224200363286376, -0.0037486210097212366, -0.010579447442811812, 0.006460847405828712, -0.006193965972849016, 0.005925819919190637, 0.005358998491345423, 0.0061989523575833, 0.017436373983423948, -0.026993947084557376, -0.006752055407386315, 0.022693305763763123, 0.00932967466422427, -0.0010219227779021535, 0.016807662950900484, -0.007027850550922611, 0.0016168647542321119, -0.0004942480429863164], [-0.0005631189382074846, -0.01146583554753505, 0.009317233271994147, -0.0044482826765197105, 0.010735692639375446, 0.000866852237305588, -0.0032077981981213422, -0.00961592974402255, 0.004072118838669005, 0.0066831264468897944, -0.016825358743071773, 0.006621728945489275, 0.01042352736988069, 0.01860383782849432, 0.01970031652914341, 0.0017236501803098928, 0.004468381853736411, 0.005245420785694727, 0.0055841361265426, 0.01952225103225491], [-0.023707124332588335, 0.009283263990269833, 0.005931402287853585, -0.005950817883760989, 0.008799239243936332, -0.008949998671518349, 0.0030206281821043737, 0.011080245464089974, 0.0005539048149847939, 0.0031458200623222477, 0.0038058442887857575, 0.0003020848179104401, 0.02237882127764547, 0.007465123044286248, 0.01361198265650742, -0.02249050650160025, -0.021003896961349997, -0.022090755422615186, -0.020056553446759433, -0.006054898606694267], [0.01696329370860111, -0.003146616425328685, -0.008000123472271723, -0.008813979390682479, 0.006979825205550386, -0.00292089763356941, 1.3632991400747161e-05, -0.013826921588063102, 0.007767414774549809, 0.004561007453548157, -0.007622969120973949, 0.004916884819343982, 0.012770381799360062, 0.006614488479258733, 0.0067879165729453775, 0.005303600734807881, -4.283518026158717e-05, -0.0033728610932362672, 0.004701448072733216, -0.026880771947838517]], "bias_hidden": [[0.008285093292958652, 0.007798256381588324, -0.00303549364011954, 0.0019747993613425346, -0.004815907698965449, -0.0011065888902819401, -0.0037973559987465725, 0.0047311420898819715, 0.004052269151483481, 0.0029183138070414385, -0.0054547672997265, 0.003085132747857102, 0.0021523496193041366, 0.0022260975011397046, -0.005259594874051301, -0.0015022023711772784, -0.0002155098629604414, -0.00482168892691602, -0.002094969186785081, -0.004481667722853287]], "weights_hidden_output": [[0.05170077179284518, 0.04427264392961487, 0.04629451200689943], [0.04349363082746661, 0.03742410917129498, 0.025175074265606726], [-0.004681925349730718, -0.013775831310349455, -0.02433265053182333], [0.00729732374256341, 0.0209701965395185, -0.0017200063020207234], [-0.04442935643751327, -0.016487984331996573, -0.024886720580676078], [-0.021107284390946383, -0.025954863894735815, 0.01648270119443028], [-0.025696191323507287, -0.015954339360724015, -0.011529756226461652], [0.03360812513813258, 0.04242640075749776, 0.011718716283315719], [0.026175881934109167, 0.02654655393930508, 0.019159907999619676], [0.005574090456382934, 0.01841084845849693, 0.031981043993495786], [-0.023031772130971576, -0.025681228332917905, -0.033441383301584186], [0.02518905531614852, 0.020503742929512323, 0.022794380807989158], [0.003869434397508433, 0.012862954422001579, 0.014780204811804563], [0.006199606493233114, 0.0031394330042905033, 0.015779056895971602], [-0.03379660000204724, -0.03422838487982446, -0.020049247376999216], [-0.01500449889457906, -0.0019280001438791738, -0.021328131627355446], [0.011832762572465056, -0.006091305938558236, 0.0005564256849895583], [-0.0234124557670251, -0.0292907190619795, -0.030487412697181422], [-0.022879914625645797, -0.0074906284439757035, -0.00790804749267281], [-0.022896433018129502, -0.007051685948454896, -0.01936943193860418]], "bias_output": [[0.1888455433466152, 0.14138766840336456, 0.16278694178589315]], "input_size": 10, "hidden_size": 20, "output_size": 3}