{"weights_input_hidden": [[0.012378878227752688, 0.006649850198526359, -0.004826300624891693, 0.016584729323818114, -0.0186661611732848, -0.005996932811161852, -0.015272131729721838, -0.001279106664884757, 0.01824644328440951, -0.008521712079098694, -0.01918624096907286, 0.00757548319763347, 0.00516138042266206, 0.007991558582479071, -0.020352335816789024, -0.007192892392849263, 0.005084743042105505, -0.006563508672020808, -0.0006372960896235231, -0.018617401978753098], [0.041996452293561394, 0.04985020936754253, -0.01040900106720691, -0.014200672809799154, -0.012975969582470517, -0.0047431820668392384, -0.01924667579350641, 0.03230505559876187, 0.019615045971521198, 0.00851524589957076, -0.014992180802928586, 0.0266393779505369, -0.0017465623300588463, -0.0016183706023221705, -0.018652119139809242, -0.01578925444161487, -0.01619483465684889, -0.018434086482573518, -0.018943679013866916, -0.0007567580215465813], [0.03355951569298692, 0.007468969593526283, -0.00819539983452379, 0.013877676857578347, -0.025627174047572195, -0.01233843522508041, -0.0015594577882545929, 0.023088106585061968, 0.011166321965560472, 0.02765098301114452, -0.01643176688332595, 0.01280776822654529, 0.013114613063337856, 0.006868572052983026, -0.018788115450060042, -0.005050567032374166, 0.01628528933873673, -0.02450635280356993, -0.006060668898296462, -0.009479507521481028], [0.0033183535795908857, 0.010702003946298038, 0.004231474685435291, 0.0033847183312024852, 0.014138006170914716, -0.005199805479454166, 0.0116151794620787, -0.020069897582690798, 0.002231768498151391, -0.0027592534849402335, -0.007437744982236494, 0.005025470573060136, -0.0043025152959946245, -0.0071636193350835325, -0.007103543004786804, -0.019967245163518357, -0.008012992783821124, -0.010882905132187601, -0.0044422476304090555, -0.009197444421400287], [0.0018734395822714866, -0.013023399406967085, 0.012510285821534517, 0.0026755831951943156, 0.015542923913476978, 0.0066044782224485765, -0.0010298729395153937, -0.011111124276045279, -0.012720547458589412, -0.005852433607190648, -0.01115408741366014, 0.014279723430698821, 0.009401113290425162, 0.005843178595253287, 0.009823449584924654, 0.002763956783231973, 0.0006455047420580995, -0.006718978749086034, 0.006161885365710361, 0.014944296540135397], [0.0020834460942321447, -0.015689303770400526, -0.0009249844126419729, -0.009534788640743152, 0.011912101044981017, 0.011642057452479608, -0.007856240197886395, -0.00021099730116838557, 0.003700282891746667, -0.006468861573515165, 0.004489487849327045, 0.006439551821848513, -0.004573649062362905, -0.008851587324556893, -0.006998025017835323, -0.016769322612084636, -0.009824453310759094, -0.009104004745602285, -0.014036386317269639, 0.013587512905627265], [-0.005363608218014471, 0.014062542445775775, -0.00224200363286376, -0.0037486210097212366, -0.010579447442811812, 0.006460847405828712, -0.006193965972849016, 0.005925819919190637, 0.005358998491345423, 0.0061989523575833, 0.017436373983423948, -0.026993947084557376, -0.006752055407386315, 0.022693305763763123, 0.00932967466422427, -0.0010219227779021535, 0.016807662950900484, -0.007027850550922611, 0.0016168647542321119, -0.0004942480429863164], [-0.0005631189382074846, -0.01146583554753505, 0.009317233271994147, -0.0044482826765197105, 0.010735692639375446, 0.000866852237305588, -0.0032077981981213422, -0.00961592974402255, 0.004072118838669005, 0.0066831264468897944, -0.016825358743071773, 0.006621728945489275, 0.01042352736988069, 0.01860383782849432, 0.01970031652914341, 0.0017236501803098928, 0.004468381853736411, 0.005245420785694727, 0.0055841361265426, 0.01952225103225491], [-0.023707124332588335, 0.009283263990269833, 0.005931402287853585, -0.005950817883760989, 0.008799239243936332, -0.008949998671518349, 0.0030206281821043737, 0.011080245464089974, 0.0005539048149847939, 0.0031458200623222477, 0.0038058442887857575, 0.0003020848179104401, 0.02237882127764547, 0.007465123044286248, 0.01361198265650742, -0.02249050650160025, -0.021003896961349997, -0.022090755422615186, -0.020056553446759433, -0.006054898606694267], [0.01696329370860111, -0.003146616425328685, -0.008000123472271723, -0.008813979390682479, 0.006979825205550386, -0.00292089763356941, 1.3632991400747161e-05, -0.013826921588063102, 0.007767414774549809, 0.004561007453548157, -0.007622969120973949, 0.004916884819343982, 0.012770381799360062, 0.006614488479258733, 0.0067879165729453775, 0.005303600734807881, -4.283518026158717e-05, -0.0033728610932362672, 0.004701448072733216, -0.026880771947838517]], "bias_hidden": [[0.0048762866537098186, 0.005007598115576132, -0.0018827472914996514, 0.001327509738799322, -0.002379520270394726, -0.00033810613446675253, -0.00224089913136344, 0.002548145718697556, 0.0021387911645040026, 0.0014802088361262828, -0.0032643970415473043, 0.0012435122889427508, 0.0013212952223706305, 0.0014596325012924745, -0.002969142841256617, -0.00035089816494626616, -0.0005102506688143, -0.002669257108319654, -0.0009200572942218349, -0.0029336538882020653]], "weights_hidden_output": [[0.033823433047341984, 0.030634972208037427, 0.03186972141696158], [0.03001056428655637, 0.02701498495247421, 0.014169838674912115], [0.0007337186612174668, -0.009611657471695685, -0.019866051629878024], [0.0036499888972435285, 0.01812453051426665, -0.004752149499329998], [-0.03222428897033877, -0.007062245800559578, -0.014934457331902443], [-0.015658489387774758, -0.021744630784037093, 0.020981717221060743], [-0.01842073756561486, -0.0102060591637535, -0.0055326419521078765], [0.021066688980414222, 0.03287658745587915, 0.001473586148575244], [0.016152545861852316, 0.018704910249663153, 0.010949709248300792], [-0.0022592127900484308, 0.012604770664253685, 0.025558175768181198], [-0.012384866070691052, -0.01741308473798005, -0.024721965705257504], [0.01512699371003081, 0.01270782414805451, 0.014570018321219963], [-0.0002878898037639277, 0.009705379763118598, 0.011347481036922506], [0.003191099844677856, 0.0008126387611381332, 0.013288620374952487], [-0.02178750264585542, -0.024902777864182723, -0.010238146652897078], [-0.009217198088039346, 0.002608408896320189, -0.016588027806112834], [0.010215443950916336, -0.007281868408819881, -0.0007583991870765711], [-0.012068755219265643, -0.020626895295284702, -0.021211894324587033], [-0.016975874242870913, -0.0029341558045329653, -0.003051308651714814], [-0.016744763435480148, -0.0022354075354287543, -0.014281804194731393]], "bias_output": [[0.1425259894467128, 0.11222488467372331, 0.12588008877856974]], "input_size": 10, "hidden_size": 20, "output_size": 3}