{"weights_input_hidden": [[0.009563106946563114, -0.01750869923994085, 0.011763657349967689, 0.01125612419118692, 0.01144097262354013, 0.022851145373251894, 0.002223669497423349, -0.014194219181056185, 0.016627178334108355, -0.01300517341730567, 0.012464349148241115, -0.006846103926065516, -0.016648791500147194, 0.003303129993764686, -0.009498386901894482], [0.0035154897674360575, 0.01164494155031753, -0.004714613964718112, -0.00250576080706367, 0.003116716932744646, 0.004328919412376458, 0.001919467783329093, -0.009102941115257496, 0.021716864826510928, 0.004247279456753679, 0.003723293719006948, 0.020192841985770156, 0.0022333570947705413, -0.025166875895255368, 0.0031135934448294628], [0.006119173204346026, -0.0015037025717332757, -0.00398249637526188, -0.004165927527095558, -0.013136840752004083, 0.0006290092273566956, 0.010436637216148946, 0.004510260918787699, 0.0008791464249752191, 0.01723577114725388, 0.010335379365733597, 0.025879285194882303, 0.008272553424061246, -0.004077337676581021, 0.01898197823497463], [0.009106099885754742, 0.01511366087054574, -0.003654226040701433, -0.009876015488787441, -0.008660911017347266, -0.007759521148638437, 0.02808462710068617, -0.003479906157549592, -0.010685174713293565, -0.0002867845754463576, -0.014741524168890543, -0.01586287098762168, 0.011197994480399868, 0.00996754754333848, -0.002352383815770293], [0.003415696002459712, 0.0024791077291603358, -0.00947007905830097, -0.009127833518195728, -0.012434861281400315, -0.007864197595024323, 0.013778725191191594, -0.003078324140423853, -0.0014660195313830355, 0.0012553800093301753, 0.010890872707749076, 0.012456574662013007, -0.0024766089588132848, 0.004360249326151542, 0.013235914988807917], [0.005403536535756805, 0.005831542149217123, 0.0007844621061573402, 0.011792807284517762, 0.00350465593257437, -0.007723562735722303, 0.019687509999986825, -0.010852109305513299, 0.007915046975132536, 0.00946272269445673, 0.015420245424925934, 0.004745077267517647, -0.008274394201557532, 0.007675628146650545, 0.011632921470466318], [-0.004360323446924295, 0.005594404506211062, -0.0067883685020682545, -0.002035186842807018, 0.0012475334946896414, 0.007364601533623634, 0.015075607594228102, -0.012570558191186892, -0.0031731972913972986, 0.01243926122146773, -0.01701613763531755, 0.003947850558899661, -0.00663111531333239, 0.024835731104650264, -0.0028057912688423535], [0.0034934875194352084, 0.006730845650348515, -0.010976411197943944, 0.006079114146059199, -0.005194298694166632, -0.0011517648180584307, 0.017091781146687697, -0.003982732691368885, -0.003404559952471932, -0.012290141312738014, -0.01156051743704822, -0.015964212773395773, -0.00834398686075964, 0.0021190906273076374, 0.010006327269688942], [0.00031575113857027523, -0.0007620247080118937, 0.006821688339006792, -0.0011942413920632104, 0.0024781623156291902, 0.0038957265829451214, -0.002786743612079439, 0.012882704546945293, 0.00288152175032394, 0.02243670507181112, -0.0010912798971284678, 0.01111521914100689, -0.00928656552340753, 0.008290166550392726, 0.011287379370960332], [-0.006506387169759398, 0.006800062708659326, -0.003230553951116962, -0.013911693331094925, -8.32365721125481e-05, -0.0007798198819501689, -0.00035242816398213517, 0.005750217229876091, -0.021657349170826012, -0.00126939876862966, 0.01491165090277628, -0.014106979602636887, 8.311294379992209e-05, 0.0012219999189861071, 0.008999755372966156]], "bias_hidden": [[0.0005942886593967388, -0.00024296709203062752, 0.0008388580101182576, -0.0002968762305361506, -0.0004501609529706395, 9.917886954605455e-05, 0.0010554980751231616, -0.0004950321612949732, 0.001185783620506695, -0.0009120344216037303, 0.000820322656000366, 0.000748517606192649, 0.0003157338038168619, 0.0010119158324878076, 0.0008390932565176165]], "weights_hidden_output": [[-0.009856837147754273, 0.002095298282652729, 0.006243932884929729], [-0.013003536786872702, 0.009160341497134827, -0.008527112385851649], [-0.009886103394413885, 0.0004109237447564724, 0.010077768348723084], [0.0016301397750272278, 0.014098772671524528, 0.0010934282430964022], [0.006493292881211526, -0.014521451711145036, -0.010564262392436082], [0.005518270730456966, 0.011730895947039941, 0.009938134563077055], [-0.012205191975733207, -0.008011023771661453, 0.00951860545713869], [0.009751933534188446, -0.004098232390040982, -0.00525318870775443], [-0.008744933850199602, -0.0017159450095255936, 0.01648182571934393], [0.010485817763891942, 0.017577215253978894, -0.0037393874102408884], [0.003779296112578581, 0.004172266922890375, 0.01942567452117078], [-0.007353902313549252, -0.0070941978784491285, 0.00692072392986516], [-0.00040897626686586396, -0.010396442473015452, 0.0014383372048751098], [-0.017955529964815073, -0.0054182270713643, 0.006248934963103597], [-0.01316211284260476, -0.004514995933326653, 0.006247830271090796]], "bias_output": [[-0.03152691455399935, -0.021633590531367427, 0.05316050508536679]], "input_size": 10, "hidden_size": 15, "output_size": 3}