{"weights_input_hidden": [[-0.0034123475204307753, -0.0015987369880192438, -0.005669616189886163, 0.0010995763005205604, -0.015618373778621257, 0.00043750042017557555, -0.00025649523941108474, 0.004611858684758909, 0.0032360005916845726, -0.004958945151884707, 0.0013888487821174503, -0.0034712100831352957, 0.015733085645682373, -0.016780317834373892, 0.002747580989982573, -0.007214304199214331, -0.00402721911599785, -8.975202725700793e-05, -0.00254188578443314, 0.010484334473205155, -5.6793502940969114e-05, -0.01839834782530028, 0.0031032821081876548, 0.011060723017325119, 0.007161901059857641, 0.0071710400259924895, -0.008213556154059012, 0.016490742959588498, 0.01289483853347962, 0.009406109690844756, 0.0027311482613543814, 0.011538166329890878], [-0.011933959608090471, -0.010723008383837263, 0.0010509525819667788, -0.008750693931391098, -0.0007809864217624369, 0.0030228370072103937, -0.01515716206262737, 0.0011723986509219895, 0.003480576993807765, -0.0029527911799736963, -0.016861794198693783, -0.003612872750908532, -0.0022122193160485372, 0.003221451637637398, -0.0023205666442684073, 0.007229575148205456, 0.012722093027150367, 0.005003469607395767, 0.0013937311883347515, 0.02059208325769065, -0.014173415387888437, 0.006781903283049282, -0.005031324264480695, -0.0010454947407746412, -0.010817582498613152, -0.011997335598850259, 0.004490303258544156, -0.012729722395143136, -0.007243274850822393, 0.012814318974507941, 0.005163629338409699, -0.006709140724442702], [0.025453805602992072, 0.008774692244816692, -0.0013084358404522765, -0.006810282649916144, 0.011160915714372052, 0.014112152587351195, -0.004601948938978252, 0.005605618845941591, 0.0003181329427976167, -0.012033633282503503, 0.004793732062710401, -0.005458557877495133, 0.014400784185363835, -0.0015145326799243424, 7.867818765231869e-05, -0.0011049649569389128, 0.011621589871448927, 0.0070956341756609875, -0.012116481357219655, -0.01056444700826029, 0.00925209736247994, 0.0006592393627398127, 0.005692173193555405, 0.0014295569135926163, 0.013689241152707294, -0.01263113431435096, -0.0057416522590081655, -0.0034102771729548685, -0.006603073070379462, 0.0158047185525326, -0.033375838702746546, 0.0065288561384345195], [-0.008340542042761375, -0.0009157399818133489, 0.007998689924298403, -0.005414250994428808, -0.009981869646365668, 0.005952051487285003, 0.006296821329217161, 0.002092119057814395, -0.004375933108611191, -0.009484632918939516, -0.006845987750077384, 0.0020144198427715317, 0.002170511070506072, -0.0017699712269049438, -0.02519276055085417, 0.0002756331513672583, -0.001138420676375925, 1.624150901738804e-05, -0.014579759885383289, 0.010906742205653895, 0.002288130014804635, 0.007073026207533762, 0.0013476397643023001, -0.004216033245272315, 0.008099021831760068, 0.010447671805213499, 0.0014105017129423833, 0.01162688486804115, 0.0020448909060888612, 0.0018090081057711197, -0.00684991047379798, -0.0016014942738193517], [0.008253450137774124, 0.00997895152891012, 0.013527594879084906, -0.009178396624460733, -0.0016588251207175387, -0.010594147009243916, -0.0002330161102133986, 0.005671460046984743, -0.01673139079589327, 0.008191768315144768, 0.0010885200088934007, 0.006628945055356659, -0.0003313480546687093, -0.014368771012418754, -0.010749116020030265, -0.007064677841714109, 0.014745154048491313, 0.007973551231193417, 0.0017377504334201435, 0.0014132928681995774, 0.009886499717787184, -0.015060315064465942, -0.010739436474311038, -0.010845839796192245, -0.008742639855960134, 0.011498961875258033, 0.00878131572321565, 0.012878997703164283, 0.003043361992237442, -0.010099929301573066, 0.0024443910158197008, 0.0031065922234450425], [-0.009633149430490803, -0.005604472618371973, -0.014753147098415992, -0.007616658898020364, 0.0075321020635238925, -0.0003391752350591155, -0.014091995279342608, 0.004594833437948219, -0.0021293986601384116, -0.01900267752104531, -0.0010645855003691958, 0.01276778465161415, 0.019497624679057385, -0.008564337949348874, -0.005669803971232441, -0.006466372080823677, 0.005674156086881659, 0.0005499350497995344, -0.008781088061983983, -0.004008796907621992, 0.012662601816243832, 0.004236983624478746, -0.01886543697144108, -0.009139578737688331, 0.0033363745927711334, -0.0046823598306025655, 0.0053646814063237885, 0.006039528607463678, -0.012568185059889166, 0.026296576449717793, -0.016376675389835147, 0.005730356801042265], [0.011758234106352005, 0.02021426812593405, -0.011200669958310828, 0.0033386031801462164, -0.00598176920947398, -0.004836951275476132, 0.0022560518609082247, 0.014231263279372464, 0.003896844968123937, -0.006218503617979577, 0.0040117728572821405, -0.009239697179518655, -0.004506673039534158, -0.023479542464407914, -0.010763199984966002, -0.0008075685730542844, 0.005643931825412777, -0.009700703348828455, 0.011688175672556598, 0.0028288749031796985, 0.00975263399148907, -0.011210040479491513, -0.0022179194199468785, -0.009380329235641742, 0.023764449349109106, 0.001970857247955831, -0.003251632337853791, -0.01643691260411798, 0.008853615979238193, 0.00741258485556702, -0.011666049488013159, 0.024373223431373332], [0.008921936230056505, -0.001886429216296434, 0.02560568770654113, 0.004816994574456747, 0.01441064632036177, -0.008594698930529157, 0.006395855220463798, -0.004592180023660119, -0.017617573877408484, -0.0035506783998614693, 0.00014415142453735476, -0.0003101673499030668, -0.009332699239765386, -0.008005790460048456, 0.011838681278375169, 0.0015269467957858965, -0.007433293419236077, 0.004534581703643173, -0.009141388217615471, 0.012954222549855789, 0.007916288948815126, -0.009376791294574227, 0.003584275814637175, -0.012101678597942193, -0.016027106214522774, -0.008207810664259463, -0.013345084191109354, 0.002675659996832657, 0.011837111237062947, 0.004017677976724314, -0.005401983342186118, -0.022972526038235686], [-0.0002622412712988443, 0.007237812990253806, -0.0008168724785794465, -0.011938724033291773, 0.005915000999762712, -0.009117486982659045, -0.0063391235204136006, -0.003909809524385464, -0.00544756032701074, -0.009637702098512, -0.015517587157942209, -0.023962111914378026, 0.014483856705904723, -0.012338663008976888, 0.009568633479436319, -0.004583871814066039, -0.014683084203817542, 0.013057708193093818, 0.02478869647360082, 0.009877121275476212, 0.009324818512062244, -0.0009285616072939296, 0.006551597353189306, -0.03241873596103755, 0.005919523466853024, 0.018996040093538315, 0.01296752333783228, -0.0155426118746636, 0.0005973469738775972, 0.01514387240142402, -0.0014026815859561335, 0.005618160896210951], [-0.017970398226916148, 0.019185584052023082, 0.0016505236971249134, 0.0020450646475699535, 0.018709484087124556, -0.00431080259084174, 0.00701391603335109, 0.0035771384184010825, -0.007997235362003278, 0.034624321803626255, 0.007406215889954385, 0.009837109021811816, -0.004829102410716528, 0.008194623046418945, 0.005698206432947053, 0.006772658878852412, -0.00511500905051823, -0.009126027254174622, -0.01902531209483467, -0.02182180567760761, 0.0020685881380228073, -0.010633446178507876, -0.0072468334759212, -0.012504512308769731, 0.0011149788550702438, 0.021541854069203125, -0.0017243084752098247, 0.012660141623738488, 0.011761299044270934, 0.012277479157284927, 0.0073173199183059695, -0.006900804251956356], [-0.021532674298673858, -0.0031902303167518006, 0.009494364508259356, 0.020492990356268264, 0.0013830967087150234, 0.002897955434775681, 0.004784623226237507, -0.006575332478424885, -0.019852104202678418, 0.0021571508410372364, 0.025435522248380495, -0.0024163096704381717, 0.00533233481522965, 0.00921167110261857, 0.005995073957872981, 0.016001875279818986, -0.0035527556608854613, 0.016030765492653892, -0.007512756073658936, 0.009694544066117887, -0.014658125149410364, 0.015899807616903305, 0.0032548448554537575, -0.007245544601054029, 0.003477492941484159, -0.0009575824710119018, 0.002417429224726618, 0.004169066127157972, -0.01819184482281741, 0.002386177887776874, -0.0026951905879527447, 0.0001862699613945283], [0.00665331925505846, 0.010461006957081376, -0.014727237687454781, 0.0035560547996185245, -0.016347381985273097, 0.016717833812844807, -0.00579934016254729, 0.00860511392893213, -0.0005189337779763981, 0.0013935882151265575, -0.01920448995998141, 0.009922289490299144, 0.018442844373872478, -0.0034870421570469116, 0.008390676498724967, 0.012787488968870919, 0.0005397746057348718, 0.012643064310816226, 0.017506681727905107, -0.00245888314171722, -0.013861662304283907, 0.010799741669556854, -0.003964646080166767, 0.014111677664006835, 0.016934829036507486, 0.004494761157890186, -0.0230341546765217, -0.0030767777443933644, 0.018047919450791452, -0.005730004219063887, 0.00013436304536754398, 0.02306341592709543], [-0.010162733943703938, 0.012236486722205937, -0.0067834229125727594, -0.008993146025053328, 0.0005274090050597734, 0.027036326564285257, 0.0023587993152024097, 0.018469704329548232, -0.008337549549200206, -0.008788539884466658, -0.014493632815409382, 0.0022159311968517736, 0.012928945380891748, -0.005957880899363674, -0.004191436126437666, 0.004153609420314984, 0.004246274838176174, 0.020034349580143062, -0.008380261344503152, -0.015985535493070597, 0.0012131913626871357, -0.01966882113352243, -0.001183880280102326, 0.0014102889419576106, 0.016169607729372263, 0.000832920060667964, 0.00871527711215695, -0.00459567593471045, 0.010071043052221233, 0.0007203236507981572, 0.0012142172338137332, 2.0096450595178983e-05], [0.0014477047765444253, 0.000266023161846714, -0.022923440401950757, 0.0014608706512802276, 0.023520300849363084, 0.020185407379810127, 0.003959372037083068, 0.00902726502216736, 0.0077625614713475125, -0.013556398766177861, 0.008241236550824519, 0.00047552645291295317, 0.001639725655729387, 0.0034468489674090007, -0.007827396974258403, 0.005497073723704215, -0.0026954962551065903, -0.00301526122851661, 0.0035914217301670623, -0.011963462541992494, -0.0033009826647545947, -0.00024051178459892427, 0.0006977724554518357, -0.0102299136991709, -0.015257348672246526, -0.006034473623689758, 0.01247480694307237, 0.0037115927593709126, -0.006389977386097845, -0.0007535780030465623, 0.00275670974146569, 0.026387804650420444], [0.009709670025428689, 0.0021484740622940523, 0.011620139763850746, -0.002002707365346575, -0.0066990275528337915, -0.006911378022191288, -0.0024891013324614807, 0.012588444695477263, 0.0052159298972360504, 0.009218225420426078, 0.0018910895125266872, 0.011864735628604413, 0.002354751571074621, -0.007702294095766244, -0.001674175331962839, -0.008389721678277371, 0.00785472274100729, 0.002997571654017073, -0.011921804918629257, -0.013275966352894313, 0.017427563290747714, -0.015095462551663105, -0.024965321266959474, -0.017391810497257746, -0.0024516947035529923, -0.015153098523500467, -0.008714695515410405, -0.012314358856820643, -0.008805968847345474, -0.01773892892528247, -0.006901054429632776, 0.010492077000578104], [-0.0005752676508197907, -0.010201988163141613, -0.011286667495767554, -0.004404690455589343, 0.005006610287573028, 0.016932741349275904, 0.006990188782803777, -0.007165709784358317, 1.9845926119076512e-05, -0.010181196868843416, -0.016050971963853956, -0.0014419189994482687, -0.004820656649958793, -0.005546501117292873, 0.001762591273530227, 0.009019364297529316, 0.00259830442522904, -0.007170710981877691, -0.018545204898553526, -0.002795046180475246, -0.006009185480363506, -0.012428340905737712, -0.010529214006892522, -0.010480007259861496, 0.007194632361614882, -0.011580563398492127, -0.010902037252897068, -0.00459401796259108, 0.0060173213194600695, 0.006525345222152772, 0.0047841986326992055, 0.014324517953408137]], "bias_hidden": [[-0.0002592039525050693, -0.00022302483559783767, 0.00024041032825806495, 0.00019508652201560177, 2.631371788731806e-05, -0.000126355889881676, -8.800683681334026e-05, 9.074784400779336e-05, -8.424073207006052e-05, 8.858270219053189e-05, -0.000519171774392778, -0.00019359367768220618, -0.00019918926060940554, 0.00014718400116304827, 0.00020542306854450171, -0.0002948729417005695, 4.733106881512191e-06, 6.969819604186064e-05, -0.0002198784677093323, 0.00019080018997081827, -0.00011884252519054855, 0.00020164928665228763, -0.00011252241279323214, -0.0005242398181776905, -0.00017951303726893434, 7.938435048532208e-05, -0.0002650922641994698, 0.00011454857386242296, -7.80166023954067e-05, 2.0772795912397546e-05, -0.0003163378169876413, 2.8671607537869734e-05]], "weights_hidden_output": [[-0.006405159877410708, 0.0015401435973270638, -0.003296809615850496, 0.01232741502731508, 0.0027759276519230963], [-0.004240569582552849, 0.0020010370583505, -0.0031494773943086113, 0.005401638355362593, 0.008720115008216614], [-0.002240155072165078, -0.005696754276506908, -0.002009345851844683, -0.017269545834555575, -0.009426739063028761], [-0.013728504823852194, -0.0016394463010202427, -0.0023532460842785093, -0.013566511606039852, -0.019022133548511136], [-0.007553511825552643, 0.004747388792527489, -6.070802756735377e-05, -0.007626339952989573, 0.00012509304198083586], [-0.008457557720875364, 0.011523856627571747, -0.002056260989097602, -0.00605297131498444, 0.014089927944684864], [0.008315842278026099, 0.0020786032450772368, -0.016945749595761006, 0.010334721448096976, 0.003168544656980575], [-0.005677886405917422, 0.0010878890657170786, 0.006790972915859019, -0.0047256104607924865, -0.0071984124062118016], [0.0005606429453506926, -0.0064678480030598865, 0.008023450273212353, 0.006264919693125787, -0.00031923026469233775], [0.013187456094658129, 0.006963678562537361, -0.013792604811180099, 0.0052342456420996246, 0.0031289243314295613], [-0.02092958614678979, 0.005541091397255719, 0.004786781323120367, 0.014279301217984612, 0.011884372791522655], [0.0011905230163344529, -0.009056295092856027, 0.021405080470489574, 0.007416294395648164, 0.009451047026871757], [0.006121779389774434, 0.006334499244242197, 0.0039024923187861806, 0.024419046344132382, 0.0033490553899031624], [-0.00654771418699291, 0.007825743481977433, -0.0008621924884575892, -0.0048924793661950594, -0.008711764361243591], [0.003059391096215469, -0.001044217048561728, 0.0022457036332429463, -0.013673447603168389, -0.00015446192049945327], [-0.008694037319129867, 0.005319866813408544, 0.007417028305372146, 0.019633473978902815, 0.0008681356388993514], [0.005141832267863943, -0.008225680112767168, 0.0021422719846893004, 0.0015357587445934886, -0.0015721057908230564], [0.0040064131503923395, -0.0166560940275556, 0.0019408217697148272, -0.02011593793241688, 0.007411552993467973], [-0.0044215858655826425, 0.002247158116633204, 0.000523262575816618, 0.008086599893882905, 0.007687051154186849], [-0.01131416116217687, 0.004017962941386617, 0.014340360543587753, -0.013677607827457172, -0.008153497783755738], [-0.0024835143052080086, -0.015383242414061683, 0.00017416462040742496, -0.009125543361545784, 0.005917143676092675], [0.012947845493811838, -0.007127097124488068, -0.0012940409082976665, -0.020926476814543217, 0.013545520987357366], [-0.00785014842614799, -0.020191033411724724, 0.015211569889240968, 0.001518245819988619, -0.009592546201361293], [-0.009953079450037813, -0.006796816047821221, -0.00891654013796811, 0.017517929229846275, 0.00994711947614712], [-0.0027079064026868387, 0.011868086312182557, -0.0035205001256159224, 0.011268462400052536, 0.007370813337616444], [0.004528339278609587, -0.0003657276889427854, 0.002026646315975849, 0.011133756416245472, -0.01267717425775726], [-0.013578103863005774, -0.0013479006862164005, -0.004967353916329768, -0.004805858368086898, 0.010372804049833841], [-0.017719062829303436, 0.023684843219300887, -0.012907118893226946, -0.0028611330276350185, -0.013341563537866898], [0.0013715896926896007, -0.0032404954235103404, 0.008839796212331356, 0.006762963020538589, 0.0011077397507890596], [0.0035130033660154087, -0.0027119277044386396, 0.00400520520266674, -0.0028371586489541593, 0.0033396610431071236], [0.0005394260485243737, -0.014768165091785444, 0.0068784192424954415, 0.015894829424771016, 0.0036490275975598094], [-0.013219513381649053, 0.01303388144892053, 0.013134537521419635, 0.0026199726460843236, -0.008142237649430003]], "bias_output": [[0.012881546655715915, 0.007953678007108746, 0.0030308769250492525, -0.01193178763036086, -0.011934313957513052]], "input_size": 16, "hidden_size": 32, "output_size": 5}