{"weights_input_hidden": [[0.00952554279076837, 0.009672815529589108, 0.006765573046729908, 0.0005806492382304134, -0.0023232335886802908, 0.0071134919214087215, -0.014413762148875226, -0.01628425227084757, -0.009307721361048602, -0.0015511289448873926, 0.016311789780397868, 0.01585286242508362, 0.004041878596242808, 0.0029591144273204443, 0.0007272119529435937, 0.011209345299424021, 0.01034871617181714, 0.00562423682181689, 0.0059336620240872055, 0.02309048044072644, 0.017608911136586882, -0.010765722767637704, -0.010320490803153826, -0.010686613051097842, 0.0173514783646817], [0.003655340667512399, 0.0016753293909708578, 0.0044347986832440345, 0.009104516997665759, -0.01154881317037237, 0.006441170380490188, 0.004913076788227576, -0.023603781386843006, -0.007964931106253893, 0.021780363718851586, 0.021716172858618245, -0.006130471496046066, 0.015116979754295927, 0.0003011709981276641, 0.012253380793772783, 0.015204739320088846, 0.00034890896070213675, -0.020910903347343652, 0.00519246624803571, 0.02174415255145557, 0.003521163406321893, 0.016104885374710918, -0.01525102958764, -0.018042922611907874, 0.0027878391295554205], [0.0012883750023649967, 0.009728998424957355, -0.0022754397564325635, 0.008073202544837923, 0.00036756625595955677, -0.0010152185685828403, 0.0021625993664696145, -0.013304184185753517, -0.0066001407657636044, -0.005477001671344326, 0.010910447316107734, 0.004940382847473833, 0.017698223728982197, 0.0051084790804914425, 0.008532582357045461, 0.00879950630985132, 0.006626340920334383, -0.0012786180139946655, 0.0023151667169246564, 0.01977216924095624, 0.009344369596784448, -0.0034029279389814204, -0.002104049347669515, -0.007779783152830437, 0.00478666713549926], [-0.003633573015416016, 0.004876413323178947, -0.013530721048445998, 0.0087433374415532, -0.018902262232759787, 0.010959188994067611, 0.0068642350911943895, -7.210595454629874e-06, 0.017863538408884435, -0.000912389114526473, -0.011363146011049586, -0.015193897102005088, 0.0009137652377303518, 0.007500855916301199, -0.029272994979555822, -0.006191950952633908, -0.0025407654405221075, 0.0014614903375987206, 0.010466013557596089, 0.011092365363729062, -0.004381626629866971, -0.015597223932243252, -0.0054921875147688586, -0.021102452616721463, 0.010113627197828162], [-0.0014107312740422088, 0.0003233206491661875, -0.0017574486242971233, -0.0013974433465002085, -0.023479175674561033, -0.01773454000929121, 0.0008274583132252653, 0.005053730963192658, 0.0023255789690257082, -0.003292688838755301, 0.002344669655937147, -0.004943250096843227, 0.013721511873326849, -0.011881658616855978, 0.0018772340043345561, -0.006628015372945862, -0.011546105417218814, 0.00011176083614282368, -0.008814645362290879, 0.013191767333828715, -0.007125985309780793, -0.02101144682003101, 0.003960823986145517, 0.0037974735061368317, -0.004212071731891449], [0.005082526875031734, 0.008231485715039117, 0.002066726610935318, 0.011005126207785392, 0.002857245040887831, 0.0015218184628049759, 0.0004916072664337816, -0.003300668565205897, -0.004390088037199789, 0.006681181388191119, 0.015246448773336892, -0.012962959524779627, 0.016179919038533476, -0.00442400842688991, -0.008915193283218813, -0.005383944590679707, 0.008127237901719025, 0.0009212854290174551, -0.016606818579306692, -0.01256281741733177, -0.0005494388905101983, 0.002536866717563971, 0.005977026310889846, 0.0007683601524349191, -0.006180275489066684], [0.0009950329967608788, -0.020383486634237055, 0.01417598164356047, -0.010179455414699374, 0.00889053500248735, 0.011873486582589418, -0.00850305313512372, 0.005763899683539221, -0.01328164882982516, -0.015784562833249773, 0.0036850615948434296, 0.004260024789408708, -0.0032775715801702005, -0.010212000003436882, -0.002847074776188458, -0.006712872769149612, 0.008275348343607176, -7.48255363149795e-05, -0.004580141952323632, 0.0008376247053493315, 0.001649753634655014, -0.0064883420525685, -0.0022541399563501268, 0.007143240435678368, 0.013719506404090299], [-0.01070876404727836, 0.0033261569004376258, -0.012493742968700356, 0.0018860682790669196, -0.01142373428251452, -0.012195456676330232, 0.013882873691547743, 0.005232543483750196, -0.001895702812314323, -0.027271223673347177, -0.005971938136839303, 0.00384965826836089, 0.006878676582619472, 0.004645142746448362, 0.0074350597782170905, 0.009644008089633806, -0.007542310935723042, -0.010078588474796995, -0.01558511434735308, 0.004696587915157775, -0.0061033805924918, 0.0020303316779759916, 0.0013802912452602176, -0.015204730208103404, 0.004854981314607864], [-0.0019606882051179993, 0.007142780572616397, -0.020237182127963247, 0.0007304191722607853, -0.0017353765463487298, -0.04082818653213845, -0.0014512862479759473, -0.0007684916543710322, -0.006581646432184809, 0.00016219748786432461, 0.006084538635418774, -0.002993236008579928, 0.0076716391888132516, -0.01173446796024974, 0.013217731030997073, 0.02422838975265924, 0.02368493541936814, 0.015963061138052126, 0.003977143177072444, 0.0004273684982098371, 0.0023588626490769105, 0.013586419470959432, 0.00786897502765877, -0.009607490191850846, -0.010345324669735494], [0.01655892438223454, -0.006927641025326809, 0.0011703227722530303, -0.006629989283058572, -0.015596137617145287, -0.007176608087042022, 6.0201493464630745e-05, 0.004353517313695957, -0.009324867285963014, -0.013055590208554237, -3.5569050008253646e-05, 0.0024945735003560764, -0.004098904149324457, -0.008078272254022, 0.0047469349857132736, 0.0065714947326791645, -0.011115427870079112, -0.004602510951891438, -0.009192832921451202, -0.00533884459633052, -0.0039012342719351744, -0.001182193760874558, 0.0008242856343169658, -0.004922610983646385, -0.005812894748770895], [-0.005760577752975968, 0.0009992181557700582, 0.006474060138852365, -0.0005030924360640026, -0.0009586973850945444, 0.00026444199415703656, 0.005649501140870458, 0.0083071304081124, 0.005987963040002701, 0.008759559675338655, 0.011562364184597647, 0.0036471061318244934, -0.010700390510436815, 0.0021049847474432014, 0.016063496675845692, 0.006234860550794339, -0.004751630926061672, -0.01716405574871663, 0.003586184726035313, -0.007078506543457522, -0.008285724995767818, -0.01582517273568475, 0.012125752394651317, -0.02750011390776744, 0.01521472306466788], [-0.011331300954955714, -0.009881466338489353, 0.011998323652882637, 0.0122545159504023, 0.0005434708629648573, -0.002464010062774094, -0.011993105039963283, -0.006497222520816808, -0.027807076756937492, -0.02270478523052055, 0.00990633372312733, -0.013106009985700684, 0.011304392165939535, -0.011213620360184756, -0.013844654569242967, 0.0017538480773637254, 0.012820521619364707, 0.01911031418250267, 0.012665315101714425, 0.00042828946940215304, 0.012778913201619353, -0.002130945699359089, -0.010325759084136934, 0.0021423231541825077, -0.011273314692033767], [-0.004041865569056548, 0.004915088689594099, 0.0046813121001341405, -0.017795870411707916, -0.0027689390558293748, -0.0021961049496527756, -0.0034796631511934428, -0.00620091060040149, 0.00640579382532821, -0.0035671287174048956, 0.018427148389795957, -0.027510624827064387, 0.009079054098651358, 0.01897273230541408, 0.008196353969459757, 0.004486573155695205, 0.012736524912980917, 0.009438194403804216, -0.008096137282929171, 0.0014831317547430356, -0.0013402176187534759, -0.0004041112390342544, 0.012368924880635585, 0.005865820900635844, -0.004539181393905576], [-0.013791918248517918, 0.0013366910753040099, 0.00012986694631392503, -0.016534819566362276, 0.015152938024459479, 0.002845442568278911, 0.0005878318096237469, -0.003719311804274322, -0.005170038536876035, 0.004600449488009447, 0.00643203217923215, -0.0015771080604052893, -0.0007670211129479337, 0.001096088799186901, -0.0031098537702944494, -0.003960379541303101, 0.008503085890857296, -0.006254956176782026, 0.007624118053689367, 0.0023717544416065094, 0.010383274397130896, 0.003375768430417857, -0.008223469115471286, -0.016397828247000774, 0.016708557928451554], [0.009164275200002773, 0.008807326256430997, -0.002553270848019443, 0.00032183637481371727, -0.005412596484208407, 0.001533214809522934, -0.013145775972689533, -0.005387643187236653, -0.006520618504494032, 0.01687744678714749, 0.013925124067928398, 0.0028757803423653467, -0.0044096048480779335, -0.0015454168845280098, -0.029051356077952232, -0.0023669148091848328, -0.00031743516846210405, -0.006700734807849579, 0.008606911701719159, 0.0028359161097426906, -0.003507567271802674, 0.0056118646160315255, -0.00580397259693297, -0.005995411627964848, -0.010024954558761914], [-0.016561074820197693, -0.015038447573497525, 0.003291990745398412, -0.014352642562125735, -0.009381851349238695, -0.0006267886605962623, -0.01381611621911741, -0.012693902481721118, 0.004711219633125805, -0.007326123138605437, -0.01813455258642558, -0.0010039528985413748, 0.003983457561298122, 0.011263568813837289, 8.894935061901213e-05, 0.012729545565427167, -0.016604551925562486, 0.0009987796313369638, -0.002486596364383878, -0.0031306996163647355, -0.008190346246663323, -0.00023414627732573138, -0.0030031582251945346, -0.00038556475606607473, -0.005578295196797809], [0.0031679460178195558, -0.018701681290441023, -0.012624443668521836, 0.00723703192256067, -0.003438555020287926, 0.011109304454281656, -0.011040779025856415, -0.009962397817173587, 0.0036627181764152935, -0.0009086373358503705, 0.004529180534328538, 0.00355521136522657, -0.014174413716422507, 0.01250311330502089, -0.002375316665639661, 0.002661820725563047, 0.003347539919072919, -0.0030204729392563, -0.001063940042817097, 0.00030592838556580505, 0.003752900371364186, -0.0012865192471511386, -0.0009961110979401712, 0.004179133894383817, 0.02050891782061624], [-0.002404784030837951, 0.01827768370000769, 0.004512473146751482, -0.016441430321624213, -0.005865728406942144, -0.013508488552588984, -0.01639992154954878, -0.007453800381543175, 0.008358655918411206, 0.0005946943159198183, 0.0016008525245504149, -0.002843042045829122, 0.0009967553949660397, -0.005174365856003832, 0.0004511268154516731, 0.009823893407923256, 0.005791962115114284, -0.01389551600175717, 0.01060726250700257, -0.006529657275742894, -0.007649230105000874, -0.019007660991983946, 0.008026858693361625, -0.0047863391895057086, -0.007072208095930156], [-0.005739057182198378, 0.010353473740941732, -0.005561144245374098, -0.016202014678031933, -0.014581620084165492, -0.006160576258476741, 0.001681985333238619, 0.00358834287040339, -0.017186644758829736, 0.021560682133790095, 0.007654828216941898, 0.007597124326751604, -0.007160459537041707, 0.009632465066219264, 0.005445541728626844, 0.019440851785765694, 0.02031962901167685, -0.007075932029280203, 0.0067034103439737, 0.0005217984890692395, -0.0010496511682808248, -0.0009717160364256098, -0.0067973047183480205, -0.013595361423106734, 0.008139894110263224], [-0.006918426541930767, -0.004875359468343027, -0.012220758377521228, -0.014130096872284939, 0.0027934653601357495, -0.023200451240466373, 0.012102666778201425, -0.006210498831532862, 0.024086622744775545, 0.023741044339834337, 0.004937034103170716, 0.003917323722550108, -0.0012394305608026323, 0.00373801001563974, 0.011050773401721408, -0.0067661958506331785, 0.007081630765635628, 0.016991338239841693, 0.01581251804808275, 0.001495915971007081, 0.009398079591853207, 0.005637482838986767, -0.006129955154519951, -0.0027483793650462337, -0.0037941972424995435]], "bias_hidden": [[-0.00015209823280141807, 0.00036486074750261493, 0.0013238320207519107, 0.0024242118389976985, 0.0006317048374382522, 0.0008402485398714387, -0.0009397964097634843, -0.002180833387783144, -0.0004921158286123895, 0.0015196843181726916, 0.0022741066212697354, -2.6569518805307006e-05, 0.00015657977778953754, 0.0016580697597448368, 0.0016235264157295052, 0.0003753727444604502, 0.00042593576686091224, -0.0011639565220975246, 9.994181962225842e-05, 0.0028486987578142504, 0.00130386976831941, -0.0008447216537017033, -0.0003990748675341904, -0.0017027053203719548, 0.0008104516316773577]], "weights_hidden_output": [[-0.00896594882218928, 0.0058721893070107, 0.005900415389759351], [0.0076555374150092, 0.008547236185681054, -0.0005110614624958734], [0.013604119946425023, 0.020999962896487288, -0.01066696008733354], [0.008656838586307147, 0.02930311393887778, 0.0033912138515709675], [0.015411760434420035, 0.016876172633823457, -0.02408016876524862], [-0.005368483198684711, -0.005315866508730679, 0.02171376677929631], [0.007527655619344058, -0.015115610449823578, -0.005393035415296117], [-0.01568652813690633, -0.02339134730036686, -0.014102341940915674], [-0.003673340362637055, -0.01276051085147159, -0.0015473405500655182], [0.005706798408025645, 0.00020657945655323288, 0.017017385717849068], [0.014430261983220161, -0.0015053722515473522, 0.033747387579461295], [-0.004189426617342358, 0.0022883924847935853, 0.006137103837716055], [0.0065707786734065035, -0.006051151636346579, 0.017196709959449618], [0.0038095684933252476, 0.007040479301681029, 0.01251956330351042], [0.011112747129211092, 0.0015155208947492719, 0.016614815588363686], [0.011960438633694252, 0.004729199316245715, 0.004674601033928321], [-0.004647769305154751, -0.002791323023276925, 0.017064237246508494], [-0.002070881440707928, 0.003318067229774212, -0.020637846267143045], [0.0008200024557912083, 0.0033163488969657103, 0.002848724463636174], [0.027839828766572896, 0.013876322220572605, 0.024396216637037258], [0.018340274494730243, -0.0026582680243372094, 0.013031233125222183], [-0.0027377610273550475, 0.006077180668010362, -0.010201407917309765], [-0.0018785968290077558, -0.0009958341504833893, -0.012365573187775609], [-0.0032942569068442505, -0.012601007339314131, -0.02014548131133136], [0.007018736533853751, 0.015086016697926842, -9.602976833125287e-06]], "bias_output": [[0.06456914838944164, 0.0619144403365113, 0.07975090858338055]], "input_size": 20, "hidden_size": 25, "output_size": 3}