{"weights_input_hidden": [[0.007492518343516677, 0.003452745996458529, 0.008268097042914025, -0.005918243393145775, -0.011012254954867086, 0.025911816901889283, 0.006217867139416225, -0.005595657798314581, -0.002373640086087422, 0.004645163536677695, 0.0016770843884035974, 0.0005398372870040129, -0.0037952083436774186, -0.0027769968510429196, 0.005503658577225892, 0.008240945001323028, 0.001362543557221708, -0.005208864398776337, 0.009342377421378903, -0.002181683311880151, -0.003208720208887767, 0.0018919720498892262, 0.0075584289987389395, 0.0019287785946214434, 0.003250728921471546], [-0.005606559102468021, 0.008171092894179641, 0.0061631535465001335, 0.007043661553977763, 0.006352193607316332, -0.006479505070414805, 0.015104702492731091, 0.0030221490729936194, -0.00886283754005675, 0.012308166511968964, -0.005697350948078574, 0.00736133833956825, 0.004460791786787833, 0.023826948556613475, 0.01623835271296174, 0.011486552783990097, -0.0008574794694123685, 0.010000106666245514, -0.00592547937279467, -0.002093191778068717, -0.0019505134288011075, 0.006816250753025926, 0.011356623259213224, -0.021766073150409085, -0.007749851073074619], [0.004200493385496386, 0.002393435461516657, 0.00942203822950567, -0.00812743416930022, -0.018141587560064627, -0.004414865802282513, 0.007072914642794094, -0.015663091182669647, 3.193726837476676e-05, -0.013943883061424647, -0.009735888767180489, -0.002047569667843748, 0.002060905670852159, 0.010841436816468205, -0.012840880517382703, 0.01738717621660083, 0.0004510427077405802, -0.007572232807274534, 0.003183341140432696, -0.009887649345857903, 0.014958776072316465, -0.001500811401608173, -0.003126177599557723, -0.004071703262944909, -0.0008712604878490954], [-0.005936921421951199, -0.0006700994465737888, 0.01796139413372648, -0.018589430398539285, -0.015443842412683758, 0.0019910994911407367, -0.0011791736632288125, -0.0027682522636612444, -0.0005570809215660212, 0.0017069340647029492, 0.00856028593839123, 0.003436604116858853, 0.0070327222372613095, 0.00035017479682286325, 0.008802879329454621, 0.01088186532795282, 0.006729569691063856, -0.004243993833858272, -0.005280127596229342, -0.0005353982591290322, 0.004795258426203047, 0.006467696679620767, -0.004424150534330301, -0.00021126645415586035, 0.008487850581687741], [0.006430154706694755, -0.00014230103699315814, 0.010362061445606975, -0.0046252343974430505, -0.010300505443441188, -0.020583889307717276, 0.0029936858623106216, 0.004153675576914429, 0.00921573695856355, -0.002552624977367678, -0.017808178229294976, 0.01352506745281271, -0.007194171159702847, 0.010259910698337744, -0.0038051965155143277, 0.006052333729504314, -0.02397652257891222, 0.013804194267700147, 0.006642776638642424, 0.011133427620532835, -0.013515015883473003, -0.007346398610387548, 0.010074907857744482, 0.0028680448215521533, -0.007339418634194845], [-0.013885253798975622, -0.006784232761653969, -0.007314701930510464, -0.007589574115310581, -0.005540407880165898, -4.054701621101801e-05, -0.011605132679226788, -0.0056751102013177105, 0.009664874330935502, 0.006356880462483481, 0.004611092808893936, 0.006375295851420179, -0.004620880109678863, 0.008706391838849498, -0.00427099940721368, -0.015693094845107988, 0.013634355383706174, 0.0009213621142037144, -0.00801788057212904, 0.0012902223681711155, -0.004063979227906452, 0.012375011243960685, 0.004872183008671539, 0.003587763796661748, -0.01388928054179526], [0.005688565737373281, -0.002830971448710529, 0.003084404352019261, 0.0035442315199307817, 0.02745900043248977, 0.004103698421634216, -0.018038822465903336, -0.010060794073485304, -0.002791561103318526, -0.0077504445658394105, -0.015574289836990739, 0.01478831750452747, 0.02060496537762137, 0.0024125082402636252, 0.01204896684203402, -0.01128419630521729, 0.00931627774837846, -0.019383589600619262, 0.00022276952418285326, -0.015120697288314253, 0.0016674789658995763, -0.010586503298760335, -0.016209785667664595, -0.00511412277099033, 0.005501049627211236], [-0.006490599103035832, 0.0063830885910511476, 0.01134525389112816, -0.014555226283240956, -0.002510905125040664, 0.01339434557981843, 0.0053684199171158565, -0.01914799663364896, 0.004944803207676008, -0.00461797403515064, 0.002827707210215076, 0.008187508284348275, 0.006650339685155624, -0.011231934897094271, 0.017223981139293767, -0.01416093519487739, 0.004709577479572769, 0.0019633080122319567, -0.00790125694043044, 0.003970824934807977, 0.010094813490810175, -0.006219080568263479, -0.0025830215824853404, 0.011086466893495862, -1.0591432623570407e-06], [0.006429636986645524, 0.01525139599791146, 0.018548139183857844, 0.003741793021021251, 0.0030162904951706983, -0.007480849450901932, -0.006586718999471386, -0.002601422948271277, 0.005996571090749338, -0.008455509550961688, 0.014774429878595563, -0.0011958842313521064, 0.012026601082617936, 0.005247395884868278, 0.0017905890133946831, 0.0014272381814900098, 0.01057672918035765, 0.0007512641601818275, -0.0019057498678497515, -0.003059838261599358, -0.0004023565108015892, 0.0005639249554032993, -0.005311643450096361, 0.015305458663277179, 0.01658185797350897], [-0.004395979645305282, 0.0027872050085719488, 0.011952000787531659, -0.026795361606579877, -0.0012322069158457432, 0.01591684636329329, 0.0058629793686096315, 0.0022932720616485364, -0.012313004237160412, -0.008628964531769506, 0.005465429602911202, 0.012854519323992153, 0.0014741662006958751, -0.007470172249541147, -0.010012969456933031, -0.008911218625859748, 0.002739995456134568, -0.006470520841973727, -0.014997582219894834, 0.007514068103553187, 0.010641054787321077, 0.014385388883845714, 0.011254709851616094, 0.020376055145856657, -0.000504138917992986], [4.555017854520567e-05, 0.005551143735450563, 0.015445951077293175, -0.0038527978570085087, 0.010926540332892833, -0.006330184037105399, 0.008839773316222174, -0.0072080065732228055, 0.009590747718315504, 0.008464783671259064, 0.008266551817665689, 0.0019304512022106318, 0.012893330848305934, 0.0015484554371065803, -0.0027390895085677696, -0.009532557253257827, -0.0006280173138224625, 0.006597024741413817, -8.910043647145355e-05, 0.008617702994290441, -0.0071051698131956, 0.011178181483320941, 0.01070612023944797, 0.0040577958489371015, 0.004701112780398166], [0.007526736910603036, -0.0022215869339947884, 0.017937750094534403, 0.0056314955780981755, 0.0023404504031081584, -2.878576084297011e-06, -0.0002611101275912447, 0.011098083189454676, 0.0025147338663901154, 0.003287776612867693, -0.014793414498456114, 0.0019889967961860917, -0.0103064745865254, 0.016350282033923597, -4.7386625026448576e-05, 0.005976618652405805, -0.014537322509754607, -0.00850049123796161, 0.0071825119327192976, 0.008635484424808677, 0.00023892485439397742, 0.003147173749378743, 0.01566224504320681, 0.004908973251559393, -0.004601702030323918], [-0.006718807320771466, 0.01510341607754277, 0.001824197350898483, -0.0029890877918437404, 0.0021331267556236, 0.006253600396066956, 0.007026858000611936, 0.0011470915830972034, -0.006512038334512341, 0.0108457875592282, 0.0032875751915497154, 0.010196426122052245, 0.011263862176845408, -0.005477067535201904, 0.0028676453664804834, -0.002187880166739774, -0.013578304792390052, -0.01127758882710855, -0.006593169732195099, 0.0018639586201465233, -0.001971188155906393, 0.017555492872509487, 0.00426288025635003, -0.005109827499770986, -0.0002000566412557156], [0.012867053548808413, 0.00608719966225368, -0.0012445830995088817, 0.010978667342201345, 0.010709007035556451, -0.01565054045241123, -0.012268381485153761, -0.017745845454728376, 0.013810326194075495, -0.005656885275017926, -0.0011089885705265238, -0.0005153627621822569, 0.00923970513559479, 0.010026130067456649, 0.00503077593622007, 0.011316858307169771, 0.02483038805888315, 0.008154667225095457, 0.010898659160978721, -0.0002750272213833069, -0.0007998635507522104, -2.497793568021103e-05, 0.0011519747963715601, -0.009118497998006014, -0.0075075593190406156], [-0.0033209821904437446, 0.005130150198066215, -0.001607498808495702, 0.017391660813607678, 0.003688924496474332, -0.0017320489885174195, 0.0008230091086361001, 0.004658357394493938, -0.0008523675323290352, -0.018037756797376254, -0.0005442851331900776, 0.007466848426161647, -0.006491404856458196, 0.013042318859453202, -0.002272339966925326, -8.93556344921329e-05, 0.0139948696782647, -0.010747856678057294, -0.0006026821155269988, 0.002306976933912925, 0.004167790954038838, -0.00427400232482725, 0.0049778949082289045, 0.020469077247457466, -2.7380973770554346e-05], [-0.0002227179854919361, -0.009684582925848086, 0.01729249704677847, 0.005996590615933026, 0.005442383616478128, -0.0010676390297120779, 0.016883529578146855, 0.00851615089589335, -0.0008653898996686701, -0.018591563254180894, -0.011151243661277793, 0.01355294645123613, 0.0012058184910985889, -0.004706076686096103, -0.012810488296466548, -0.004132946284771324, 0.004052706356269685, -0.006319214012983131, 0.0025710131674457387, -0.006009635025011621, -0.004176398418473363, -0.004971412577684276, 0.01581348256368377, -0.010018702823743461, 0.01470947552259322], [-0.025083681249930642, -0.006981609490168473, -0.0015483614833281998, 0.019429557710215626, -0.0007077593611080082, 0.02506196781737191, -0.007430225528852599, -0.003749629717639678, -0.017062643382992144, -0.013359699659183807, -0.00925189718196594, -0.000764650908921775, -0.023030787632855394, -0.00819215305100805, 0.021849535476067553, 0.0026634212671357627, 0.02748939416656811, 0.0028974710245129563, -0.020519925860156718, -0.008886974559249953, 0.01922676713894091, 0.010745428041179068, 0.010628233167386139, 0.003065240245485148, -0.013748052132017519], [0.010184430220555983, -0.010228127044959312, 0.0073519609936337675, -0.013346525669094085, 0.00039446104821325666, -0.00631565886295445, -0.0028640586951396312, 0.006567939872561324, -0.0023093177508197007, 0.0021961123453581154, 0.02369394140823816, -0.009231204331952621, 0.003929763662517753, -0.011457928626776309, 0.007867929170221992, 0.0014350334386643688, 0.00068676583509896, -0.0018873991820690884, 0.0055326857571703246, 0.015440006428635864, 0.0020960602314126016, -0.01442452270817817, -0.0011514128358948764, 0.0003646143012937221, -0.0009859009286716952], [0.010800173863359233, -0.007766134380320893, -0.00886104015081221, -0.0051006519992175085, 0.011171396557023464, 0.004974878602639975, 0.02999793079957872, -0.010151145323864472, -0.012013186913855365, -0.002822443931593761, 0.008332211535827038, -0.0066984078417576896, 0.002664404106709549, -0.007864391620636391, 0.0025103486270470756, -0.0015781437766252658, 0.004436968836247273, 0.0169040597451814, -0.0015712318183374924, 0.005495000026312817, 0.008985858688436163, -0.006301861977891167, -0.013081800599325722, -0.008338913564452275, 0.006152483807088956], [-0.014354014691394742, 0.006323530416029648, 0.000926738332893175, -0.0028068945197401436, 0.0026792045666357927, 0.017878337233169245, 0.004118603376856483, -0.006974503920507452, 0.004271183811454624, -0.006897509883230997, -0.017398633246820065, 0.003649318935750436, -0.0023365932562053214, 0.01293797838030064, -0.015667365328275604, -0.010479426836890885, 0.008050682349424963, -0.00459635509368153, 0.0010729890656596063, -0.019509659323812586, 0.0011107440893717705, -5.1807806055953335e-05, 0.002098927223875648, -0.017970833435169056, 0.008149533837838072]], "bias_hidden": [[1.5238411133776155e-05, 9.963425539886749e-05, 0.0005035985578509968, 0.00026062428697178454, 0.00022529025089812314, 0.00022821104597935222, 0.0006510673201801353, -0.0003787575107656235, -0.0007272147560419117, -0.0009236078876278734, -5.3159103142312606e-05, 0.0004894583863130663, -0.000360048095302417, 0.0005335704785894371, 0.00011431280149901898, 0.0002442406769052135, -0.00085979933838164, -0.0007381075331483276, -0.0003627157653276892, -0.0007623962591160401, 0.00047365428025547687, 0.000656217644084613, 0.0001348027425213332, -0.0005960951036799518, -0.0002414647473667187]], "weights_hidden_output": [[-0.0036000696526896354, 0.008835437320121955, -0.008054121930892449], [0.007726737244428184, 0.004035162092144575, -0.007414740759228083], [0.011129180356455045, -0.011106622922345875, 0.032864015684451825], [0.010503414491136873, -0.012429045383661881, 0.016608719741781453], [-0.002400745421569087, -0.00046966997385575123, 0.005853901566665134], [0.0072143373322911455, -0.00849434946217295, 0.017174016557098246], [0.012423795412391801, 0.014813000701672012, -0.0032235937942127956], [-0.0024282021769456634, -0.005492650484646408, -0.009750188723136002], [-0.018616306196389074, -0.006742474973273212, -0.00038231833275406604], [0.00198450646433003, -0.01568162697135754, -0.014907830909135084], [-0.001042456121728412, 0.008250395397770432, -0.019081325842587836], [0.012343746551482418, 0.005095400065644102, -0.0010006065384616937], [0.00432768133738555, -0.0004258280648915977, -0.01786167712569646], [0.007413519038447985, 0.009686021895681879, 0.007973615290559316], [0.004349061383596582, 0.0012201239827639564, -0.0009566410017831393], [0.013438727218055436, 0.013148432980052874, -0.015294014502432174], [-0.020785455925174102, -0.008435601730386766, 0.002732982870178295], [-0.017641966749934516, -0.008893487885435702, 0.0036891214076968065], [0.00835901465067408, -0.01877653981951832, 0.007544251038599876], [-0.01365825592118504, -0.009547948765374329, -0.004544970353625382], [-0.0018662575203803604, 0.018002379876363394, -0.0037127952967071637], [0.025210452700035958, 0.002487061456115765, -0.0044472204999670695], [0.017494169798898465, -0.0059553715134386285, -0.0011154825090085346], [-0.016139846453571974, -0.011685242803510153, 0.005729112270915625], [-0.014321087598552409, 0.0012156132348877754, 0.0028550558835792536]], "bias_output": [[0.027089114375179895, 0.038231532603065985, 0.02372032425596121]], "input_size": 20, "hidden_size": 25, "output_size": 3}