{"weights_input_hidden": [[0.007810359667346345, 0.003654700378835847, 0.007200109395612372, -0.0067364356047844446, -0.011026171696004667, 0.025444466875352855, 0.005645775418031542, -0.005219668188862953, -0.0016989335597303353, 0.005245454985132753, 0.0021151521064536726, 0.00030055211502781555, -0.0029969625832743474, -0.0033951120166816977, 0.0053484012164612075, 0.008075905175190683, 0.0019368967523765463, -0.005151085083409953, 0.009268420388164847, -0.0015270630099103206, -0.003211751197629533, 0.0011577194749198855, 0.007028545703368331, 0.002550590567010822, 0.0037209365565798297], [-0.006199036811214849, 0.007885258779073954, 0.008468367075149153, 0.008738860321064898, 0.006534098844840294, -0.005338898320971819, 0.016003981865030263, 0.002167877432504806, -0.010166734789056808, 0.011083763000242941, -0.0065929239979552875, 0.007879116969310564, 0.0030557121382748117, 0.02497376270509388, 0.01658129770650928, 0.011638202599799252, -0.0019350838813904266, 0.009644777082116814, -0.005621009876383181, -0.0034263533835686803, -0.001984447653319553, 0.00823803580836972, 0.012261148802472279, -0.022798328356180782, -0.008575282932512198], [0.0038974570316409065, 0.0013810383140401342, 0.009363977791244562, -0.008133475608828093, -0.01796326274669524, -0.004491226924149771, 0.00528380025261877, -0.015202358020671458, 0.0018345544206184352, -0.013131033130718936, -0.010440164311895594, -0.0033043012370491775, 0.0016152549409204284, 0.009861742956523688, -0.013295206984229114, 0.015618278090607653, 0.0024251925262462203, -0.005586261999870127, 0.0037405011032487583, -0.00833166253076091, 0.013981586417411257, -0.003559863090264043, -0.00405617278852462, -0.0023913227688710935, 2.123983502662556e-05], [-0.0058226034470196236, -0.000504856737235172, 0.01694097960723032, -0.01902352524126319, -0.015625004000750668, 0.0015660280157145073, -0.0015000969290479371, -0.002279957023909741, -0.00022395183025436988, 0.002557405903438234, 0.009048096518002896, 0.003264499635584782, 0.007680570396396454, -0.00020695664433711256, 0.00875562770335097, 0.011003831549518499, 0.006988733160785412, -0.004122460225975997, -0.005192599282642835, -5.155110738386705e-05, 0.004581913569604304, 0.006324688785799973, -0.004436965877584288, 2.8610064837600677e-05, 0.008531470426009147], [0.00602739455446932, -0.0008208500389865, 0.012025923738840755, -0.003690573229922903, -0.009960315797727258, -0.019880004007845096, 0.0027893711580139714, 0.0036334819301419743, 0.009295997770744153, -0.003423249800112887, -0.01885797839803429, 0.013298415541113428, -0.008429481393684045, 0.01072332017078151, -0.0038840393987963785, 0.0051911705043072905, -0.023687591240377486, 0.014438062608685099, 0.0068879849104706735, 0.010933019898992006, -0.0137482430044599, -0.007694980954866765, 0.009933494712316443, 0.0030544553726477037, -0.007209531688624398], [-0.014280399156827918, -0.006718784537959719, -0.005358912293738701, -0.0062790499864413705, -0.0053109083045226714, 0.0009921234150088564, -0.010807515284086107, -0.006427284708777671, 0.008458920686618571, 0.005330890470915131, 0.004007406477305058, 0.007001385999135871, -0.005424532007085112, 0.009633983045094852, -0.003946345227298492, -0.01548394475116057, 0.012583602332634485, 0.0001755148655353692, -0.007685386045335103, 9.716085057647164e-05, -0.004014733742059168, 0.01367423459929299, 0.00562874596586769, 0.002762244315435001, -0.014528315731914248], [0.005354652771409857, -0.004020343030634361, 0.0034033571503462087, 0.0033612551665556396, 0.027790245719961033, 0.004096449501013964, -0.02027905219381755, -0.009595059386068468, -0.0004374030791729254, -0.00702450139741511, -0.0167539153421543, 0.013348910918784627, 0.02010207834248851, 0.0013278996365943393, 0.011322162983039568, -0.013689457889164813, 0.011777961500385271, -0.017105887640041402, 0.000949066424385079, -0.013146051419343175, 0.0005551198540826067, -0.01346858602426303, -0.01751881104585127, -0.0028461166941828532, 0.006846100233655893], [-0.005981453617899341, 0.0066932848386894945, 0.008768288072902853, -0.016168710872324205, -0.0028532538786045086, 0.012214460154747664, 0.004365270489900565, -0.018086782704344252, 0.006200405155347223, -0.0029057051128367206, 0.003808091376734062, 0.007662187078357803, 0.008243883613041961, -0.012560596135739328, 0.01691530811428733, -0.014141150582024486, 0.005715803117094465, 0.0023182384641757744, -0.00797495328480562, 0.005376996518381355, 0.009893719747936968, -0.007370822448731988, -0.003212891922798893, 0.012032055121423232, 0.0005752042648883102], [0.006808904780585066, 0.015778826835372017, 0.017825872946472265, 0.003034965162690383, 0.0028536958764489, -0.007887920955923028, -0.005967650899791105, -0.002581875430417413, 0.005616746188478809, -0.00857817375315434, 0.015299435492210243, -0.0007576424438376515, 0.012628568757865648, 0.005437726472886808, 0.0018322068072015407, 0.0022273727548859108, 0.009998106706421756, -5.35068986906026e-05, -0.002392954842248838, -0.0033467835878556967, 0.00019856806299952504, 0.0009340536717113837, -0.005245946141825418, 0.014825370113031708, 0.01648104788331844], [-0.004746598151240442, 0.0022316299347026705, 0.013080608108340986, -0.02620471569114062, -0.0010161211256473166, 0.016415253357403698, 0.005359104387731836, 0.002092217082037437, -0.011941093700031092, -0.008802321959713519, 0.0045392239624073355, 0.012557200768043763, 0.0008157962315472158, -0.0074169682103984655, -0.010175783736041083, -0.009766926012707105, 0.0032207603470554825, -0.0058296843455381405, -0.01447483354144221, 0.007719676665876363, 0.01018117065414787, 0.01382664088869127, 0.01112955752169388, 0.020791890597230085, -0.0003261922077258521], [-0.00029922575839237133, 0.0055734276127603856, 0.01632806242164254, -0.003071904166179259, 0.010916101716054507, -0.005799160316809207, 0.00909943812290259, -0.00737589635209814, 0.00901376448856396, 0.008430625009226252, 0.007976629452292612, 0.002193358769211132, 0.012610079029785393, 0.0018124394543706708, -0.002560109623743142, -0.009416614443815443, -0.0011328587813686716, 0.006340761633006164, 0.00036659639586729653, 0.008191996557617905, -0.007382750173332967, 0.011974257443711219, 0.011346535073580423, 0.003689283775797731, 0.004202789035054374], [0.007628007624265316, -0.002192418970403677, 0.01641267966427626, 0.004944503339620084, 0.0020817659940120486, -0.0006934483580280929, -0.0011022606101685078, 0.011936214759493068, 0.003389648487212002, 0.004799279298846645, -0.014216737899689986, 0.0014907473215743676, -0.009389370808027552, 0.015304185362769476, -0.00019602016923476285, 0.005811198366729437, -0.013762523601540443, -0.007883950108900079, 0.007460613736505516, 0.009721824069173908, -0.00031314372518318894, 0.002503639051678352, 0.015487233941751905, 0.005605762862566729, -0.004382206832695006], [-0.006241804161680211, 0.01445032081210157, -0.0006307626693260152, -0.004964056163735756, 0.0021797275721439796, 0.004942578218664173, 0.004436432343445734, 0.0023570562553158754, -0.003386219867264494, 0.012621707443396172, 0.003475152780512266, 0.00851093396974321, 0.012342120066785034, -0.00751050237780934, 0.0020057859837575125, -0.004025734691409932, -0.010552889085926807, -0.00913276191403713, -0.006520255764634639, 0.00467525471777863, -0.0026586227998078556, 0.013912737882388494, 0.0022412541603213537, -0.002444948148976451, 0.0016647997687144755], [0.01226548156950323, 0.005476365602380976, 0.000722309309659489, 0.011982093530896049, 0.011118242585872878, -0.014598433325936258, -0.013204936847964647, -0.01806464980388804, 0.014351567268190623, -0.005817634159393563, -0.002489056968813397, -0.0008694298908911389, 0.00847004057348784, 0.009977840832633676, 0.004837411799882818, 0.009852456637528902, 0.02556693745238857, 0.008822302805393936, 0.011948486463736722, 8.014732091947955e-05, -0.001611394788551979, -0.0008029722070524026, 0.001004389560752838, -0.008203647590803196, -0.0071889342978461186], [-0.0022944286117674764, 0.005729591848078166, -0.006254417873977592, 0.014540019587206163, 0.003077539388643802, -0.003972989043748092, -0.000379629763531402, 0.006353193872624837, 0.0009630738532740231, -0.015424496800678816, 0.001445714525733527, 0.00670456532598841, -0.003848965958509685, 0.011016415765276072, -0.0026759223911392974, 0.00037112315839368955, 0.015393836133035676, -0.010259900998439427, -0.001151928020052764, 0.004379868081939396, 0.004167737279372078, -0.005912707423605649, 0.003948719388577493, 0.021614810556386994, 0.0008309627592103267], [-0.0003889191657620023, -0.009784759606353792, 0.0186214845788626, 0.006809375295281681, 0.005557119534240663, -0.00050459300736543, 0.01796787820868622, 0.0077442321233550885, -0.001954349704277611, -0.01996136103884898, -0.011565236073625222, 0.014045982945867324, 0.0001529533929406705, -0.003600622995429569, -0.012547800540869108, -0.003676536166170071, 0.0030886103632670604, -0.00679432683350915, 0.0022081366765587754, -0.007205217550075963, -0.003647396572204535, -0.003967151505376168, 0.01624686531283481, -0.011045852566233978, 0.014205876889007991], [-0.025151903043001602, -0.00653795588804997, -0.0009852405486767437, 0.019968533122624095, -0.0007436881425612574, 0.025423499681288625, -0.006522771904866398, -0.004082146818907273, -0.018207136587939016, -0.013782052546840442, -0.009055376840999888, -8.105567706366464e-05, -0.023048704125212396, -0.007607776643437225, 0.02219502098285386, 0.003467789059500989, 0.026332951670737965, 0.0019021771887525252, -0.02053495913504462, -0.009866186494906587, 0.01948255209633081, 0.012154981681271432, 0.011361816069187729, 0.00211798082031472, -0.0144194244498194], [0.010065439932565963, -0.01077337115946687, 0.007292765557170796, -0.0135935491545149, 0.0005363067242209005, -0.006369262680678812, -0.004120476065356681, 0.006874683226210347, -0.0010052645249206528, 0.002718451196540062, 0.023158303005610625, -0.009984414734366523, 0.003859287516302771, -0.01213609021773621, 0.007473201965982719, 0.00020708400577317362, 0.0020191725258306772, -0.0007791220006019361, 0.005922140491131971, 0.016547090823645208, 0.0015266628269943832, -0.015985183559886103, -0.0018904308321878276, 0.0016205610350951917, -0.00024464335464954666], [0.010497081908309317, -0.007782371993650885, -0.008556276170538472, -0.004799123434476333, 0.01119291938342703, 0.005350938079686711, 0.02924912218403776, -0.0098998126649017, -0.01163731129870179, -0.002030484989770475, 0.008086105341222612, -0.006894922586077256, 0.0029497007474269974, -0.008394003494204043, 0.002478664422955177, -0.0021444658344014636, 0.004874503439249812, 0.017099084166157134, -0.0007551262419317247, 0.006029720891688186, 0.00829196536946952, -0.006513682293558463, -0.012935154215505427, -0.007662516833953798, 0.006174378511064782], [-0.013837614265540569, 0.00633623661933548, -0.0020001791496857507, -0.0046015199559750085, 0.002354395255598091, 0.016480136914266915, 0.0026994134129236587, -0.005751969058875405, 0.006084413825711791, -0.005003407600114884, -0.016365276761847625, 0.002686295823576405, -0.0008962147821057337, 0.011299362746769874, -0.016060608636453387, -0.01087068805821497, 0.00970173068135056, -0.0035430877804470233, 0.0008839400329367016, -0.017608695288850004, 0.0007864502101070555, -0.0018627241210182122, 0.0010888427413680228, -0.01655365467548563, 0.009038942148816207]], "bias_hidden": [[-0.0006182529591789065, 0.0003814284966446887, 0.004481302047670792, 0.002990902096970132, 0.00043956579775287607, 0.002039092938180856, 0.003932266422912531, -0.002348863604047003, -0.004487584261560487, -0.00412017688702806, -0.00095680296697192, 0.002433277977631075, -0.0026145341827009667, 0.00355315846039784, 0.0010566521407824963, 0.002051362277258223, -0.004402943137386073, -0.002918138109112076, -0.0007082764607424918, -0.004453273216354303, 0.0015221253601741596, 0.004670335868479377, 0.002264405057885864, -0.003916582471158814, -0.002286022756498581]], "weights_hidden_output": [[-0.005538959248280421, 0.0071487640023005635, -0.006709406616902936], [0.004930971793136383, 0.0023553155636745426, -0.010452871402011238], [0.00997977159558522, -0.011974593633496676, 0.03298831605690776], [0.013757310366687937, -0.00952276389810278, 0.016993522686275794], [-0.0035075213930702382, -0.0019480423789642264, 0.006742091478197472], [0.00534264295378715, -0.010126390131736157, 0.012360940293153766], [0.013640527628928473, 0.014977763165072638, -0.003458067089350215], [-0.00033519725194326873, -0.0025555627512027037, -0.009535311712617085], [-0.01943132457917321, -0.007278228179003356, -0.0007350292610567047], [0.003289022435563965, -0.015163854345312965, -0.013596182894589455], [0.00046380281295487565, 0.008793102620513107, -0.020180228844486114], [0.01034188859899987, 0.0041439505014688625, -0.0006605192159452598], [-0.00018850237425101357, -0.003812108407780809, -0.018046389983017858], [0.007866082536021536, 0.009494686605631186, 0.008749845451495271], [0.005229367431251828, 0.0008518116716090567, -0.0010529386223507057], [0.01435248591085521, 0.013639098277468625, -0.01384853622031326], [-0.020276379828612422, -0.009554210055447723, 0.0013929258873070418], [-0.012172737408128825, -0.006063818749396033, 0.007804554741035348], [0.006705546160253105, -0.019692160469807363, 0.007776290295162618], [-0.013234174006613949, -0.01002524757739277, -0.0043920324791733014], [-0.003269548801588455, 0.015980072790031347, -0.006045160946096425], [0.027980246340184364, 0.0039699503033115615, -0.0031883193908705853], [0.020455631943324434, -0.003794380694931945, 0.00044417826996172397], [-0.017411769225631223, -0.012493299669311207, 0.0012475667063943485], [-0.016739177840878472, 0.00025972062517216383, -8.316643604308401e-05]], "bias_output": [[0.1794538432989999, 0.1618505148699899, 0.14873036852771346]], "input_size": 20, "hidden_size": 25, "output_size": 3}