{"weights_input_hidden": [[0.0073783515594818515, 0.003417753291164087, 0.008832216706246449, -0.005534802502423976, -0.01094940658414476, 0.026191122658980926, 0.006486022754223914, -0.005846179358752093, -0.0027322317958589815, 0.004282325464233078, 0.0014816400822486794, 0.0006981362681453855, -0.0041254835900323885, -0.0024511853977945957, 0.0056039309670797505, 0.008314537536158101, 0.0010539072265049066, -0.005370077260381268, 0.009365153054656676, -0.00255925803928458, -0.0031490377228260568, 0.0022621542563630963, 0.007746417034141143, 0.0016398893680316538, 0.0030549768299246534], [-0.0058371249056380645, 0.008127126326643742, 0.007101858807103378, 0.007775735588162754, 0.0064326744133801905, -0.005964294468441209, 0.015507390265193106, 0.002648865866522076, -0.009484428210471418, 0.011789567740728597, -0.006003429279809963, 0.0076333765449140435, 0.003940142759730104, 0.024304432556575616, 0.01641623606691877, 0.011611975186766151, -0.001382154345892522, 0.00972123174720059, -0.005796154606187838, -0.002727030334139025, -0.0019412330055300448, 0.007526010152429375, 0.011762783364877384, -0.022233987452384904, -0.008124952881151814], [0.004174443049676405, 0.0015944295570325061, 0.008244530137593083, -0.008882883140137656, -0.018064583432501013, -0.00496279576409956, 0.004907070314879539, -0.01481396073806703, 0.0023460121573684605, -0.01254782625906366, -0.009939640593355734, -0.003498583926231098, 0.0023215597019036337, 0.009320931135513896, -0.013406023469655484, 0.015632900532000258, 0.002852735440185928, -0.005553660457761102, 0.0036051816126771363, -0.0077901671437394125, 0.014024538352857241, -0.00407698256344767, -0.004422304485268769, -0.0019542148585348844, 0.0003505823427392748], [-0.005875529919201321, -0.0006150664666020355, 0.017245069501915785, -0.018888219442612625, -0.015552473587255235, 0.0016603258824228102, -0.0015514688087253968, -0.002365658574251781, -0.00019616533723014023, 0.002423692753989751, 0.008854175462936846, 0.003244367681774094, 0.0075162521948376245, -0.0001328538582611703, 0.008730143144412233, 0.010847903773113206, 0.007029701233735655, -0.004024319144625916, -0.005128376251095401, -7.023654482329355e-05, 0.004524397465775685, 0.006247079409518343, -0.004464934553812185, 6.340366595272958e-05, 0.008562241540831307], [0.006192994392413371, -0.00040441648327783246, 0.01088722820156068, -0.004251801386967617, -0.010191163310732118, -0.020276169345270465, 0.002560815059082034, 0.004140637321628291, 0.009484882531487717, -0.0024414089549721707, -0.01821346393910348, 0.013304219140659743, -0.007459812600768809, 0.01012868704753802, -0.003867225373409643, 0.0055100937897733775, -0.023621972663318943, 0.014187576928644027, 0.007030165751587193, 0.01135617317787669, -0.01389684318339881, -0.007634818611496151, 0.010027527718183478, 0.0032463713370070365, -0.007241184667453417], [-0.014255353427791424, -0.006667554713207671, -0.005368990628739704, -0.006258140035551762, -0.0053545198523333925, 0.0009489007499047096, -0.010516487118788557, -0.0064910157380260935, 0.008221895073568275, 0.0051472299965375405, 0.00408882796407164, 0.00712683549666139, -0.005514563022342437, 0.009821343189658462, -0.0038955673857571527, -0.015242270036355886, 0.012323923514009736, 3.5467450430751635e-05, -0.007860803517263624, -0.00013087125480450574, -0.0038562204900597216, 0.013935643046508864, 0.005739540077261668, 0.0024846370639216896, -0.014653470829893258], [0.005515511570235386, -0.0037364505161417167, 0.00226824221943493, 0.0027200089844582336, 0.027655396126066836, 0.0037580134405765203, -0.02094221859103542, -0.00904564056459055, 0.00017212963094372704, -0.005921093779126158, -0.01625635141687067, 0.013106715459058428, 0.021095878884570603, 0.0004904127933249123, 0.011239263492192855, -0.013795104835913903, 0.0123265959188693, -0.017074651567812262, 0.0012365814694545116, -0.01238017869971658, 0.00026476881332253597, -0.013946629356147761, -0.017727247334682047, -0.002195375213040403, 0.007100942285166042], [-0.006314609107661805, 0.0065011129672629215, 0.009982371608135813, -0.015303262028168198, -0.0027667795498242096, 0.012763503900103921, 0.0048095186094323505, -0.01849120518925492, 0.005579688757433124, -0.003445311589404768, 0.003289772195255199, 0.007903203232935497, 0.00752588812539366, -0.011992536211302212, 0.0170686933835096, -0.014107643320716049, 0.005189764869462258, 0.0022344558834161755, -0.007757937242916457, 0.004764254220539522, 0.009803542290058677, -0.006695308569347797, -0.00272491643416716, 0.01150824320501157, 0.00014752927613596848], [0.0066476739811388115, 0.01567525042619025, 0.0183634643618943, 0.0034080828897807853, 0.0029093899745830593, -0.007626274300330808, -0.0059190117041627395, -0.002721023941187024, 0.00545569938881111, -0.00870841035557129, 0.015035193706484092, -0.0007075610056847188, 0.012370232950636974, 0.005589936289113016, 0.0018762205461893347, 0.002129759769433069, 0.009886455053868384, -2.9263957695930816e-05, -0.0021995631917058347, -0.003501738145222383, 7.080836157340678e-05, 0.0011159879886608248, -0.005072391498857027, 0.014730202687593855, 0.01634490467690539], [-0.004382660011854129, 0.0026667411668438927, 0.01150185737592346, -0.0271564355335401, -0.0012557035716407943, 0.015737806411738248, 0.005140128535847315, 0.002641214340727818, -0.011574683825327954, -0.007969589724681647, 0.005374160309573247, 0.012492726321614488, 0.0018507421455780289, -0.00803214668606231, -0.01023540982858311, -0.00939419918421301, 0.003422842129704289, -0.0060394430920528135, -0.014693049403968152, 0.008230503059441258, 0.010288250914225913, 0.013592978470833104, 0.01092683661959796, 0.021056177320551095, -0.00014100307910463637], [-0.00011893207696427617, 0.005565158000615817, 0.015889373246846555, -0.003488290609946266, 0.010944222468901603, -0.006068572612287472, 0.008894630379128247, -0.007272165080613437, 0.009371479801191115, 0.008473251630204418, 0.00810727909180215, 0.0020427238091344007, 0.012794085037691215, 0.0016342768304483319, -0.0026767187022843863, -0.009545302889149265, -0.0008205163553963216, 0.00648584200682251, 0.00016950955901021052, 0.008461315921276826, -0.007276713690601216, 0.011492305442828886, 0.0109799771935686, 0.003954004789796767, 0.004509831649664034], [0.007797946753528558, -0.002381499795120682, 0.016271872535736143, 0.00463420875964506, 0.002202235950982362, -0.0008476051699604073, -0.0012499762489851698, 0.011836623526180192, 0.0037678087141931084, 0.004375624892103179, -0.014287775528160013, 0.0012620973422898182, -0.009621866033289912, 0.015336691298463956, -0.0003412629118759391, 0.00552773517849309, -0.013349600839673353, -0.007592090768619462, 0.0070778150160870695, 0.009873234688719857, -4.3270487362512445e-05, 0.0018392705497293118, 0.014937598526235317, 0.005879840648720962, -0.003956123892540405], [-0.006254393552813708, 0.014702430806462085, -0.0008474216384120456, -0.00489348967055635, 0.0019963289965955647, 0.00490456791335177, 0.004901923313571692, 0.002401411559408845, -0.0038886444731310197, 0.012714436514567082, 0.003786105811675913, 0.008783027654704947, 0.012471652621594567, -0.007365855069447238, 0.0021679815729739337, -0.0034519718695351425, -0.011093829174751156, -0.009537065855472076, -0.006606949838569465, 0.004338022045224158, -0.0025377278943169356, 0.014630245416730536, 0.0026721060947200764, -0.0029345605294650206, 0.0012716430544175853], [0.012352550574706793, 0.005649612109115718, 0.0003560095092776368, 0.011821152200943479, 0.011000991055410365, -0.014770254455329132, -0.012964857779082304, -0.017986032522930885, 0.01416297116192983, -0.005758315997470288, -0.0022026568317529286, -0.0007420789705015454, 0.008640856008096259, 0.01001027376166955, 0.004892086466166544, 0.010209181045508702, 0.025323320091221176, 0.00860018778014856, 0.011768330761106111, -3.801499061934201e-05, -0.0014586251763474476, -0.000525129373359401, 0.0011293452162202153, -0.008431694030830762, -0.007319284673346344], [-0.002488728252139437, 0.005503194068739197, -0.005223714572510801, 0.015193042262655087, 0.0031727364598964102, -0.0035883291248639346, 0.0001960731227008729, 0.005880854118372687, 0.0003759623382920413, -0.016310603309650232, 0.0010113513603799396, 0.006921717690431979, -0.004713037344387617, 0.01172276180343412, -0.0025664706661202, 0.0004808727856065721, 0.014893024669684353, -0.01032171847595103, -0.0013121866975836696, 0.0036957240160775057, 0.004368267988574333, -0.005394908650931052, 0.004219739455512601, 0.021040602594197908, 0.0005385279797114829], [-0.00010331677913655704, -0.00959742410870109, 0.01753626930024047, 0.006030854977072572, 0.005484857302363052, -0.0010099849789413165, 0.01749917158720487, 0.008153828777891552, -0.0013573915089612166, -0.019338159616213928, -0.011112735046430015, 0.013834399871346183, 0.0009023890336975199, -0.004180587078351157, -0.012695160539714522, -0.003745621563756179, 0.0035730040038304584, -0.006709570431038222, 0.002120373206430191, -0.006589917074590981, -0.00366439865309757, -0.004583596737753291, 0.015838195041742956, -0.010536654992469566, 0.014585007355668877], [-0.02539158084899326, -0.0068103023680029075, 7.751034495126938e-05, 0.020641212572449788, -0.0006116754927283393, 0.02588917044436364, -0.006215719795014529, -0.004500525779386844, -0.018591237530999158, -0.01447802896675123, -0.009572832822509113, 1.5439252398244424e-05, -0.02383973460765988, -0.007081885250532047, 0.022271408738001996, 0.0033492427449698164, 0.026073326046404638, 0.0019667136204237013, -0.020500456240803912, -0.010346419877136663, 0.01951956624577814, 0.012456949706567199, 0.011553708915210873, 0.0018003900408012218, -0.014614366833018705], [0.009964315710865822, -0.01070185863921148, 0.007331012940634616, -0.013452267546265165, 0.0004894112118086849, -0.006248371843330408, -0.004218727195651912, 0.006963295549939796, -0.0010565645101003973, 0.003036210314127969, 0.023169784065468053, -0.009960054502426503, 0.004016896592356639, -0.012272919856684158, 0.007525696204386006, 0.00021803205995148798, 0.0019859629776670285, -0.0008496023981728263, 0.006201564523515276, 0.016606266576707846, 0.0013194119937255282, -0.015805146586888856, -0.0016865818218342343, 0.0016611977078772881, -0.00038411582379164745], [0.010448598709862325, -0.00807214653709074, -0.007813898879815581, -0.004480690475054281, 0.011354262609283215, 0.005535494981787382, 0.029625668818188622, -0.010327257753660673, -0.01186762029957616, -0.002944559913594591, 0.007686950233950481, -0.006845057212290197, 0.0021717267428787534, -0.007823602304973247, 0.0024707810183279863, -0.0022408010262142527, 0.004705364563092622, 0.01723586540170981, -0.0010830468066050274, 0.005586939073880781, 0.008581548844722882, -0.006508212057123412, -0.013047712345149155, -0.007975017906344927, 0.00620460835568861], [-0.013850855906964261, 0.00609715753912407, -0.001512762112520714, -0.00443127768506746, 0.002489897540802289, 0.016599263899338905, 0.002879510605337031, -0.0060515562600956035, 0.006028419530989675, -0.005670144795168894, -0.016663631165369626, 0.0026565730392193515, -0.0014600848664674147, 0.011661748751069307, -0.016095800104955465, -0.01102554440926391, 0.009704762813051528, -0.0033779599545476495, 0.0006272403385594158, -0.017848197148588388, 0.0010039981879685828, -0.0020115616458525236, 0.000903324767017855, -0.016668881512695657, 0.009149383767700652]], "bias_hidden": [[-0.00022182889297940166, 0.0007176346588450201, 0.002777298777805498, 0.001857796100723698, 0.0002884758193466604, 0.0013343546516046726, 0.0032315936050514864, -0.0016963377479401137, -0.0036367885082958648, -0.003056559399104312, -0.00021268385177725395, 0.002116851393978815, -0.0014253032123161514, 0.0026217938683243073, 0.0008769701093020466, 0.0020022495428581636, -0.0036909896431443403, -0.002845579258420059, -0.0007717437460281268, -0.003525090588166707, 0.0014628957439713976, 0.003844819974092203, 0.0017305170379862567, -0.0031551941916158027, -0.001780516564282143]], "weights_hidden_output": [[-0.0058085408685365405, 0.00644755914466409, -0.0077438266579375825], [0.00555698162025067, 0.002767188440599686, -0.010226600948252612], [0.008802753997804355, -0.013242269753795515, 0.03086117265433773], [0.013467759044380138, -0.009023227208256143, 0.018129132277700126], [-0.004508511833148592, -0.002502273388737556, 0.005714376384115365], [0.006848092627029608, -0.00819380378009097, 0.01587210569526577], [0.012845638091738333, 0.015817272882696052, -0.0032999465086579714], [-0.0009837858324679724, -0.003043705815412241, -0.01030685327772156], [-0.019218296145456542, -0.007338003396470548, -0.0008429915142902421], [0.0036283220340076784, -0.014963960105598716, -0.013387675458206924], [0.002078029053711972, 0.009617378697732666, -0.018119020594932544], [0.009882214987484126, 0.0032654943148819732, -0.0028997182054782784], [-0.0005137450974822529, -0.004999799652163381, -0.019922171004396454], [0.006214717980959729, 0.009262625362572045, 0.007136234356305075], [0.00641858152841688, 0.000999758027204921, 0.0005580579991736292], [0.014064926136619207, 0.013533252818282649, -0.014111923282039135], [-0.0192930719764071, -0.008103740495413507, 0.0039879694698953605], [-0.012100841020653686, -0.005651222804243321, 0.008236350580746725], [0.006542614069464527, -0.019956240954692187, 0.007471245166222698], [-0.012697812768087532, -0.009828771839765472, -0.004474493276333375], [-0.003120882554947262, 0.016675136183095598, -0.004786311026503523], [0.027857718655793368, 0.004662959555912295, -0.0034138020727487446], [0.019854336218121684, -0.003523301126223741, -0.00045809896253503], [-0.015893962892191242, -0.011831224348491794, 0.0027533606449530452], [-0.01697570680861112, 9.512551182491427e-05, 0.00028666704340425155]], "bias_output": [[0.14809061085730774, 0.13351597926777473, 0.09311737948954034]], "input_size": 20, "hidden_size": 25, "output_size": 3}