{"weights_input_hidden": [[0.011438029627286978, 0.014090296008686533, 0.011933139123987394, 0.010130937891637807, -0.0019180274398364061, 0.01031307617142895, -0.01790903939141106, -0.027381310601558087, -0.014490884730625169, 0.003887557822743852, 0.026298726325597706, 0.017758644083009208, 0.009581475773490363, 0.008430699146252597, 0.007691034344383248, 0.0170530728604989, 0.013636071701072002, 0.0004990180459059943, 0.008275661976964438, 0.03511082440093645, 0.024211121723952646, -0.011737965047923975, -0.014971755021638418, -0.019530484941190366, 0.023108672549099728], [0.006009310019701748, 0.007521683797669366, 0.01120661736218831, 0.021677791725568395, -0.011056352110677445, 0.01075701740432195, 0.0005072674095991585, -0.038764024186986594, -0.014751605522067255, 0.029150294488311603, 0.0356183741241326, -0.0036808640443691818, 0.022697496116219896, 0.007599120864957809, 0.021724460615176005, 0.023099617108645252, 0.004729857431355257, -0.027858004939894244, 0.008261106484490128, 0.038685991647961125, 0.012644219088656455, 0.014651257966555, -0.021476469603586415, -0.029913786153514553, 0.010364870650043283], [0.004083826870225085, 0.017004226759256936, 0.0061006315241985045, 0.023669463347235797, 0.0009472822265055214, 0.004416891229060459, -0.003153742148251393, -0.032527611455330174, -0.014990326227813754, 0.0038241730999444786, 0.028727913301936588, 0.00793381609290202, 0.027319659275582563, 0.01423279409521958, 0.020510919608412243, 0.018745534325889258, 0.012100882332385763, -0.01004760242318495, 0.00611044723695626, 0.0416355034737573, 0.020988270374087806, -0.005337940475006974, -0.009903665161077766, -0.02267763834595129, 0.01418353599205696], [-0.003633573015416016, 0.004876413323178947, -0.013530721048445998, 0.0087433374415532, -0.018902262232759787, 0.010959188994067611, 0.0068642350911943895, -7.210595454629874e-06, 0.017863538408884435, -0.000912389114526473, -0.011363146011049586, -0.015193897102005088, 0.0009137652377303518, 0.007500855916301199, -0.029272994979555822, -0.006191950952633908, -0.0025407654405221075, 0.0014614903375987206, 0.010466013557596089, 0.011092365363729062, -0.004381626629866971, -0.015597223932243252, -0.0054921875147688586, -0.021102452616721463, 0.010113627197828162], [-0.0014107312740422088, 0.0003233206491661875, -0.0017574486242971233, -0.0013974433465002085, -0.023479175674561033, -0.01773454000929121, 0.0008274583132252653, 0.005053730963192658, 0.0023255789690257082, -0.003292688838755301, 0.002344669655937147, -0.004943250096843227, 0.013721511873326849, -0.011881658616855978, 0.0018772340043345561, -0.006628015372945862, -0.011546105417218814, 0.00011176083614282368, -0.008814645362290879, 0.013191767333828715, -0.007125985309780793, -0.02101144682003101, 0.003960823986145517, 0.0037974735061368317, -0.004212071731891449], [0.005082526875031734, 0.008231485715039117, 0.002066726610935318, 0.011005126207785392, 0.002857245040887831, 0.0015218184628049759, 0.0004916072664337816, -0.003300668565205897, -0.004390088037199789, 0.006681181388191119, 0.015246448773336892, -0.012962959524779627, 0.016179919038533476, -0.00442400842688991, -0.008915193283218813, -0.005383944590679707, 0.008127237901719025, 0.0009212854290174551, -0.016606818579306692, -0.01256281741733177, -0.0005494388905101983, 0.002536866717563971, 0.005977026310889846, 0.0007683601524349191, -0.006180275489066684], [0.0009950329967608788, -0.020383486634237055, 0.01417598164356047, -0.010179455414699374, 0.00889053500248735, 0.011873486582589418, -0.00850305313512372, 0.005763899683539221, -0.01328164882982516, -0.015784562833249773, 0.0036850615948434296, 0.004260024789408708, -0.0032775715801702005, -0.010212000003436882, -0.002847074776188458, -0.006712872769149612, 0.008275348343607176, -7.48255363149795e-05, -0.004580141952323632, 0.0008376247053493315, 0.001649753634655014, -0.0064883420525685, -0.0022541399563501268, 0.007143240435678368, 0.013719506404090299], [-0.01070876404727836, 0.0033261569004376258, -0.012493742968700356, 0.0018860682790669196, -0.01142373428251452, -0.012195456676330232, 0.013882873691547743, 0.005232543483750196, -0.001895702812314323, -0.027271223673347177, -0.005971938136839303, 0.00384965826836089, 0.006878676582619472, 0.004645142746448362, 0.0074350597782170905, 0.009644008089633806, -0.007542310935723042, -0.010078588474796995, -0.01558511434735308, 0.004696587915157775, -0.0061033805924918, 0.0020303316779759916, 0.0013802912452602176, -0.015204730208103404, 0.004854981314607864], [-0.0019606882051179993, 0.007142780572616397, -0.020237182127963247, 0.0007304191722607853, -0.0017353765463487298, -0.04082818653213845, -0.0014512862479759473, -0.0007684916543710322, -0.006581646432184809, 0.00016219748786432461, 0.006084538635418774, -0.002993236008579928, 0.0076716391888132516, -0.01173446796024974, 0.013217731030997073, 0.02422838975265924, 0.02368493541936814, 0.015963061138052126, 0.003977143177072444, 0.0004273684982098371, 0.0023588626490769105, 0.013586419470959432, 0.00786897502765877, -0.009607490191850846, -0.010345324669735494], [0.01655892438223454, -0.006927641025326809, 0.0011703227722530303, -0.006629989283058572, -0.015596137617145287, -0.007176608087042022, 6.0201493464630745e-05, 0.004353517313695957, -0.009324867285963014, -0.013055590208554237, -3.5569050008253646e-05, 0.0024945735003560764, -0.004098904149324457, -0.008078272254022, 0.0047469349857132736, 0.0065714947326791645, -0.011115427870079112, -0.004602510951891438, -0.009192832921451202, -0.00533884459633052, -0.0039012342719351744, -0.001182193760874558, 0.0008242856343169658, -0.004922610983646385, -0.005812894748770895], [-0.005760577752975968, 0.0009992181557700582, 0.006474060138852365, -0.0005030924360640026, -0.0009586973850945444, 0.00026444199415703656, 0.005649501140870458, 0.0083071304081124, 0.005987963040002701, 0.008759559675338655, 0.011562364184597647, 0.0036471061318244934, -0.010700390510436815, 0.0021049847474432014, 0.016063496675845692, 0.006234860550794339, -0.004751630926061672, -0.01716405574871663, 0.003586184726035313, -0.007078506543457522, -0.008285724995767818, -0.01582517273568475, 0.012125752394651317, -0.02750011390776744, 0.01521472306466788], [-0.011331300954955714, -0.009881466338489353, 0.011998323652882637, 0.0122545159504023, 0.0005434708629648573, -0.002464010062774094, -0.011993105039963283, -0.006497222520816808, -0.027807076756937492, -0.02270478523052055, 0.00990633372312733, -0.013106009985700684, 0.011304392165939535, -0.011213620360184756, -0.013844654569242967, 0.0017538480773637254, 0.012820521619364707, 0.01911031418250267, 0.012665315101714425, 0.00042828946940215304, 0.012778913201619353, -0.002130945699359089, -0.010325759084136934, 0.0021423231541825077, -0.011273314692033767], [-0.004041865569056548, 0.004915088689594099, 0.0046813121001341405, -0.017795870411707916, -0.0027689390558293748, -0.0021961049496527756, -0.0034796631511934428, -0.00620091060040149, 0.00640579382532821, -0.0035671287174048956, 0.018427148389795957, -0.027510624827064387, 0.009079054098651358, 0.01897273230541408, 0.008196353969459757, 0.004486573155695205, 0.012736524912980917, 0.009438194403804216, -0.008096137282929171, 0.0014831317547430356, -0.0013402176187534759, -0.0004041112390342544, 0.012368924880635585, 0.005865820900635844, -0.004539181393905576], [-0.013791918248517918, 0.0013366910753040099, 0.00012986694631392503, -0.016534819566362276, 0.015152938024459479, 0.002845442568278911, 0.0005878318096237469, -0.003719311804274322, -0.005170038536876035, 0.004600449488009447, 0.00643203217923215, -0.0015771080604052893, -0.0007670211129479337, 0.001096088799186901, -0.0031098537702944494, -0.003960379541303101, 0.008503085890857296, -0.006254956176782026, 0.007624118053689367, 0.0023717544416065094, 0.010383274397130896, 0.003375768430417857, -0.008223469115471286, -0.016397828247000774, 0.016708557928451554], [0.009164275200002773, 0.008807326256430997, -0.002553270848019443, 0.00032183637481371727, -0.005412596484208407, 0.001533214809522934, -0.013145775972689533, -0.005387643187236653, -0.006520618504494032, 0.01687744678714749, 0.013925124067928398, 0.0028757803423653467, -0.0044096048480779335, -0.0015454168845280098, -0.029051356077952232, -0.0023669148091848328, -0.00031743516846210405, -0.006700734807849579, 0.008606911701719159, 0.0028359161097426906, -0.003507567271802674, 0.0056118646160315255, -0.00580397259693297, -0.005995411627964848, -0.010024954558761914], [-0.016561074820197693, -0.015038447573497525, 0.003291990745398412, -0.014352642562125735, -0.009381851349238695, -0.0006267886605962623, -0.01381611621911741, -0.012693902481721118, 0.004711219633125805, -0.007326123138605437, -0.01813455258642558, -0.0010039528985413748, 0.003983457561298122, 0.011263568813837289, 8.894935061901213e-05, 0.012729545565427167, -0.016604551925562486, 0.0009987796313369638, -0.002486596364383878, -0.0031306996163647355, -0.008190346246663323, -0.00023414627732573138, -0.0030031582251945346, -0.00038556475606607473, -0.005578295196797809], [0.0031679460178195558, -0.018701681290441023, -0.012624443668521836, 0.00723703192256067, -0.003438555020287926, 0.011109304454281656, -0.011040779025856415, -0.009962397817173587, 0.0036627181764152935, -0.0009086373358503705, 0.004529180534328538, 0.00355521136522657, -0.014174413716422507, 0.01250311330502089, -0.002375316665639661, 0.002661820725563047, 0.003347539919072919, -0.0030204729392563, -0.001063940042817097, 0.00030592838556580505, 0.003752900371364186, -0.0012865192471511386, -0.0009961110979401712, 0.004179133894383817, 0.02050891782061624], [-0.002404784030837951, 0.01827768370000769, 0.004512473146751482, -0.016441430321624213, -0.005865728406942144, -0.013508488552588984, -0.01639992154954878, -0.007453800381543175, 0.008358655918411206, 0.0005946943159198183, 0.0016008525245504149, -0.002843042045829122, 0.0009967553949660397, -0.005174365856003832, 0.0004511268154516731, 0.009823893407923256, 0.005791962115114284, -0.01389551600175717, 0.01060726250700257, -0.006529657275742894, -0.007649230105000874, -0.019007660991983946, 0.008026858693361625, -0.0047863391895057086, -0.007072208095930156], [-0.005739057182198378, 0.010353473740941732, -0.005561144245374098, -0.016202014678031933, -0.014581620084165492, -0.006160576258476741, 0.001681985333238619, 0.00358834287040339, -0.017186644758829736, 0.021560682133790095, 0.007654828216941898, 0.007597124326751604, -0.007160459537041707, 0.009632465066219264, 0.005445541728626844, 0.019440851785765694, 0.02031962901167685, -0.007075932029280203, 0.0067034103439737, 0.0005217984890692395, -0.0010496511682808248, -0.0009717160364256098, -0.0067973047183480205, -0.013595361423106734, 0.008139894110263224], [-0.006918426541930767, -0.004875359468343027, -0.012220758377521228, -0.014130096872284939, 0.0027934653601357495, -0.023200451240466373, 0.012102666778201425, -0.006210498831532862, 0.024086622744775545, 0.023741044339834337, 0.004937034103170716, 0.003917323722550108, -0.0012394305608026323, 0.00373801001563974, 0.011050773401721408, -0.0067661958506331785, 0.007081630765635628, 0.016991338239841693, 0.01581251804808275, 0.001495915971007081, 0.009398079591853207, 0.005637482838986767, -0.006129955154519951, -0.0027483793650462337, -0.0037941972424995435]], "bias_hidden": [[0.00028938428286932123, 0.0017937346751036956, 0.0029280846224387026, 0.005447197913492943, 0.000718959748289292, 0.0019565113136829734, -0.0018503285458560733, -0.006244017857216216, -0.0020956268748491794, 0.003450928320001472, 0.006189371341584245, 0.0005172562749459931, 0.002197498962465945, 0.0034844349076428305, 0.0041307838456930675, 0.0024265229719419813, 0.0015195287082591705, -0.00298583933873722, 0.0008265821031994433, 0.007770193894109772, 0.0038247148632882064, -0.001326106781571346, -0.0019732506649960194, -0.004729696971886119, 0.0026302889677471976]], "weights_hidden_output": [[-0.005661840880959066, 0.00998280384426822, 0.009967199991996798], [0.01395237614001268, 0.016039887095403237, 0.0070910763167590036], [0.017245804889648195, 0.02536620967001445, -0.006231379176935781], [0.017114081323149385, 0.038971638627631894, 0.013461124982594459], [0.013018183037164042, 0.013871817507620747, -0.027013861869565812], [-0.0018392604170157079, -0.001024121312032264, 0.0260110937029526], [0.005444865026727112, -0.01778268243674593, -0.008008644232033452], [-0.031110924378432516, -0.04164109145405213, -0.03264699020276831], [-0.010708442627863232, -0.021162257978169556, -0.010056727549111907], [0.010978397384964509, 0.006432018390276233, 0.02336485495876643], [0.028463971970985703, 0.015164066924017273, 0.05063938541801344], [-0.0010056033955966551, 0.006309971094658209, 0.010079364877504644], [0.017336932680834125, 0.006561352476399035, 0.030078156224809666], [0.008167179537166579, 0.012014188129381516, 0.017702607043569973], [0.019162532005088814, 0.010833201570260567, 0.026219354357764277], [0.021577563787897873, 0.016252069074035723, 0.016302621851947904], [0.0001504665025900049, 0.0029769652776751674, 0.022876175048373384], [-0.008216436459688163, -0.0037807071996025995, -0.027961225918473522], [0.004401870953012438, 0.007661066901300133, 0.0072078351607382405], [0.045805454423675826, 0.03509429173837145, 0.04594868565522372], [0.027048128928168786, 0.007819070071495009, 0.023581142600826367], [-0.0023535156916020205, 0.006473315967677132, -0.009764591511492317], [-0.009106526346858107, -0.009767728545690543, -0.02115539100644063], [-0.014510167489977584, -0.025881719482824594, -0.03365099801492579], [0.013937000852958502, 0.023509236617306938, 0.008431880843789308]], "bias_output": [[0.1294500366169958, 0.12140944367168899, 0.15025596117671275]], "input_size": 20, "hidden_size": 25, "output_size": 3}