{"weights_input_hidden": [[0.007565844630207432, 0.0035841083499730158, 0.008277458480253751, -0.005953694732825941, -0.011037561399844123, 0.02589652166397706, 0.006551751018810905, -0.005709542903297663, -0.002668426898678323, 0.004430322617064648, 0.0017595742658232983, 0.0007426027952048907, -0.0037762982657594648, -0.0025588478242045453, 0.005567501980038479, 0.008546837661812912, 0.001031918837680454, -0.00551734081493626, 0.0091834175816852, -0.0024663944660110126, -0.00298567190258105, 0.002192521902467719, 0.007665196299968466, 0.0016102022045797629, 0.003118909821029599], [-0.005661501307144667, 0.008072665200110839, 0.006156139172397761, 0.007070224671362713, 0.0063711553186249995, -0.006468044595189932, 0.01485452868374905, 0.0031074813464522563, -0.008641958533028187, 0.012469143350030876, -0.005759159283581211, 0.007209409412634854, 0.0044466227702139914, 0.023663493007130748, 0.016190515880321135, 0.011257352344145129, -0.0006097476963743535, 0.010231243072566685, -0.005806373327173523, -0.001879862299515504, -0.002117639929418357, 0.006591053593028656, 0.011276624241375799, -0.02152736899645901, -0.007651081145895338], [0.00410927280383208, 0.002230015890757257, 0.009410392259173842, -0.008083331406534633, -0.01811010541723641, -0.004395837967081596, 0.006657550889067312, -0.015521413948102043, 0.0003986628414958666, -0.013676613102220948, -0.009838509190758972, -0.0022998173737387617, 0.0020373808425151116, 0.010570051450922234, -0.012920304044780923, 0.01700663456263149, 0.0008623519474453956, -0.007188476866782091, 0.0033810929930429136, -0.00953345826025629, 0.014681295823980057, -0.001874706407187239, -0.003259000026008423, -0.003675382585659318, -0.0007072727072119469], [-0.00598180074323795, -0.0007504997168509925, 0.017955664470149662, -0.018567732421792393, -0.015428353614245896, 0.0020004609347293763, -0.0013835271437073204, -0.0026985489356055564, -0.0003766567835054159, 0.0018384273543811602, 0.008509798045458147, 0.003312501577386254, 0.0070211483324484755, 0.00021665678158282707, 0.008763804003044743, 0.010694643860605348, 0.0069319284041978275, -0.004055190979997513, -0.0051828362967613765, -0.0003611409233655445, 0.004658741809134711, 0.006283745275488686, -0.004489497413751695, -1.628191575489237e-05, 0.008568530403719564], [0.006410190039851616, -0.00017806727775082694, 0.010359512591899862, -0.004615582003768153, -0.010293615216678697, -0.02057972484851737, 0.0029027787576794794, 0.004184683258906729, 0.009295999041490904, -0.0024941298922089624, -0.017830637881828062, 0.013469860159477607, -0.007199319837246031, 0.010200514909466682, -0.0038225792622046265, 0.005969047839381476, -0.023886502851013198, 0.01388818364116415, 0.006686056891661478, 0.01121094638761183, -0.013575745607100226, -0.00742822980554666, 0.010045838151708798, 0.0029547841312637683, -0.007303528034211449], [-0.013902498401947546, -0.006815126070643807, -0.00731690351847374, -0.007581236801296774, -0.005534456404699803, -3.694993913182841e-05, -0.011683654246303675, -0.005648327126536742, 0.009734201195473566, 0.006407405949700295, 0.004591693146787703, 0.006327610214479757, -0.004625327311365736, 0.008655088363297751, -0.004286013860877792, -0.015765033541586926, 0.013712110473708728, 0.000993908448716938, -0.007980496989137045, 0.0013571796768832194, -0.00411643489775431, 0.012304329049145002, 0.0048470738724643294, 0.0036626854054112395, -0.013858279816764353], [0.0056398240374920345, -0.002918291081268776, 0.0030781815853981403, 0.003567796855597734, 0.027475822219079536, 0.004113865524450616, -0.01826076289926083, -0.00998509197729925, -0.0025956094058208457, -0.007607634775536604, -0.015629122790217848, 0.01465353452296621, 0.02059239540600266, 0.0022674994736205612, 0.012006528637131971, -0.011487530319884556, 0.009536051741860022, -0.019178538103053037, 0.00032843385206840085, -0.014931443116941634, 0.0015192135334650555, -0.010786285823893724, -0.01628075639301453, -0.004902357584268821, 0.005588672870148034], [-0.006415006428249724, 0.006518511126631561, 0.011354904674227772, -0.014591773362223379, -0.002536993748254458, 0.013378577592682371, 0.0057126235669999635, -0.019265401729317788, 0.0046409050469877885, -0.004839455314238855, 0.0029127467063950947, 0.008396540922042195, 0.00666983424072013, -0.011007043262935215, 0.017289797830740368, -0.013845587923831346, 0.0043687337245093966, 0.0016452971261181593, -0.008065129952529022, 0.0036773138536733392, 0.010324755832651984, -0.0059092412420366485, -0.0024729542895147874, 0.010758043860859334, -0.0001369525430240256], [0.006577089294228783, 0.015515553410340764, 0.018566964159188456, 0.003670503691114168, 0.0029654016001100475, -0.00751160674445893, -0.005915309731343208, -0.002830435247774978, 0.005403782368950842, -0.008887534555771426, 0.014940309310470965, -0.0007881417500151685, 0.012064627481490977, 0.005686073184047764, 0.0019189721280120304, 0.0020423597251765166, 0.0099118737780102, 0.0001309469253868205, -0.0022254032450179295, -0.003632365776163684, 4.617278137665766e-05, 0.0011683026118555965, -0.005096944388528912, 0.014664831325208069, 0.016316782085707804], [-0.004359908464902805, 0.0028518256973530227, 0.011956605931339525, -0.026812801077836696, -0.0012446558394624792, 0.015909322222757476, 0.0060272258645206675, 0.0022372489033461837, -0.01245801783019946, -0.008734650581328777, 0.005506008601031387, 0.012954265152613748, 0.0014834685786395468, -0.007362858852711193, -0.009981563163170016, -0.008760741766355617, 0.002577352228960284, -0.006622268720659329, -0.015075778857323406, 0.007374010998976709, 0.010750778272013383, 0.014533237471870065, 0.01130723157005491, 0.02021933881729597, -0.0005689842929209008], [-2.90063137445134e-07, 0.00546902199841918, 0.01544009873470886, -0.0038306353004104055, 0.010942360765185668, -0.006320622153719065, 0.008631044381264079, -0.007136810812847054, 0.00977503495477431, 0.008599092390858072, 0.008214982918053483, 0.001803691477692825, 0.012881509132232235, 0.0014120786401295277, -0.0027790014848432685, -0.009723787358021516, -0.00042132585658355773, 0.00678987009208329, 1.027398705725865e-05, 0.008795691389777415, -0.00724460941568259, 0.010990291457769976, 0.010639374204525912, 0.004256955241468271, 0.004783520054724391], [0.007456840395064727, -0.00234680493149543, 0.01792882653001195, 0.00566528871322936, 0.0023645731618674656, 1.1701240822326394e-05, -0.0005793768886304851, 0.011206641421014978, 0.002795732290783895, 0.0034925685415702736, -0.014872045986003491, 0.0017957154623805599, -0.010324500162545597, 0.016142336731737743, -0.00010824381005653681, 0.005685033846166301, -0.014222162464296063, -0.00820644352890119, 0.0073340365687884395, 0.008906878470610629, 2.630943213331677e-05, 0.0028606818460128257, 0.015560471686527154, 0.0052126485173013635, -0.004476048649822813], [-0.006780404319082008, 0.01499306647397392, 0.0018163333710622858, -0.0029593072559822263, 0.002154385176291627, 0.006266449004476813, 0.006746382257421407, 0.0012427596025187198, -0.006264405683022556, 0.011026262479746828, 0.0032182804124279082, 0.010026095027573675, 0.011247976959004268, -0.005660321397412057, 0.0028140143679305186, -0.0024448421723417607, -0.013300566873151141, -0.011018456363941824, -0.006459637142192943, 0.0021031273176417738, -0.0021585576078014166, 0.017303019038131546, 0.004173191475283124, -0.004842210656688025, -8.932335209485147e-05], [0.012888937962842604, 0.006126405085882189, -0.0012417891550730795, 0.010968086801025172, 0.010701454263629699, -0.015655105354499266, -0.012168733004564114, -0.01777983474973097, 0.013722346331059034, -0.005721005085913665, -0.001084369259873365, -0.0004548468880860392, 0.009245348895742097, 0.01009123719124461, 0.005049830159794688, 0.011408152738325312, 0.024731712282719906, 0.008062601665584751, 0.01085121719843483, -0.0003599999788806171, -0.0007332942247282813, 6.472192106395547e-05, 0.0011838397650051702, -0.009213577920034422, -0.007546901059934332], [-0.0032758032513812286, 0.0052110872266869215, -0.0016017308932473448, 0.01736981797951123, 0.0036733322936354194, -0.0017414729298182697, 0.001028726868554123, 0.004588188721697806, -0.0010339961957119982, -0.018170127946296806, -0.0004934601792286628, 0.007591779483663875, -0.0064797536833730825, 0.01317672825115803, -0.002233003770652656, 9.911573766704083e-05, 0.01379116000291032, -0.010937919994186867, -0.0007006229391390949, 0.0021315562428700944, 0.004305218966466736, -0.004088822847075187, 0.005043678048407013, 0.02027279097738968, -0.00010859942045474099], [-0.00015366813502572783, -0.00956088170932094, 0.01730131251906855, 0.005963206821195594, 0.005418553059656599, -0.0010820422395069248, 0.017197941134844255, 0.008408907643516822, -0.001142984555656867, -0.018793874513114095, -0.01107356464659063, 0.01374388654452113, 0.0012236257211039193, -0.004500650250879687, -0.012750368281988589, -0.0038448934810801152, 0.0037413638831258187, -0.00660969988605108, 0.002421323967892059, -0.006277741641424755, -0.003966358432919836, -0.004688390985909022, 0.015914023127201887, -0.01031869963371715, 0.014585344196913336], [-0.025063279808298925, -0.006945060777438303, -0.0015457568673562928, 0.019419694147366724, -0.0007148003280436805, 0.02505771225067691, -0.007337329614104201, -0.003781315766761909, -0.017144661390752935, -0.0134194744640921, -0.009228946170871069, -0.0007082358241387249, -0.02302552631568927, -0.008131457837341658, 0.02186729851187413, 0.002748529235099196, 0.027397405042038046, 0.002811644182829445, -0.020564152972119647, -0.008966189234573627, 0.019288825470373406, 0.010829049489250757, 0.010657938842697315, 0.0029766033061282126, -0.01378472792462861], [0.010178488076829794, -0.010238772258565796, 0.007351202370653295, -0.013343652798188268, 0.0003965118070889463, -0.006314419382461132, -0.0028911156495929177, 0.006577168782037341, -0.0022854291061323263, 0.002213522413155372, 0.02368725667443116, -0.00924763584439951, 0.003928231246164313, -0.011475606773723373, 0.007862755491141784, 0.001410244809163973, 0.0007135586769515726, -0.0018624011727100141, 0.00554556738880313, 0.015463078571991893, 0.0020779850614596083, -0.014448878372449537, -0.0011600649397691483, 0.00039043078243344506, -0.0009752187016555327], [0.010787800896304144, -0.007788300265785248, -0.008862619785633775, -0.005094669993613278, 0.011175666728391924, 0.004977459498023179, 0.029941591737198563, -0.010131928522965175, -0.011963445031577261, -0.0027861919987546132, 0.008318292318289176, -0.006732622187882409, 0.0026612132486742205, -0.007901201758500788, 0.0024995757875193305, -0.0016297596429324865, 0.004492757952907913, 0.016956111590524604, -0.0015444091746666458, 0.005543041757174415, 0.008948221853541393, -0.006352576306847287, -0.013099816352751842, -0.008285157464744964, 0.006174726763341169], [-0.014393222903688326, 0.006253289806878083, 0.0009217326897718068, -0.0027879383757022755, 0.0026927361459893225, 0.01788651573179788, 0.003940072721405157, -0.006913608550309784, 0.004428808920416682, -0.006782632548434777, -0.017442741311907057, 0.003540898429951674, -0.0023467046416709766, 0.012821332171390726, -0.015701502958912452, -0.010642990340687527, 0.008227470303354108, -0.0044314100329372035, 0.0011579862941044333, -0.019357421758304964, 0.0009914781925143346, -0.0002125144633342767, 0.0020418378061300715, -0.017800487829299817, 0.008220018673600647]], "bias_hidden": [[6.790155309476435e-05, 0.00019397906111143082, 0.0005103219680471252, 0.00023516303673614113, 0.00020711509210446626, 0.00021722596379599368, 0.0008908636460626042, -0.0004605501082315242, -0.0009389314603825298, -0.0010779072304587403, 6.085355031593371e-06, 0.0006350851352606735, -0.000346466825026363, 0.0006902457131815265, 0.0001601653100239839, 0.00046393363193159096, -0.0010972549266408012, -0.0009596561486449754, -0.00047688116196355847, -0.0009668765976760033, 0.0006338481909157549, 0.0008720733796879677, 0.00021148331363978176, -0.0008248975483604023, -0.00033613758998618997]], "weights_hidden_output": [[-0.0034891851278221458, 0.0089759514699973, -0.008041688937006857], [0.007900385596024776, 0.004255211497031765, -0.0073952701889835], [0.011342461377568962, -0.010836352420097015, 0.03288792879310513], [0.010703485165379657, -0.012175515642267652, 0.01663115131668646], [-0.0023871356738800024, -0.00045242397958018214, 0.005855427267117601], [0.007579696344782796, -0.008031365560532983, 0.017214980405261985], [0.012313583994947233, 0.014673344677918768, -0.0032359477520348583], [-0.0024480103701931964, -0.0055177529335605074, -0.009752410611700754], [-0.018547190772132904, -0.006654895426904699, -0.0003745717076466215], [0.001347510180333382, -0.016488833381681944, -0.014979252679653526], [-0.00038340722050934445, 0.009085545287409756, -0.019007432688809806], [0.012333285936682347, 0.0050821469126437055, -0.0010017776037912597], [0.004253623799769615, -0.0005196737704645394, -0.017869980276574954], [0.0067990614038087845, 0.008907381987386893, 0.00790472431827909], [0.004516647535049417, 0.0014324904926631828, -0.0009378507156551016], [0.013155601989271706, 0.012789659669066592, -0.015325755771530995], [-0.02004583378839092, -0.0074983543746447705, 0.0028159062912016964], [-0.017522690321636482, -0.008742344329194024, 0.0037024919553646893], [0.008255581482258474, -0.01890761267244006, 0.007532652739232608], [-0.013601440325371012, -0.009475955472668213, -0.004538602694585652], [-0.0018291476816041834, 0.01804940840932408, -0.003708632594463814], [0.02496300259743284, 0.002173495711410512, -0.004474961926660565], [0.017519985381843448, -0.005922656571085202, -0.0011125871351061196], [-0.015217131955238234, -0.010515980055918361, 0.005832564091504334], [-0.013853370950055227, 0.0018083035844746193, 0.0029074950329953816]], "bias_output": [[0.034885614410761864, 0.04811128270647275, 0.024594466763184792]], "input_size": 20, "hidden_size": 25, "output_size": 3}