{"weights_text_input_hidden": [[0.010976377424592386, 0.003917987301017923, 0.0018348781392286662, -0.005153028874396065, -0.011080093142745903, 0.00858405437122989, -0.009507492953185339, -0.006162423041817808, -0.000569157366056061, 0.016013694166348912, 0.011935075747971707, 0.016886978771559907, 0.00664201021182739, 0.007762621226218109, 0.01573039659716041, 0.003589332003835056, 0.0014428158455304166, 0.0023319111946173967, 0.001747694498636079, -0.0004944403978666786, 0.0021400875465682565, 0.0031304654577560603, -0.0025669802348249732, 0.017267538595894274, 0.00815514168147532, -0.0018343083775010163, -0.010832768610398114, -0.0012171392178345016, 0.007806176747272079, 0.002148934813924682, 0.02239851236751749, 0.010187907768781049], [0.02253928567558432, -0.0052942942348014905, 0.010184217918041529, -0.0014832636844339644, 0.0002835338549211244, 0.0014568578337760447, -0.009854982555844386, 0.0061351444422520765, -0.01413352301379987, -0.012239015891154488, -0.0007217995594302355, -0.0008382202606912722, -0.009285299705675426, 0.009416977759477153, -0.003903440163803172, 0.0015589769673708417, -0.005484836891618791, 0.03238496966439328, 0.011731309895017474, -0.014421257576308669, -0.0016743855115040614, -0.00807609813423298, 0.006424885474515592, -0.015572601731402552, -0.011647192631890789, -0.017554473197717094, -0.006576873453945292, -0.0036587637566704826, -0.00044744692175085533, -0.019464510948126824, -0.012390028489946931, 0.010451771767456285], [0.00950202902000005, -0.002907651450333307, 0.019078560542080524, 0.00362245468386944, -0.01598336148047656, 0.001346597545966006, 0.003993800334281186, -0.00819101848701221, -0.01039601275540016, 3.020304583165747e-05, 0.005248849094873228, 0.002593171728939794, 0.010808501800058164, 0.004583410755097745, -0.0010521696657665878, -0.026625449883529665, 0.0008124750235412288, 0.007685786082139342, -0.010269126561243855, 0.00038081994512870237, -0.017432499234343656, 0.020590984628526328, -0.0036444310082726396, 0.023478941467832064, 0.0008764116092093384, -0.0043704223516915705, 0.0007559616837072253, 0.004611054152148705, -0.0023074241892646237, 0.0003365791272545779, 0.010741741493061424, 0.004461195825966054], [0.011562380406351507, 0.0070145043988875215, -0.008494422759635007, 0.001403693136948311, -0.01245664714774588, 0.014541383686483065, 0.010500048999369523, 0.014421082602450232, -0.014255232076921023, -0.007325187844126842, -0.009564575680551864, 0.012567701266607263, 0.004407139921899886, 0.008123474158630633, 0.003484785573345693, -0.010337659944302538, -0.01103393912046813, -0.00752901950259394, -0.004678171858158681, 0.003739733034446478, 0.004674535569624525, -0.0055378999163368135, 0.01892165224932407, -0.003125252465487998, -0.010500297933172266, -0.003670562481002212, -0.006056770966804538, 0.000508282783290206, -0.014707543866475619, 0.012616012971808104, 0.010479852392011862, 0.0014746986993974247], [-0.006453327985575187, -0.007197153935717244, 0.005579918228990662, 0.0002982213723512474, -0.0012482141488456221, 0.005650826787651754, -0.0029726877041730154, 0.0015471029021604623, 0.014667754310792029, 0.0016147659920443466, -0.010362198328727956, 0.014751761056907682, 0.00218698928427349, -0.008657490442828566, 0.008167472827111872, -0.0017387536191065588, -0.006839276142630904, -0.0004643810700091284, -0.006416246238621176, -0.00015753092926884424, 0.018627384825745837, 0.006501830815445549, 0.008621801104923936, -0.010267269101754416, 0.017533959347136804, -0.01682526063333808, 0.004370230159958585, -0.008010211108125184, -0.0004738456895459523, 0.0016297294984441591, -0.0073632183737168885, -0.004226380859586409], [0.01071541352098195, 0.015187867124284668, 0.01787286354329152, 0.012691529301153425, 0.004748465547694347, -0.015118714203281518, 0.014185414849961137, 0.006250890438025837, -0.010001845414445605, -0.0005815453590626504, 0.0041858143268015055, -0.013413450440745085, -0.02053852316301472, 0.014706467805138746, -0.016072412730634752, 0.0041452255610220515, -0.010825024367424092, -0.00234935974256818, 0.0024998339988906463, 0.001913835627826614, -0.02126275496160734, 0.0049913952838292735, -0.007808583955234524, 0.005264207102514627, 0.005171478051925752, -0.005144887218038185, -0.001376963291695125, -0.00012653671017869245, 0.0017320654175288063, -0.00024959937941760696, 0.0025209071239794137, 0.022215405780134617], [0.012626968391694903, 0.018850871922976634, -0.004072648931900639, 0.0009860587133581349, -0.009324368334360527, 0.005595443099907299, -0.009190322386747728, -0.011542709512031558, 0.0071085945745407945, 0.002248398293101799, -0.020060809729045167, 0.009283623228464748, -0.029687616216896622, 0.027377656927337662, -0.013796697667394022, -0.011009008951955704, 0.01334842629443092, -0.015336758402026876, -0.000987055450993484, -0.008559893780398791, -0.005441354325314612, 0.018915295698969648, -0.01390278080256137, -0.010677710007816824, -0.019322842344818642, -0.006280488275444877, -0.003554887861983972, -0.00814130471226629, -0.00739477988193001, 0.015378753252798815, -0.0042694661336780265, 0.0059847599112003], [0.008882125743888912, 0.002145711046296238, -0.00747975649782951, 0.002562247652768744, 0.011585497333366402, 0.02510143028268824, 0.010927088275933548, 0.003988530202632008, 0.006708246415571058, 0.01714110838780204, 0.0015580003374296258, 0.0016227458623264597, -0.012726622664941036, 0.007595192232505443, -0.015293160236383777, 0.001280769618824987, 0.01130452042834152, -0.014818077540740514, 0.00017562557068538689, -0.02392916943543703, 0.011745574622108198, 0.016542732228431768, -0.010271593499981281, -0.004526943429173885, -0.013249481256761385, -0.020777955013592236, 0.0033604917934471844, 0.012578175502485824, -0.013096793027721746, 0.01136682589543111, 0.030056405857931498, -0.016510397467373827], [0.010532833895989226, -0.0012923291970078719, 0.021345101278049502, -0.008254292023407833, 0.010850665668067583, 0.017812636574471838, 0.006609409510575869, -0.006885837317999932, -0.005098121788926796, 0.00232715484959668, 0.009197749884210002, 0.019725194669023255, -0.0011939133902228467, -0.006876624350466602, -0.003436095702034782, -0.009264408236892535, 0.012178411919324552, -0.01200822283364603, 0.0012228209579007367, 0.012126727832782567, -0.0053732694639237735, -0.0058434507111091195, 0.0012435907219114366, 0.00023455763814473956, -0.009948278921275514, -0.007011265403972135, 0.007318625172025141, 0.0033662196769810243, -0.006409822428284761, 0.018506762758392095, -0.014729381843505968, 0.005310890415456349], [0.016925974447453866, 0.001471934907683288, 0.00010272051450627903, 0.0009446856700704939, -0.01257161959816984, 0.00896094989325289, -0.007333791937461419, 0.012908194511082143, 0.009261817887300738, -0.003537831348624801, -0.01468910816253958, 0.0012280030596146113, -0.01073346723264118, 0.011702317298563468, 0.015210852183679315, 0.009780561805196621, 0.007880760310720637, -0.018079151665824068, -0.003481712595841213, -0.004085008990073192, 0.004202734743719905, 0.0005437475624596484, -0.015451642553015099, -0.00982223072194837, -0.02218877553227795, 0.007971135800806486, 0.009641541223855644, 0.012957731850082336, -0.005609317488309268, -0.006546524692161022, -0.0011749219828703487, -0.012449678039439598], [0.021298983200275127, 0.011620118663310539, -0.007609399435385139, 0.01286528144385291, -0.014932347093838972, -0.0014477432477645717, 0.009484130541936484, -0.011218239750454571, 0.012448878390235073, -0.013454968536089955, -0.012014129375787932, 0.008340520013716546, -0.0011014534054557827, 0.0021101059318542497, 0.016841122784445925, -0.004275789972230732, 0.004326547214277489, 0.0038352472801581636, -0.006135970753159587, 0.003334991305102416, -0.0054437126061865895, 0.006410406385769497, -0.013813988387587593, 0.015557820209105266, 0.006245317257879074, -0.005714152745482736, 0.004556234136278493, 0.001426851194710411, -0.0012810940298724656, -0.0085305934410359, 0.010165020718604674, 0.0050077665945562], [0.005031776458191969, -0.002189676339236803, 0.006042141616322236, 0.012148457933641816, 0.011650013905991812, -0.006560680862655695, -0.004229675883408857, 0.014553370884793722, 0.0052135872855162465, -0.018694904111894558, 0.004010970034099524, 0.014925487932298776, -0.004559599672573292, 0.010650795704590937, -0.0015826101627683838, -0.00518526979139322, -0.004606678941824407, 0.0034022144202720704, 0.005496427920362654, 0.008286137867814793, 0.008774028711207959, 0.0009665932101145699, -0.0011787879617700331, 0.003489471041262231, -0.00705854757813043, -0.0024048063728480426, 0.008106799219229584, -0.021415016347366568, -0.006539989589789786, 0.009731526491000906, -0.00843875804823196, -0.002931723268265757], [-0.014470919922910719, 0.012741644484118148, -0.01510856481855496, 0.0021674144329256917, -0.006686601254727959, -0.00986981682321871, -0.0018451827417737602, -0.008986117028497708, 0.017220783833417706, 0.001319052688944221, -0.002776770657794401, 5.924682045910541e-05, 0.01460668234502978, 0.010234778897694285, 0.025954526614661685, 0.0023201821306936426, -0.00023699720273736012, 0.016779836276468573, 0.0010303389348845097, 0.0011163624245346206, -0.005072712553983103, -0.012248119050245275, 0.010015842980236254, -0.008003405732561216, -0.034456992046066164, -0.0005197800259071338, 0.0006956785784651506, 0.0012335766808096958, -0.0009627160036479862, -0.00513072224441327, -0.008054654679584316, 0.024371677215549937], [-0.0008209631803532153, 0.011898574028086679, -0.012149759872521404, 0.009350172981709324, 0.0006660282417756289, 0.007616470006334143, 0.0013132071328064855, 0.0011438119360363528, 0.008596209974469571, 0.009390576123735355, -0.01217173529118083, 0.011424958078626228, -0.002587916886596424, 0.002276133930253176, -0.00793568821659684, -0.000945794593166821, -0.0021464915978635967, -0.024886618890897244, 0.025046635542309157, -0.0018393959550910388, -0.007019286295361362, 0.007734313988661857, -0.0021598452876978895, 0.0009924966581783944, 0.019776968595451604, -0.006542109246344316, 0.013459206031342128, 0.008376084998464156, -0.023685433994390166, 0.009005683272347312, -0.007260362445254321, 0.002135192582652073], [0.014022194293992181, 0.010615043589353623, 0.0018983846303825007, 0.0023829523876304553, -0.006207966039144497, -0.0022557095013044886, 0.008657121485163852, -0.007073028604766148, -0.019041727670392566, 0.016355231837654506, -0.009160048728186973, 0.01587062420852975, -0.008502871045751863, 0.024718774493021078, -0.004917777728152616, 0.022195689742767102, -0.0018333964122033942, -0.01863762974286047, -0.00825549322398277, 0.008444466002123617, 0.008996920683598291, -0.0025020858827265874, -0.016548544498382486, -0.0010255123492225798, -0.00465202755275259, -0.0186358493295774, 0.006563269227020294, 0.0052886410034784555, 0.007865344185616338, 0.0011216544561577476, 0.026638878996156648, 0.010945474522225534]], "bias_text_hidden": [[0.011470887347101364, 0.010161477347036506, 0.0050271921521945, 0.003787181008290096, -0.001457773946492733, 0.0006380537986961752, 0.000517339290772395, -0.001343648358831154, 0.00019287559235312845, 0.007004976378397524, -0.0034775008426667603, 0.004917726397369782, -0.006514471698906756, 0.0061998494291780545, -0.004571624332662362, -0.0008049093209303292, 0.006692739847677209, -0.0059755303237947486, 0.002905958229315682, -0.0033556774925031408, -0.0009687370272131868, 0.003740832955880611, -0.003747868767175034, 0.0023886770820888996, -0.0006180689647090087, -0.009283389399160728, 0.009410630187508704, 0.003982264971285342, -0.003503538991007631, 0.0033750313471773478, 0.006232816938132445, 0.004037133535383151]], "weights_text_hidden_embedding": [[0.006016971405477158, 0.012999602385767943, 0.008502125983053681, 0.024909194855017257, 0.006675009842389905, 0.013579418340989611, 0.013306421183859472, 0.007929573212082259, 0.024474784815073033, 0.001999728505881991], [-0.018424273981478587, 0.013841512087817838, 0.024376330054090407, 0.005086667793425622, 0.0020584386616607077, 0.020678894000577826, 0.01145118087016415, 0.014243764052627884, 0.004095176340466495, 0.005998132589092093], [-0.01925235936545563, 0.0028032288848481284, 0.013095944618678865, 0.0030919427616135386, 0.01126750763356321, 0.013227150932407967, 0.004033481164410209, 0.005445992587325467, 0.01074698889244037, -0.0015244300450854829], [0.014381832444507713, 0.006690253008564652, -0.000325621795609426, -0.017624247731226166, 0.013632889394356761, 0.003768889219282332, 0.018653619128138958, -0.00617201857563672, 0.0012664158774238028, 0.015342028703709402], [0.0014217094921445581, 0.007488680086502783, -0.01000905519730225, 0.005840262955706725, -0.0024241388844388487, -0.023685164811870718, -0.00653556523562163, -0.006771161219225799, 0.00340947140049868, 0.020890578369460178], [0.003816903125341588, 0.01113894223255923, -0.00416759267837234, 0.00786535748902284, -0.01322435335610161, -0.002339227353747776, 0.002094277790484907, 0.015547673477569322, -0.0014911742342697345, 0.00585183020322517], [0.001201758334451662, 0.012078776442296003, 0.0003773029358344429, -0.013703990806378111, 0.0040695986871234005, 0.00067242590646524, -0.011012820091634044, -0.0007469641436262648, 0.0062955271536449765, 0.01780154721930855], [-0.0021522374680957366, -0.01832609780767194, -0.0024037896215740578, -0.006666943047980788, 0.015045695135188967, -7.02014711510678e-06, -0.002806335605226572, -0.005943862576461864, 0.016414264953291804, -0.0017066118476469889], [0.016500737192255, -0.0011779228959895036, -0.0038596271254796827, 0.0015839912582452707, 0.0071728985642751575, -0.005566716916422139, 0.0008561236170030122, -0.0006021932350443203, -0.012326504785432697, -0.0021343301566410975], [0.012435208376570712, 0.02623385845145961, 0.010751091458339815, -0.008788524308824612, -0.008590158036003331, -0.003270775654730923, -0.002568917654462457, 0.01336010970845639, -0.0019468651769933248, 0.0038545673671683475], [0.009153393521445665, -0.009667860576933543, -0.013792801707156917, -0.007884505610237926, 0.008978029108068584, -0.005385425899987356, -0.008391690902785845, -0.0023809343863733508, 0.0019079468914224946, -0.006127294151645615], [0.012525083412280029, 0.0020792259620336824, 0.01669967185783881, 0.030058617918165373, -0.007373381995234249, 0.008016616597377462, 0.004441777755225071, 0.001108707255005527, 0.004523538669493927, -0.01305641906102584], [-0.008286967215585623, 0.007230447067652517, -0.014024102721312562, -0.01127806689419872, -0.02369602541193754, -0.017209591967610974, -0.0010031289924266023, -0.005107650701194938, 0.006072463456075698, 0.012587252359773898], [0.016824004734587242, 0.00212486565541808, 0.01570230335873725, 0.0008569675631004167, 0.005937195011103131, 0.010018101650325585, 0.01587125920969732, 0.003293341336957195, 0.010778508629894637, -0.009929067095863525], [-0.004218416877653483, -0.005872870030075124, -0.0016728569467308885, 0.02170628258547236, 0.0006016502578501007, -0.013134516401588086, 0.006430644070592577, -0.015192268468715924, -0.007433443571912772, -0.0025539863068059464], [-0.009837552059811804, -0.012297030852727408, 0.002969820684738659, 0.012588605672416833, 0.010415851362478608, -0.003043853005450879, 0.009163000903619399, -0.000415435815457268, -0.005004928308394057, -0.025980534604263097], [-0.0033554717748250046, 0.005785455412871369, 0.005294474551496, -0.007194559278215618, 0.019303915205549096, 0.003291540019062883, 0.0015004486306247605, -0.0041485980900012025, 0.021560699512142855, 0.0022057531569400863], [-0.01429987060809412, 0.0061259758551403375, -0.017714943436053718, 0.009544408519931779, -0.004633199437594949, 0.008698436494781091, -0.0068814928369189555, -0.02321733757353044, -0.0013688558435669006, -1.3648877224507822e-05], [0.009203130322378471, 0.0011728936673478145, 0.018713257961138124, -0.014446012013890758, 1.0727500044539e-05, 0.0019898413869638997, 0.01102270083609941, -0.009978296994015538, -0.009779723538424032, 0.013900905787932568], [0.00894826598986684, 0.003823925278195158, -0.015585936173697426, 0.010359899616779883, -0.017316944350000297, 0.007366854886465079, -0.00010646222574011268, 0.0031224163063445884, -0.021373147503114066, -0.0020952858379861563], [0.019449564133967593, -0.01485068590505435, -0.011231272087404874, -0.010015849672800094, 0.005738381661970044, 0.0017853062857141287, -0.007955931715295073, -0.003422943284791119, 0.008284611859784725, -0.0007884650582392479], [-0.010642570897872985, -0.016510600120385587, 0.030855526984810255, 0.015999188842578175, 0.01331501752558279, -0.0041059530542912675, 0.0007801768898563544, 0.001234559244019193, 0.015324714309531893, -0.013692585572297845], [-0.010286598948039356, -0.0033475883269350926, 0.004256608754168311, -0.013416804268200213, -0.001423666055823431, -0.007457192992413432, -0.002947961029865647, 9.653206762805436e-05, -0.0028230654235681355, -0.007114233122470606], [-0.003008298690124553, -0.00013962639395638963, 0.006147377920762043, 0.0010785038388092544, 0.009818579790150843, 0.003760901373189794, -0.005183622623759712, -0.009471582417185003, 0.008725305644457929, 0.017668447250811892], [-0.006269235316843167, 0.005251726148304356, 0.02163324254119491, -0.010043803359315949, -0.008125415475158368, -0.008610611733670191, -0.00968810971069107, -0.006018680948683125, -0.008261629824561635, -0.005812824258932073], [-0.009369528710880643, 0.004862094002295351, -0.013646107416293006, 0.0020642530868098105, -0.01804939538571999, -0.01768692115018678, -0.003153778042419046, -0.024277436673012003, -0.009819100928860064, -0.00566536728142307], [-0.00010013217055916537, -0.005477810865509283, 0.02719796345602504, 0.019521536363732522, -0.007115827996562814, 0.01119254154839316, 0.0011799904762001751, -0.0035580524176870017, 0.00656728574039745, 0.020277272782458975], [0.0038639620517595744, -0.017029136572909113, 0.0016615114825827026, -0.0026417857408544874, 0.007257210727863409, 0.013524420503185775, -0.0047461010690785475, 0.016032645116348263, 0.008795540216364806, -0.001713474874799062], [0.007066570798177002, -0.016529984045991594, 0.010614550188505616, -0.023712910058194835, -0.010339728682547476, -0.006932542246286653, -0.006915533696724125, 0.0008405316556739539, 0.003122262957724113, -0.017905942316474], [0.012423238164904192, -0.0030431217519985843, -0.0009515175474901707, -0.011735024531948662, 0.007392206542445005, -0.007130076885338404, 0.001498106229038365, 0.020627233306666343, 0.017075863068966683, -0.005670248000895009], [0.022259591616738947, -0.0019543366029781736, 0.016961123202902773, 0.01988298365039569, -0.004678879541675613, -0.004692415894209593, -0.00191786770770613, 0.00665374833881268, 0.007143998526436883, -0.008285749977231693], [0.011238258400254778, 0.004042796866370286, 0.01735900333598321, 0.01293416881559222, 0.014245581225146686, 0.010181008280405905, -0.0067123245350784524, -0.00851017484259772, -0.0041035034143285624, -0.007536653268226801]], "bias_text_embedding": [[0.15347721926809738, 0.15757613518772842, 0.20098287801151782, 0.12512567362536126, 0.1272986473228017, 0.1584264674487795, 0.12063541099582445, 0.15732912569757657, 0.15779624642273454, 0.08314234776022843]], "weights_embed_to_visual_hidden": [[-0.0034953070713050257, 0.011519676744100054, 0.020442928462065715, 0.017055076415626876, 0.0038572409320013967, 0.0027334905919433527, -0.017804929408715586, 0.008193647388389073, -0.003118324581627693, -0.006036221063873486, 0.001327759304486796, 0.013022235766952743, 0.002513765367043716, 0.0026362385619438365, 0.0018485850152547406, 0.01202810414673626], [-0.016858626987543257, 0.0014673172927651213, 0.012244778383111641, 0.010058428438333515, -0.013283167183335953, 0.007378056132434717, 0.005044094331876702, -0.01274517743337847, -0.007642908009454015, 0.0021508297697206092, 0.005072233981923291, 0.004131419721544838, -0.0035308181215189293, 0.00033256301988356096, 0.006012218203652683, -0.0010631723507721653], [0.008145338810098613, 0.018093484854645372, -0.012794444132663967, 0.007603085583390036, -0.013934127778041394, -0.019118185404865276, -0.016539634624372117, -0.006393577238932345, 0.009577579190103885, -0.008122569181135754, -0.014091193935673462, 0.0008267003362240645, -9.213211624584469e-05, -9.649375186080984e-05, 0.008615807319343213, -0.005861078416343587], [-0.008867467268764124, 0.011986159996040469, -0.0005324552776414727, -0.007008281790118862, -0.011242208289595953, 0.000731348964612931, -0.0018733981901165012, 0.0012538236208508972, -0.003307978611369507, -3.2793839158930714e-05, -2.6863482042200185e-06, -0.013104032892372103, 0.009520273181326217, -0.013782894830582672, 0.0038477582442814295, -0.0016164992582332765], [0.01448465218176184, -0.01619016700349645, -0.0073532018001179955, -0.001349332161540166, -0.003297748300306268, -0.007381358965588513, 0.00518796289386249, 0.013817943199084394, 0.007192056355279844, -0.006315149691487798, 0.014818473016828293, -0.00034279519133603866, -0.008521242882220408, -0.015887686794189216, 0.00265677844743669, -0.005347026426671084], [-0.005950589543874899, 0.013146693598853685, -0.006025282089364328, 0.021217683662299643, -0.001341256067884273, 0.013455903916852283, 0.022303930162667372, 0.00544486238970067, 0.0045019893131942375, -0.0020563776798357067, -0.010490722743723181, -0.012249196112843797, -0.005717946301613872, 0.01970161211422973, 0.00034132725022755465, 0.017892053396626757], [0.001125290267987973, -0.014591397857865798, -0.001089684227013899, 0.005311440620088884, 0.01877237812627417, 0.02432335369270491, -0.021263020729806317, 6.66866288677401e-05, 0.0056142904139583035, 0.0060767816007436274, -0.0033075483708060647, 0.004450405376989865, -0.015307866302453718, 0.00041171015083892916, 0.0007820720535152483, 0.013607451923143827], [0.005481371151276398, -0.01637226297250489, 0.0009887406358495719, 0.009073844195625324, -0.0028536583553774785, 0.011071195875561076, -0.0036423575094192626, 0.011624958983691145, 0.0140850507855224, -0.004686336405731511, -0.008635870076381521, 0.011763358573969688, -0.005067674672076052, -0.005291471287922091, -0.011629549232309628, -0.019770487687820387], [-0.021264638358883297, 0.00860404519018167, -0.005476133045558726, -7.761337985926032e-05, -0.0002244555577601164, -0.005179465793202321, 0.0052610860268293, -0.005812162317407508, -0.005649829466079258, -0.006390929979092908, 0.0015183064473015923, 0.0013463490242225022, 0.0032837326726066554, -0.012963076638224855, -0.006541431625212413, -0.005218744291086186], [-0.008949416458502306, 0.007908843851405565, 0.0009204212037819205, -0.0027941277956567688, 0.0036673049868797235, 0.003320219243438479, 0.013072939852971161, 0.020840911392121738, -0.006373830505805997, 0.012004744389582008, -0.0033163562925387006, 0.0037599857255810796, 0.004081809131949502, 0.0004394838532590698, -0.005964037090748659, 0.002187327684084124]], "bias_visual_assoc_hidden": [[-0.0002357902008272411, 0.0008401706251849542, -0.0024278844355732315, 0.0018505394945959298, 0.00022881276423043016, 0.0016008055252692882, -0.00048027937554480013, 0.0006553812797594248, 2.9656568315971674e-05, -4.749067583278135e-05, -0.00017119224603712115, 0.0010611608977456454, -0.0031873714851738425, -0.001283078794655495, 3.5561477012007714e-05, -0.0007326824574106664]], "weights_visual_hidden_to_label": [[-0.013715966907131175, -0.013996976842133448, 0.007216048116172963, -0.005401205545983333, -0.014090480503816281], [-0.0008516218725093627, -0.006198525886499774, 0.0012772295879226298, 0.005106234811236162, -0.021453416681962514], [-0.006881005359134495, -0.002408710969972473, -0.007544904027750134, 0.018121700428374965, 0.004211571802851898], [0.01133507423089361, -0.007433028906080976, 0.008634037864871066, 0.0008582017818084959, -0.015576606809810042], [0.010148234068883896, 0.004969507732173127, -0.02604117016959241, -0.006941709684798748, 0.014401813328007084], [0.010990721975577728, -0.0018346016932056209, -0.0018317556325504617, -0.01598603709860105, 0.005913613487089379], [0.003333817222563609, 0.006980391071677091, -0.0028306173449338277, -0.0007041950903351557, 0.01502905973090311], [0.009710824331024336, -0.005758584954246716, 0.005767697737966563, -0.007860279635785021, 0.008766881525107665], [0.002033857590403203, -0.013255258889606289, 0.002118519206544763, -0.0127553100535118, 0.007965559236537786], [0.0005207526744022689, 0.001174661163378909, 0.0013162025731141978, -0.003772214898684467, 0.006374759309478676], [-0.016900520722793824, -0.0014849133057581547, -0.002428364269134369, -0.0021688279953382653, -0.017742175084769257], [0.00030328341383329646, -0.015072967675950791, 0.0010122311278211418, -0.02238447226694139, -3.276810124165127e-05], [-0.028221165438064386, -0.0023547872498174607, 0.01588409470910472, -0.003840534092428194, 0.014862284612215799], [-0.010371508549882594, 0.00485145004762803, 0.003585412257248997, 0.003948250636372978, 0.004491560692480314], [0.01044458436538764, -0.015273888710670062, 0.0021271891014158655, -0.00038229785486080186, 0.005299522045160633], [-0.0047597604935714745, -0.005000963665178369, 0.002513984887977373, -0.005367238731420529, 0.0073651052189180905]], "bias_visual_assoc_label": [[0.09137430420397823, 0.03851488449217606, 0.014736002539351412, -0.07231650313645384, -0.07230868809905193]], "input_size": 15, "text_hidden_size": 32, "output_size": 10, "visual_assoc_hidden_size": 16, "visual_output_size": 5}