{"weights_text_input_hidden": [[0.007089695959674774, 0.0012452701350218595, 0.0007728921438256083, -0.006887384672600572, -0.00990935805221717, 0.00803608754240605, -0.009462791718222, -0.005733817586767671, -0.0011981384223716438, 0.013668744632635153, 0.012725667197036432, 0.01460795876477386, 0.009352377467749378, 0.004741340299490796, 0.017414524189919584, 0.003945343912150946, -0.00016583283871014212, 0.005016556915458782, 0.0005757236783662194, 4.190902919982771e-05, 0.0017648441759890398, 0.0021402836852800404, -0.0011256978096556732, 0.017010274959494875, 0.008852294378078465, 0.0019535957846692456, -0.013386463112866618, -0.0029068605273600127, 0.008446900031267959, 0.00036412910576858354, 0.019700752605057093, 0.008494906692502717], [0.017658226175241286, -0.009708068400949484, 0.007801293028506076, -0.0022756420539399823, 0.0010868709780137652, 0.0007360843476409247, -0.01025487553131499, 0.006907056871005409, -0.01374990951092555, -0.014758086763677196, 0.000979563170481338, -0.0033319409590010438, -0.006794242255588668, 0.007113110835686414, -0.0022545144850177187, 0.0020781177168686035, -0.007737729519449249, 0.03401831114012658, 0.011223326060295745, -0.013465199858938983, -0.0008372698675592602, -0.0096494902265769, 0.008005046562312641, -0.016587738429162092, -0.011250743725750923, -0.013876765428122126, -0.010261606591460507, -0.005062104058548003, 0.0014903572805462302, -0.020388518792365497, -0.014665285812298366, 0.008639141807593589], [0.0037197313240222318, -0.008178426335582559, 0.016510073115309748, 0.0023779316759718564, -0.01458759639876674, 0.0003884737832348032, 0.0038928793229456825, -0.0070404184012951045, -0.010213053507173657, -0.00311773883072991, 0.007451848313450548, -0.0009018554603843436, 0.01405054312106061, 0.0012235956348880604, 0.0008081016782506245, -0.026162183198822932, -0.001413481417889927, 0.010231681571161094, -0.011522652872238403, 0.0012661131371606842, -0.01642354611878109, 0.01853396306188785, -0.0017799522532204698, 0.022606496362050154, 0.0011315608307930912, 0.0001875053221644467, -0.0038870498699864003, 0.0029347939855249292, -0.0004656519029107075, -0.00081550935723101, 0.007522759207718258, 0.0020999564000866522], [0.007472510174307438, 0.0032523301835785403, -0.010442611844481968, 0.0009533379924995159, -0.011800163652099656, 0.013789073352370123, 0.010309118084651648, 0.015286949993669346, -0.013969946212258496, -0.009526322258796774, -0.007995358301832142, 0.010215733955722044, 0.006509270219792252, 0.006196469943728663, 0.0046960620680347506, -0.010013489400291474, -0.012669794320551186, -0.006061243129260202, -0.005109429783975626, 0.004387844752851083, 0.0055878081198042695, -0.007001403498207518, 0.020232293899180413, -0.0038497314297689443, -0.010334674662434807, -0.0006766092529710028, -0.00926922683741601, -0.0005526316014257623, -0.013088666750814057, 0.01193619933251729, 0.008360961464310404, -0.00011321233425321606], [-0.009767801454814455, -0.009716159206426106, 0.004161867555046931, -0.0007476217296762052, -0.0006252967027113098, 0.005381414315179897, -0.003286310119732921, 0.0016758956509819905, 0.014682134934992892, 1.315976959263949e-05, -0.009649880780673891, 0.013340058299304583, 0.004048641449892282, -0.01049274484819174, 0.009509676917650225, -0.0013752072631417961, -0.00867605518208566, 0.0008323657549737105, -0.006786832853227603, 0.0006469897138380732, 0.018601240842740705, 0.00566849729017873, 0.009763609633497008, -0.010935896300738481, 0.018196121139139137, -0.01407107270203067, 0.002317721435355955, -0.00922850161584106, 0.0006430403814210936, 0.0005424602156392425, -0.00887348723801351, -0.005418761765925558], [0.005197916618080308, 0.01027211687497311, 0.015213980069611825, 0.011304781522873212, 0.006149586405766506, -0.015641643391282108, 0.013871159608550336, 0.006881300682456918, -0.009685662345394863, -0.0033002016740624244, 0.005974726116589788, -0.01622975620453368, -0.01743468014668042, 0.011628290825081263, -0.014017548845075015, 0.004633394198752993, -0.013530963288673424, -0.0003721630160326131, 0.0015435425615817698, 0.0030699760814443637, -0.020671158381540832, 0.003258748309849856, -0.006028102063993561, 0.004192220619564447, 0.005724590387315094, -0.0007795744300554475, -0.0054732165980164085, -0.0019226078461678938, 0.0035570625101294454, -0.0014123532675505823, -3.43172099179282e-05, 0.020058478430752178], [0.009649286215608495, 0.016494919863319215, -0.005181670495907296, -0.00028006766346457267, -0.008292201714306365, 0.0053517599548237845, -0.009045341580111037, -0.011248052273279695, 0.006941658578641868, 0.0008075432598838607, -0.019175125443140546, 0.0074905780744172175, -0.027790070031627322, 0.025102383333036136, -0.01281664144588673, -0.010939062850370052, 0.012084264897121716, -0.01373777887496741, -0.002006048630904594, -0.008000170891653714, -0.005355151379036853, 0.017882603885259397, -0.012928330401731402, -0.010991184317108904, -0.018971969161093203, -0.0037706948178162633, -0.005688370953348386, -0.009132045928538397, -0.006817102526441358, 0.0144955944085764, -0.0060204086667982664, 0.004726633692690247], [0.004278103382664008, -0.0016887622356991996, -0.009297924967249592, 0.0015340638740164562, 0.01234332349386564, 0.024143871890225314, 0.010571439854941455, 0.004826922511644252, 0.006665300389924431, 0.01441938392803779, 0.002991611623821913, -0.0009100638178172096, -0.010176221427405775, 0.005068907048546368, -0.013561123858350326, 0.001946865741453066, 0.009470834236465595, -0.012518048568885236, -0.0005206585268008518, -0.023244926958346304, 0.0122193126946293, 0.015201669021871917, -0.00867215285288111, -0.005250205321082277, -0.012754519862282347, -0.016842970220792636, -2.1986182061886477e-05, 0.01101710163335917, -0.011529938570119415, 0.009964962926041267, 0.027389344281062652, -0.018286978502434402], [0.005885037460457963, -0.005193618697442849, 0.019137403097187144, -0.009481695544802226, 0.011710004185151578, 0.017368560999176098, 0.006145321993789713, -0.006542518387440931, -0.004814542419731363, 0.00013950426030964129, 0.010510425137689173, 0.017655506974262325, 0.0012335029469477973, -0.00927798785751954, -0.0017076762253117762, -0.008733749317497241, 0.00971973333095672, -0.010443160669424943, 0.000668919959801588, 0.013253386502879005, -0.005004584489279365, -0.007177739463494185, 0.0027708827747974854, -0.0008053956847557923, -0.009249801129431634, -0.0033568569833421213, 0.004146921336959116, 0.0018617795526914846, -0.004689169229478793, 0.017353995392006098, -0.01670453802749927, 0.003664295597077781], [0.014750869762316036, -0.0005461437918893195, -0.000957473117743792, 0.0005110471582879152, -0.012455317440251074, 0.008485879269999611, -0.007782485682078749, 0.013258239012700814, 0.009515992937603548, -0.004736375778771726, -0.013892561108601155, 0.00030015609116506014, -0.009843695341491734, 0.010806850185954295, 0.01603575451779434, 0.010341362269800657, 0.006880825982334794, -0.01729362360992892, -0.0037253976426498765, -0.0035956842180168754, 0.004609771386037249, -4.104997970273376e-05, -0.014725612964769307, -0.010440567058581436, -0.021948054983432733, 0.0097236477728566, 0.007936504321713767, 0.012328652724230943, -0.004593483628425897, -0.007034898473842868, -0.00209031876758635, -0.013109943947332649], [0.016660682643685126, 0.007725824292484114, -0.00956643755308893, 0.011641533439842271, -0.013693188446388907, -0.002033084016742243, 0.009262661717231143, -0.010605185453517765, 0.01239802324434726, -0.016045135384715463, -0.010703537766595295, 0.00584227510623354, 0.0017752122740840003, -0.0006624682401513807, 0.018795435632255404, -0.003803359146176467, 0.002188895501614073, 0.005973931914525721, -0.006944900722484643, 0.004103862955375019, -0.005243341512017416, 0.005103077465696415, -0.012221907473665448, 0.01486359217007313, 0.0067944822747496355, -0.0016942710985546133, 0.0012212202439670255, -0.0003462645406601489, 5.400454370770025e-05, -0.00989375746125445, 0.007629054102273239, 0.0030740007144452667], [0.001478861807730746, -0.00517393787144955, 0.0047396748663859865, 0.010827586053066801, 0.012783677816003994, -0.007099396855869384, -0.004213402413743636, 0.01513224233814693, 0.005021873058301935, -0.020719547907546897, 0.005173954324296268, 0.01272805624804728, -0.00231166565968057, 0.008071033752171247, -0.00023066122600285842, -0.004838399240423855, -0.005948658943443738, 0.005483297734141933, 0.004312770441656506, 0.00879993372342912, 0.00896903447059551, -0.0001710885355340501, 2.6362290682081496e-05, 0.0031018985535815275, -0.006738625713667738, 0.0007830469698154899, 0.0053525649157331635, -0.022694419778820085, -0.005780426221597826, 0.008636600200833006, -0.010666991184811563, -0.004453647601875981], [-0.017416934233522953, 0.01043773676536882, -0.016321611302884627, 0.0012796049654994206, -0.006239062776603165, -0.01042532785237755, -0.0021798354146314422, -0.008712052053993667, 0.017318950535416665, -7.973710884362704e-05, -0.001942251427252956, -0.0013683071251975516, 0.016050972154156358, 0.008560767296801096, 0.026946247271598053, 0.00277525317958639, -0.0014885995522305009, 0.018112279999065343, 0.0006079970709520329, 0.0017581270073387806, -0.00479848130633196, -0.01315970079175927, 0.010984921192779126, -0.008584870584142952, -0.03395035271981536, 0.0019467236821687293, -0.0011822673757883842, 0.00032338546459167826, 9.960802907827684e-05, -0.006092123975231961, -0.009500548491290997, 0.023391226690005547], [-0.005501984644241574, 0.007916778538853165, -0.01417733804926658, 0.008329776723071397, 0.0016723632064725952, 0.006904680142864393, 0.0011553009158067015, 0.0018757143950770593, 0.008681376623480466, 0.006937957298565592, -0.010651948131183954, 0.008791324959007097, 4.498381858748849e-05, -0.00035229454703658065, -0.006373510060903652, -0.0005857989320206215, -0.0041228474893738815, -0.022898020717505938, 0.02431074871018445, -0.0010460061580395898, -0.006442028675522336, 0.0061843028424096985, -0.0006145745883887344, 0.00026300607984565595, 0.020213740400469922, -0.0028202968368064196, 0.010028598866241769, 0.00692075800332503, -0.02214440358941368, 0.007868766083771553, -0.009782044300920606, 0.0002789415846179816], [0.00998338215954775, 0.0073921544930833855, 0.00046331360505223176, 0.0005085904971167775, -0.004729009302416978, -0.002645744710031755, 0.008733524494470181, -0.00665931046862646, -0.01934338066976138, 0.014211394772999684, -0.00800311910903619, 0.013483960321829904, -0.00583755580324583, 0.021528061999552553, -0.003316572388084656, 0.02251261902537681, -0.003546120379841444, -0.016236736030186164, -0.009773726995210228, 0.009157040375663617, 0.0089461227968586, -0.0037452358593966103, -0.01517908515411215, -0.0014577882643123606, -0.004132933318550442, -0.014942060590393599, 0.0036043333403610513, 0.0037454049995776185, 0.008554569738024872, -0.00025149228672856355, 0.024184869761078785, 0.009214877321747018]], "bias_text_hidden": [[0.0028394298143226996, 0.002938693493432675, 0.0014315316974363678, 0.0014823790983004427, 0.00033988424008790636, -0.000703205728153999, 4.9386274112303715e-05, -0.00010152998586256007, 0.00024404813774931672, 0.0023766373229755075, -0.0007867726159741157, 0.0002530999221638556, -0.001692122750524022, 0.001179837535071076, -0.0014848025567171777, 0.0001340344925710369, 0.0029713489133421397, -0.0020130887706470446, 0.0013147703891681988, -0.001807502089802301, -0.00014032334690285868, 0.0010704515447352487, -0.000850418586167943, 0.0009719576186489527, 0.000345923468861624, -0.0021508870941282857, 0.0031406919147405165, 0.0011718923689151852, -0.0007307958939086226, 0.0009921751835843897, 0.0015722214311506162, 0.0007065327607744697]], "weights_text_hidden_embedding": [[2.120280659415286e-05, 0.007126826942775451, 0.0007043766628179768, 0.019950450994722396, 0.002974757127458636, 0.0061756233813898475, 0.009194287680583533, 0.0014652552233429417, 0.018968382500313963, -0.0008816573403036724], [-0.021689693153373827, 0.011403513895057638, 0.0206422319215941, 0.003021172861922405, 0.000316086643828162, 0.01727191681943187, 0.008990639572605626, 0.011211732666520405, 0.0015284330662902893, 0.0047450591779049775], [-0.020816099829535466, 0.0008006868721526769, 0.010590502222861446, 0.0015734088716192701, 0.009987174426675878, 0.010490355162286798, 0.0026018648075673474, 0.00374721315113351, 0.008714099960747164, -0.002480179350798481], [0.012159529524011947, 0.004487771835447173, -0.0033569985397675474, -0.019518487895346416, 0.012323864847010804, 0.0008854974117901595, 0.017098427881931832, -0.008576733022413623, -0.0007418350117809913, 0.014352402412600196], [0.003493757982301427, 0.009229804954330602, -0.007433639219807878, 0.007418699712583632, -0.0013685791559894282, -0.021494320186381064, -0.005079522316344817, -0.004679978269779065, 0.004981702305535771, 0.021701105107214364], [0.0013480728416485751, 0.008376513326195217, -0.0072249878670455, 0.005428419026767346, -0.015034963838352731, -0.005150196561610588, 0.0007914280753967345, 0.012430406687808667, -0.003965617375404194, 0.004446705320198045], [-0.00015244284207779524, 0.010221496843858818, -0.0018178991994137745, -0.015266679871367289, 0.0030002925132693536, -0.0016292834898706658, -0.011929697306892773, -0.0024951010952255982, 0.004659784461342029, 0.017063187740765172], [-0.001421822134791465, -0.018712438484030893, -0.002450470613128891, -0.007085659593997537, 0.015187433296777334, 4.873674975378481e-05, -0.0022354897514578515, -0.006040265987365153, 0.016411214547349985, -0.0019848680782913646], [0.016830080039202996, -0.0004526092531478679, -0.002613814160385323, 0.002280532731914199, 0.007287591510568084, -0.004512777792745581, 0.0014982170589626122, -0.000250050995028101, -0.011873915031618642, -0.0019903973897464028], [0.0113246812319103, 0.026512857270896577, 0.010576764186934555, -0.008558006675684416, -0.008785339415397986, -0.0031456918538828858, -0.0032271686848448743, 0.012937759056325682, -0.001997178278267459, 0.003791164396839768], [0.010588177738971907, -0.00818077341545011, -0.011824034959423226, -0.006626247527827908, 0.00995436649701949, -0.0035339016070585925, -0.007242712209823469, -0.0007792949306722031, 0.0034030895098669973, -0.00534474539146339], [0.007009079966292311, -0.0020524433688740456, 0.010930466347875941, 0.026607582233162404, -0.010520102648763957, 0.0025379626966074683, 0.0007546685640248942, -0.003914272281238029, 0.000244614544610865, -0.015025139547169013], [-0.005824989640419009, 0.009487666031299026, -0.010825132777158585, -0.009489135568311734, -0.022170553592400156, -0.014030452421186836, 0.0010085614192809106, -0.002761790240382317, 0.008417670486693143, 0.013736484512674849], [0.011133882017191336, -0.002415327662754295, 0.008826592465700122, -0.003021834498760953, 0.002947110691243475, 0.0038446884320612797, 0.011565300557393852, -0.0020417519507977475, 0.006292968963389463, -0.012187529530260784], [-0.004670536343200628, -0.00596980329018373, -0.0014570090207510185, 0.021718649193371773, 0.0002281667212374578, -0.013098854007538609, 0.006603137213169995, -0.015666312145700696, -0.0076670946670665445, -0.002717891804719102], [-0.008906969083222666, -0.010481500385710028, 0.005145639601552744, 0.01434562323062607, 0.01121554471392425, -0.0011777723422916418, 0.009978289920336596, 0.0011793767698009075, -0.003635935862720623, -0.025315477552689005], [-0.00359379984437394, 0.006081979827514461, 0.005451904271167915, -0.006938114138143824, 0.019378252282843202, 0.0036517955507644104, 0.0014004618144273957, -0.004233255785718357, 0.021710217417220096, 0.0020901350949343654], [-0.012348743780747417, 0.007196942235562317, -0.015838008981014416, 0.010415115168240376, -0.003742599399806833, 0.01035487461140131, -0.0054278623170302825, -0.021718541024175305, -0.00010462588884993338, 0.0006523517740387236], [0.00907845052521945, 0.0006431141211448582, 0.01829227071396774, -0.014963501585921536, -0.0002860176082974275, 0.0016088381482425433, 0.010966134623939259, -0.010485717667080943, -0.010233744138739245, 0.013626906427873852], [0.009376206552993177, 0.0046328985773027645, -0.01479576563672183, 0.011200617957718624, -0.016981777965014107, 0.007819156236806148, -7.55485202147647e-05, 0.004155062239724882, -0.020868118943339738, -0.0015718376870450413], [0.020081013727053707, -0.013442111779636574, -0.009441366437834392, -0.008795989053406726, 0.006382824776887647, 0.003612538793372722, -0.007138468015619399, -0.0023874489947059807, 0.009504990889933562, -0.0002848343210504829], [-0.0138025121374361, -0.018962405835279694, 0.027147993835661386, 0.013807426726664981, 0.011769427133674421, -0.007371060157617689, -0.001372292383830343, -0.0017126722743576735, 0.013080429017949433, -0.014758379280757523], [-0.007681510137940589, -0.0020807960392414324, 0.006707964812981411, -0.012473246422283528, -0.0004077760738504614, -0.005140520115542587, -0.0011358233450548605, 0.0019379013717925116, -0.0013797753814039026, -0.0064162678436772294], [-0.004941749606759162, -0.000964324531686283, 0.004333029306838735, 0.0002804610121111831, 0.009308339295602479, 0.0022372552249022514, -0.006333917633369828, -0.01079151470466594, 0.008061311448540697, 0.01751621558208441], [-0.004658196379528633, 0.007478842756161193, 0.02445847023061596, -0.008114131925349129, -0.006902102151097861, -0.006315245089888414, -0.0082643617691224, -0.003556654962799361, -0.006172987736279562, -0.00426275214108193], [-0.004293627273769417, 0.009622028236823694, -0.007495826273593075, 0.006058116982466166, -0.014767684530409471, -0.01174615350992431, 0.0002991861179797814, -0.01894656191696166, -0.005136405234584082, -0.003356272474569021], [-0.0007410536916010798, -0.006062594460452881, 0.026329907261101425, 0.01908288283720686, -0.0075088319746276595, 0.0104378169460317, 0.0006512095506231969, -0.004406810216834087, 0.005864702717949023, 0.01966363161177834], [0.004031029328536242, -0.017513243819888686, 0.0013807031223321642, -0.003111786705543768, 0.007136527899965311, 0.013398278031931846, -0.0044914475196695235, 0.015474861683166146, 0.008500482833702595, -0.002195828615845917], [0.00931543565183083, -0.013443391428767998, 0.014274549708470185, -0.020906075374993754, -0.008625309453144932, -0.003667406903624531, -0.005378561416326594, 0.004054871918619742, 0.005777207996642759, -0.016396213037884428], [0.010386961151348786, -0.004519530657508341, -0.0031994615277014036, -0.013050223886091762, 0.006311364558033011, -0.009094459359975863, -6.218819348245434e-05, 0.01886844124227617, 0.015552097677501278, -0.006328008914438422], [0.018368974364965023, -0.003853674455977078, 0.0134010215713684, 0.018117595228872962, -0.005982706368197968, -0.00744916853858459, -0.004139665628728357, 0.0034723597226166557, 0.005437888830122046, -0.009258173983447257], [0.007920387351509055, 0.0010620189308417735, 0.01327917772620462, 0.010528023665788219, 0.012056632811690398, 0.0060166415040116454, -0.009384369508949195, -0.011636236723506922, -0.007285941438822315, -0.008819325318525145]], "bias_text_embedding": [[0.04981778937263211, 0.05452071215223553, 0.07139148718931608, 0.03661066848716306, 0.05898595184553687, 0.03631377027574213, 0.05201319681863916, 0.04380586142756672, 0.060679515410482276, 0.03440657863115797]], "weights_embed_to_visual_hidden": [[-0.0034834020850844625, 0.011454726472421054, 0.0206243299809249, 0.01691265618228253, 0.0038506262579725116, 0.0026151329022517157, -0.017766161031684106, 0.008142027668665673, -0.0031246394842648155, -0.006032220408015068, 0.0013402053006547829, 0.012939349522500518, 0.0027434852161501593, 0.00273140474129638, 0.0018422078549276543, 0.01208012425589341], [-0.016844103756012297, 0.0013974685663218178, 0.012440654586172517, 0.009904862304518033, -0.01329310535730538, 0.007249479233414229, 0.005085384613853917, -0.012800839588290225, -0.007649288317361948, 0.00215517774254332, 0.005086402709650595, 0.004042327874253385, -0.003279730766729324, 0.00043609865743299763, 0.0060053697469252855, -0.0010063581389722534], [0.008164196417073727, 0.01800604354679199, -0.012547789862846156, 0.007411667468888084, -0.013946665332204946, -0.019279024252877655, -0.016488117685657267, -0.0064618159566765315, 0.009571618137478404, -0.008117119899887424, -0.014075113284777088, 0.0007163549674938214, 0.00022221130571607297, 3.242705382249054e-05, 0.008610547794564364, -0.005789171685549745], [-0.00885681232501429, 0.011930250485130616, -0.00037511442036569393, -0.007130135225699957, -0.01124772133507127, 0.0006296829965275729, -0.0018401343081593338, 0.0012106365561271274, -0.0033117123975095228, -2.9354777162605158e-05, 6.524860763744507e-06, -0.013174380647105565, 0.009717671677539133, -0.013701672267584435, 0.0038451097665450806, -0.0015711243967821992], [0.014499958332996781, -0.016251069133852658, -0.007182131002032541, -0.0014846701687354802, -0.0033116176531745893, -0.007495988660498185, 0.005223356843926219, 0.013767930028851532, 0.007185570178884329, -0.006311283436820245, 0.014833678813901519, -0.0004213806732008233, -0.008294768028224389, -0.015794611036127504, 0.0026480550707951075, -0.005296512986641346], [-0.00593689058756685, 0.013079202760835624, -0.005835424620225221, 0.021070083273236177, -0.0013495455770514261, 0.013332398858470687, 0.022343897062383163, 0.005392174808062508, 0.004497053331367324, -0.0020521812141562896, -0.010478578079885866, -0.01233444759957329, -0.005477324377194664, 0.019800576336894752, 0.00033705349709184314, 0.017947069382647896], [0.0011370713288164122, -0.014644585965005933, -0.0009408549612473808, 0.0051938244312263225, 0.01876313538538495, 0.024224606895023235, -0.021231738746464203, 2.3453560723408918e-05, 0.005608608138595467, 0.006080129779310209, -0.003295390788382794, 0.004381987000493054, -0.015114240076399416, 0.0004916328811584022, 0.0007751147404247317, 0.013650822878741354], [0.005493823806830677, -0.016436239755626084, 0.001167463360148324, 0.008933301614232798, -0.002861337047240956, 0.010954103455593424, -0.0036043314020813293, 0.011573899491947785, 0.014078763223439102, -0.004682337954269411, -0.00862306580008577, 0.01168165638978898, -0.00483980077417595, -0.005197178042887164, -0.01163618666700592, -0.019719000326642512], [-0.021247510266866745, 0.008533292811262054, -0.005277475755432254, -0.00023440770686921405, -0.00023914181808544095, -0.005311915849376089, 0.005302357424562732, -0.005869791429859767, -0.0056570309647677305, -0.006386438735400942, 0.0015351348322812472, 0.0012553804173095861, 0.0035447218697240027, -0.012855756304977772, -0.006550663498241883, -0.005160309936404772], [-0.008939799266199854, 0.00787631734779834, 0.0010112652179382266, -0.0028675222075786842, 0.003656900909610012, 0.0032575536273694717, 0.013091527138447244, 0.020812865074205118, -0.006378536097455078, 0.012006911529622372, -0.0033059619424474643, 0.0037171714959529168, 0.004207028303601708, 0.0004910288650869167, -0.005971404357442133, 0.002214566834245894]], "bias_visual_assoc_hidden": [[-4.889510639213512e-05, 0.00025699352316042363, -0.0007812576860975245, 0.0005350412329350536, 1.8313222901323917e-05, 0.000465606530547651, -0.00015071733661709127, 0.0001577465059035634, -4.1358155630529324e-05, -9.60914727984346e-06, 1.273598454331368e-05, 0.00029757443550992803, -0.0009057573364796129, -0.0003515940887654944, -8.123562364574467e-05, -0.00023242135276190204]], "weights_visual_hidden_to_label": [[-0.013488134429230178, -0.013906349335029064, 0.00726426585783254, -0.005584558776656762, -0.01427380499980782], [-0.001091946708539658, -0.006300655788185585, 0.0012288737129481687, 0.005301655800572413, -0.021258027058608193], [-0.0067688157089636, -0.002364166237263051, -0.007526494145663123, 0.01803412137909193, 0.004124006587167609], [0.010832919012946975, -0.00763539204354997, 0.008535587586055368, 0.0012597179440664973, -0.015175154337836715], [0.010336208597596581, 0.005042565471230432, -0.026010033222895884, -0.007087806080094563, 0.014255740508836393], [0.010801257413479653, -0.0019089540170959033, -0.0018712176520402123, -0.015834385593575855, 0.006065240887542296], [0.0034622749033205126, 0.007032533417587722, -0.0028036655244303523, -0.0008079792978235284, 0.014925292091220477], [0.00953939386476224, -0.005822622513394897, 0.0057400646605075736, -0.007728718850236011, 0.00889842184242793], [0.0019053520007289034, -0.013310846675798007, 0.0020955891569719364, -0.01265179011344713, 0.008069062721911963], [0.0006784316485010821, 0.0012396961477143709, 0.0013485406694512874, -0.0038997510062864617, 0.006247243362309306], [-0.016762000366444606, -0.0014201732302947278, -0.002398170943940789, -0.002285564330940358, -0.017858892506173382], [0.00017587118380604013, -0.015120052485462734, 0.0009913044145529117, -0.02228675278079134, 6.493616541573158e-05], [-0.027974630163948546, -0.0022502624564211026, 0.015937208051218045, -0.004042636549590587, 0.014660213659752673], [-0.010169825645441966, 0.004930721180043857, 0.003621289425756114, 0.003789822868540096, 0.004333157254949623], [0.01041403865801185, -0.015296903333468134, 0.0021226593879934367, -0.00035325059297922827, 0.005328564826875357], [-0.004746202222763661, -0.004996075164355834, 0.002517346923464279, -0.005378143991122727, 0.007354201671503036]], "bias_visual_assoc_label": [[0.025598668753846913, 0.015832867300802776, 0.006030909809716585, -0.02373161354371076, -0.023730832320655516]], "input_size": 15, "text_hidden_size": 32, "output_size": 10, "visual_assoc_hidden_size": 16, "visual_output_size": 5}