{"weights_text_input_hidden": [[0.029216325918178906, 0.016757809768941524, 0.008417343187201188, 0.002301931649540935, -0.014359747748377841, 0.013930150689394068, -0.007178141679838752, -0.007648628438756452, -0.0003188061031536246, 0.020326895965404147, 0.005373158190652198, 0.027296447839520385, -0.001647570630319341, 0.019792740974294103, 0.014122922956122804, 0.00010754707328296545, 0.006613399834607438, -0.0030836539382482703, 0.0038175664499735655, -0.003248070115094209, -0.0011614910758267268, 0.008186734805763261, -0.0085828894687618, 0.019946383954508328, 0.0010926522254267722, -0.015709617375490016, -0.0033292886729539583, 0.0007241486573692238, -0.0027188162657702628, 0.007075072106892354, 0.027963349375244383, 0.017293111278419707], [0.05270822631969782, 0.017649454880934504, 0.02242133983467565, 0.011473648587733046, -0.0064732629743330305, 0.009898197962872888, -0.006777601404334002, 0.0026979164526137536, -0.013778134657111309, -0.004695898780157162, -0.012826154178359802, 0.01661252127182411, -0.02388224285223361, 0.030196359548876776, -0.005870101025822032, -0.002333706135908827, 0.0035254215054081133, 0.023888514605346016, 0.015736232893856256, -0.019725571923354657, -0.00960737232542647, 0.0013614235793387994, -0.0024222920336557444, -0.01218030813392401, -0.02180183958367925, -0.039627184432413115, 0.003917858342781758, -0.002621025214509443, -0.018499219120091517, -0.012047573708700944, -0.0045112505714007016, 0.023047873802495296], [0.03234892283183849, 0.014527383897269902, 0.028318411340931486, 0.013061636106976218, -0.021166299538212717, 0.007700491927393905, 0.006228345103722925, -0.0105567633394473, -0.010218070908707704, 0.005450818749254334, -0.003901392554958631, 0.016099481351130523, -0.00040711605752236747, 0.020268847665296248, -0.00256312869059205, -0.02968529031633158, 0.007377550879587234, 0.0009156345314140362, -0.007112283160699366, -0.003574574149982626, -0.023116685427073007, 0.028185894983276418, -0.010496634513070952, 0.026318033300894033, -0.006862722749730455, -0.021502734693051608, 0.009740888057893471, 0.0060743686122880615, -0.015627829334415474, 0.005910581213796913, 0.017232006710994487, 0.014037859578407455], [0.039172396088207766, 0.027037654741242263, 0.001972717202347651, 0.01292800860759166, -0.017606578704437454, 0.022470802898302476, 0.013495247017560887, 0.011854945809258622, -0.013787713179459, -0.0009001541555018691, -0.020019241156582254, 0.028387257709659216, -0.008444305818582387, 0.026574051627801423, 0.0018364780196131153, -0.014515931467406375, -0.003071470897849301, -0.01574696807131209, -0.0013350180904582738, -0.0008791589598405382, -0.0014832829774179615, 0.0028866911481531966, 0.010279474790269437, 0.0005294121936880885, -0.02070149122735287, -0.024208650594990277, 0.004611695499875383, 0.0024571274394731154, -0.03108102513164678, 0.019787557601205305, 0.018444746716083003, 0.012417090257338417], [0.02519938502595172, 0.01676333517521319, 0.018328641271904658, 0.013762061242928883, -0.008165924885694438, 0.014533370577795381, 0.00016354995375476657, -0.0019435850701729775, 0.015079159675114747, 0.009343287171816775, -0.02301264242653449, 0.03312423850688648, -0.013110708441873727, 0.013061352190027022, 0.0062818646322474175, -0.00577402332466001, 0.002499818223921182, -0.009569231238336402, -0.002242864958054878, -0.005725891353582044, 0.010409681603416288, 0.016601293423962573, -0.0007266692778714583, -0.006627354966668416, 0.006751017735792286, -0.040066601033826636, 0.01569088721602052, -0.006732104037356434, -0.019374385523520558, 0.009457081752896392, 0.0011194727339709151, 0.008903084469209574], [0.03930230663924524, 0.03642821158039223, 0.02903009553761683, 0.024748404026626227, -0.0012626177397380733, -0.007112615696363445, 0.01754229653377443, 0.003527864093195313, -0.009815478552767544, 0.006320986938621518, -0.0068280577091265025, 0.0030345101080150563, -0.03404810440718238, 0.0340616729054447, -0.01844243225029042, -0.0005574139377459838, -0.0024292914593893574, -0.01055040243188021, 0.006338036661796291, -0.0028579991655236785, -0.02760993744590922, 0.013557260101390167, -0.016701953354619013, 0.00917423795482396, -0.00498242539135903, -0.02660912744644477, 0.009926314867413834, 0.0020225037008455593, -0.014927934998409, 0.006908207665620407, 0.01055571959426445, 0.03386874590617029], [0.04260847424700617, 0.041093212704051196, 0.007760538383776302, 0.014319662687581797, -0.014974265838671317, 0.013860579106144239, -0.0059394881184336255, -0.01447229210827048, 0.007504235518601728, 0.009222338059526276, -0.031835343316121895, 0.026038691064345556, -0.04353100344174577, 0.04762739969506316, -0.015263380313862243, -0.015172548658978203, 0.022515689659319205, -0.023830143316868294, 0.0031697032476237603, -0.014134926095249814, -0.012941304937792431, 0.028123479075429905, -0.022927844367496855, -0.006739594107280813, -0.03001175486383175, -0.0280229242828677, 0.007361484798843248, -0.007068668118518533, -0.025641607797828734, 0.022775549805399708, 0.0034398110775129037, 0.0178835340286081], [0.023501912982382526, 0.012409937979197847, -0.002278853331489847, 0.007997964015940372, 0.008829581872426624, 0.029543929609391825, 0.012535277569550864, 0.002772031344295379, 0.006998719838523398, 0.02053027685420627, -0.0036627280376293537, 0.010369684755064841, -0.019650168184015226, 0.017218442408382106, -0.016494089736541682, -0.0012912164588471022, 0.015098213129508733, -0.019515118465189742, 0.0015937475862067834, -0.02593025729803735, 0.009176344276664632, 0.020989067983364394, -0.01514518837062037, -0.002515120817040917, -0.018925892400055006, -0.032164541078705984, 0.009695090193877652, 0.014528773220869186, -0.021322655928867097, 0.01544002656175936, 0.03505060760340096, -0.010697738128682582], [0.03187595837595835, 0.013620829036957714, 0.0290442727096252, 0.0010226124004585582, 0.007504123094295809, 0.02387942207280831, 0.00953010721244142, -0.008454317192121395, -0.004844713428817087, 0.007207091955334253, 0.0015374808849773474, 0.031400762502909706, -0.01049824736804765, 0.007057594355957995, -0.005101707184897442, -0.013471301530287224, 0.018572522341566144, -0.01812219883567993, 0.0039047436043966326, 0.008596349160877476, -0.009273982307709164, -0.0001645759687481503, -0.005809241453940912, 0.0036646355103587525, -0.0183697091635661, -0.022951689397040075, 0.016041866910044836, 0.005298190752165431, -0.019049926274039584, 0.024138454899085154, -0.008669463011844727, 0.013335084914585064], [0.027643146161779958, 0.008205556253695694, 0.0034110491510520122, 0.005642211066439328, -0.013377223063716867, 0.012012529678681093, -0.005380176853355982, 0.01270604106796807, 0.009341934374018843, -0.0014117962282763962, -0.01798038856854401, 0.006680323715775795, -0.014801520779115281, 0.018195157888098668, 0.014158133507948938, 0.0067108910171176355, 0.011106384568488711, -0.021225574712332995, -0.002153237080991432, -0.005730957209671248, 0.0033606795361222764, 0.002828900801660875, -0.019520690768427128, -0.00734995230007402, -0.027165197455359766, -0.0003131238398906704, 0.015075491216721375, 0.014799047595930684, -0.011828952280124108, -0.0035455295392539474, 0.0022178714877422743, -0.008951516093500212], [0.04889563417842689, 0.03112067554366176, 0.0025486732657928404, 0.024839258307170143, -0.019479475709239868, 0.006509095633463601, 0.012848140682515847, -0.013649979430332453, 0.012975776831209694, -0.006979598466722825, -0.02217690515467533, 0.023607542332118085, -0.013392070656971936, 0.0203327763089075, 0.015139404800192465, -0.008896949927171199, 0.012562265480726555, -0.004095840102532919, -0.002885677525589729, -0.0013137469918940326, -0.011280792616290532, 0.014080359802353367, -0.022592986525905336, 0.01938460415751755, -0.004353261432312731, -0.025962774146305843, 0.014796643940088762, 0.0031642199407763095, -0.017924455902648972, -0.0012143288795532072, 0.01777475306845719, 0.015563919064829557], [0.023038567344575375, 0.0106306014382072, 0.012666023744514808, 0.01975501598061404, 0.008386140960984952, -0.0014254093560646494, -0.0017684174779095522, 0.013091519546254085, 0.00535936198183176, -0.014375108340227882, -0.002517691420637475, 0.02500633255443262, -0.012679264561398564, 0.02252941954830388, -0.0033062231738556548, -0.008758572502062746, 0.0007024697421454677, -0.0017278815406931445, 0.0077339619036451935, 0.005460809816640059, 0.005463532795289025, 0.00578714324416503, -0.0070988962039927874, 0.006274524433144673, -0.013935991418782113, -0.01602979792259213, 0.015509390297330236, -0.01962565815022076, -0.01700823294710266, 0.014437500335773713, -0.0032157362873563803, 0.0040963617970048265], [0.0015507507774777517, 0.02319621005660471, -0.009830412021001227, 0.009433332451649599, -0.008216652598469518, -0.005352126487799087, 0.0008278530982718711, -0.009639510043674167, 0.017397050105773457, 0.004675554662758218, -0.00803999255092393, 0.008237174126386177, 0.008332824162258567, 0.02021645025609962, 0.024656656352674843, -0.001654289331790242, 0.004732785869625339, 0.0122415569566279, 0.003072957604326389, -0.001552564375757871, -0.007124212641517405, -0.008623142253425715, 0.004296001244771015, -0.004752002127706353, -0.04149808392809492, -0.01252079366637945, 0.007895360991099892, 0.003158609877298489, -0.010540678297832059, -0.0007660177875803565, -0.00345530267636894, 0.029801502252978937], [0.02645376039979449, 0.03299315137709756, -0.0008524958981875948, 0.021121932913749433, -0.0058753106071042106, 0.015151664570682052, 0.0040822861924024725, -0.0020616691580575414, 0.008795721273531048, 0.016306567034389867, -0.023318853450339894, 0.02732528936383152, -0.015968572743810503, 0.021279040636829557, -0.009893906044450708, -0.004430574262870974, 0.006042558433466961, -0.032467280274966204, 0.028870790769104735, -0.006689085184181783, -0.014384892524488773, 0.01638383610236135, -0.010032003887114345, 0.003990682603344041, 0.010893849842476268, -0.02653688037048268, 0.02293540797631776, 0.009218722668389166, -0.039884647355132946, 0.015567143219037412, -0.0002717028728948983, 0.013734876176876378], [0.02429502179847414, 0.01729530998348504, 0.005298678118054524, 0.006998950083339881, -0.007140463254480306, 0.000747611209608243, 0.010137891312550072, -0.007678649865676248, -0.018765128312296993, 0.018557682670257147, -0.012597780042146857, 0.02116907110751779, -0.012600045400593706, 0.031149921407505263, -0.005418442825303735, 0.020097772618466143, 0.0013098395924182674, -0.021611082260186286, -0.007154128782431572, 0.006710422396598677, 0.007315212229375944, -3.2363948550314705e-05, -0.02007524842075444, 0.0007396109138515939, -0.009125546341524548, -0.02611441405908536, 0.010602533892335224, 0.006138373902229132, 0.0015123397264344028, 0.004003176833795438, 0.029524656222652, 0.014443141222745669]], "bias_text_hidden": [[0.05045864136162144, 0.03809606269480748, 0.019573063351289798, 0.020465678613230343, -0.008359281008216642, 0.011714125010981753, 0.005378900202588259, -0.004657900553418819, 0.0006776280709712498, 0.016126139086258155, -0.017923075277826727, 0.026738008616791036, -0.024155639099632063, 0.032028064212769165, -0.00745071306583668, -0.007663399248800897, 0.018237609561970063, -0.01722155852666965, 0.0078084163315376666, -0.009844869529318215, -0.008944891768080146, 0.014786826981645577, -0.01624902180541271, 0.008100167241503291, -0.015358676120609547, -0.038348931985572245, 0.02484968196280861, 0.007066564394457675, -0.026581152128081327, 0.013487940726018041, 0.017258284895915025, 0.019205618049841076]], "weights_text_hidden_embedding": [[0.01910299734459587, 0.06011007620297411, 0.03141500273905656, 0.05652922302272155, 0.04391147410283143, 0.036424864494333166, 0.06101926800245066, 0.03915295384866535, 0.048519611059454716, 0.0191282460106498], [-0.009622854108677017, 0.045839395925460685, 0.03972534290465151, 0.02636194124113984, 0.02742346097017301, 0.03600717790178039, 0.044163059468081335, 0.03507268343940125, 0.020621924798972346, 0.018029119820071996], [-0.015380609503267646, 0.019135669803747406, 0.021589775835888256, 0.013408350548608476, 0.023682874485052408, 0.021498807865240638, 0.020169205225624546, 0.015776692941385884, 0.018292904490472824, 0.003206823788815732], [0.0194986458292362, 0.02630499638219905, 0.009248971460219845, -0.004916196178753515, 0.028868102072275373, 0.013313039000141184, 0.03825358252391208, 0.0064312342639088705, 0.01091011355631443, 0.02191174211927849], [-0.001773936632990946, -0.0042045431540906125, -0.01560730031307228, -0.002187053872909296, -0.0120148399071757, -0.028982765744270052, -0.0189885485801439, -0.014421602753014136, -0.0028233742570938306, 0.016021142124865932], [0.008171739244957728, 0.025659111386945706, 0.0032682147743178045, 0.018288362819189614, -0.0015279746055028574, 0.004897414737269205, 0.016955224709934543, 0.02591000367051399, 0.0060558959998184845, 0.01124782548490582], [0.0034027465618956076, 0.017831237440179, 0.0034036925503508303, -0.009140802678570679, 0.008844111279838949, 0.0038814812225646694, -0.005043598295529527, 0.003829523081506806, 0.009738088058540928, 0.020525402035721438], [-0.002514171673311418, -0.02120325757463687, -0.0033912093659980522, -0.008300451360634516, 0.012644781402351776, -0.000552125956000957, -0.006058716111096959, -0.007337423410001332, 0.015165304461134227, -0.0026247621167978983], [0.017331255506786006, -0.0001846082285306752, -0.003623683406661614, 0.0024817079204240353, 0.008133517844911538, -0.00480426517133529, 0.0020718472548009546, 0.0001968909053467147, -0.011056167458414125, -0.000675336287949246], [0.014489948966048362, 0.03273537922137124, 0.014231056441661614, -0.003926317861876359, -0.0033398339086360375, 5.6207638107656686e-05, 0.004188818801507368, 0.018271439499664595, 0.0015043242794229462, 0.00632202576672815], [0.00471662320328818, -0.029445556946181402, -0.022927583385317155, -0.020351971042513822, -0.006702121409527649, -0.01370225289312393, -0.02873820384708131, -0.014314896569318097, -0.007438127561337413, -0.012596799465953538], [0.021174484031533918, 0.03257054600314672, 0.031209245961669657, 0.050521232493022344, 0.0168108251449666, 0.022713614043824035, 0.03539509408327966, 0.021231337037057225, 0.02039152556582622, -0.0015010465800240325], [-0.013905858946192685, -0.016112957564035312, -0.025323180560493375, -0.02613288203568357, -0.04185703173201974, -0.028061602920234446, -0.024527883581431827, -0.019694513548226544, -0.005083748008768711, 0.005055629757270702], [0.02668892846895506, 0.03577210326021625, 0.032041368141117535, 0.023819591025218457, 0.03290103811926113, 0.02669245959265334, 0.05049772240994975, 0.025712136198731864, 0.028851538770920872, 0.0037559424858056053], [-0.0034298301038005606, -0.009685297898506714, -0.00401202677825661, 0.020488969736285837, -0.001656176525273379, -0.014262022437866296, 0.0032678997816677087, -0.01652373479048739, -0.007169092283249764, -0.0007542012360369232], [-0.012226375258696427, -0.02410081142110716, -0.003364641444286566, 0.005105836824247306, 0.0012369156389096133, -0.008630437178472177, -0.0028185359587605888, -0.007671917932757298, -0.010108050130808443, -0.029033292886960226], [-0.0003493825828417626, 0.014564472703743905, 0.009512682313157316, -0.0006684673765302207, 0.026617040959580156, 0.007595884325325395, 0.010915308131739685, 0.002249160986505506, 0.02678205030715253, 0.006535499842179162], [-0.018331815450415272, -0.006074733159746702, -0.023830267570931204, 0.0006119486356990632, -0.014672911312959757, 0.002424426411088576, -0.01975653847159756, -0.031935443177821494, -0.008378556690633195, -0.005587609221918936], [0.010267853838793674, 0.008720939239409515, 0.02224557928657034, -0.010816982785767338, 0.005152590531525624, 0.005501991603162965, 0.01776029646917781, -0.006242402048962513, -0.0071232821514928685, 0.01477801881349007], [0.007437377717509455, -0.004000451555393859, -0.019758286436193834, 0.005389087039706023, -0.023262646193800113, 0.0038342733026855845, -0.0077973964889767435, -0.001913563890014459, -0.024465370789992148, -0.003626199067313684], [0.017757214367840023, -0.024126039524897572, -0.016006797954520396, -0.015279588502911957, -0.0011581389896250392, -0.002712707403084096, -0.017181856114361984, -0.008554558110446328, 0.004314037268409162, -0.0031031948669158417], [-0.0071094887495899385, 0.00010352750247219883, 0.03956912538150011, 0.026590213994898585, 0.026124640438954377, 0.0036756188929595447, 0.017467706966051856, 0.01173266920944583, 0.022575408885820894, -0.00936446283753806], [-0.014393081756361921, -0.01570431992347511, -0.0016609873484327994, -0.022252154140021043, -0.011486993314572057, -0.013736862740924961, -0.015806593314054578, -0.008584951492998937, -0.009958183811076764, -0.01281124561471563], [-0.0012828488736363382, 0.004290758687039616, 0.008711661281855493, 0.004534445542671854, 0.013282509803595093, 0.0065706692134415495, -0.0008134152380702504, -0.005812798955463263, 0.011275455476539393, 0.019478932937536532], [-0.01305189006104813, -0.00897930606901516, 0.014724859508701352, -0.022135298211842663, -0.020858889642173955, -0.016978518047163507, -0.025765470161362793, -0.01756082409455855, -0.01907449961558252, -0.016287565260329148], [-0.0190173860369745, -0.032969811725824576, -0.032062282245521614, -0.02268752342706292, -0.04763184681151286, -0.03549288051142989, -0.041108377425641454, -0.04874662633932469, -0.02808715557161254, -0.017925581344873355], [0.004575883980127552, 0.010314807728659905, 0.034803774827718875, 0.030164638951046287, 0.005372494797420214, 0.019133575427345707, 0.017189023529006905, 0.006957348287893071, 0.015000087225616224, 0.026524061891702824], [0.005165825250641998, -0.01564774788960551, 0.002600009593355326, -0.000721524134384467, 0.008736777396117038, 0.014789230363151372, -0.0029482834893280354, 0.017968595751462396, 0.010434271266496832, 5.4686730488007504e-05], [0.00045272990176611856, -0.04346235015327657, -0.002756569808368974, -0.04107919126294944, -0.031242849947112045, -0.019753538401313702, -0.03392662437598773, -0.01636864762479598, -0.009663331692991382, -0.026324898865454773], [0.016234184588471083, 0.009569938069788, 0.005528474510710132, -0.0028155081060711185, 0.01755665005718275, -0.0006351712836598215, 0.014540112549294095, 0.02938862233418009, 0.023849563264024168, -0.0006188089746477843], [0.026741175580238672, 0.008231509728813464, 0.022442201798147265, 0.02882252024220713, 0.0040718826774038775, 0.001044547448197332, 0.008895976243192112, 0.015773865366533576, 0.01368626172167492, -0.0028562348820995345], [0.017093275472998735, 0.025745675834646924, 0.027570005871220084, 0.026859609506712095, 0.0312475521866238, 0.020738624391019676, 0.015298161599327313, 0.00505789399465966, 0.00715693067728588, 0.000709236281290813]], "bias_text_embedding": [[0.2472677662149179, 0.392519991079071, 0.3152982140942171, 0.30039998679189156, 0.3218440803145611, 0.29807531123018816, 0.36368388506610244, 0.3267123964202231, 0.3112288563393556, 0.21524861300120537]], "weights_embed_to_visual_hidden": [[-0.003948018578843161, 0.011805632061498332, 0.019911096096293587, 0.01795854651569971, 0.004548670261240228, 0.003561967607499643, -0.017894702067469452, 0.008753714127434208, -0.002760326353004677, -0.006108749142237766, 0.0006994414075752291, 0.01355191109562213, 0.000626042949231198, 0.0018090257621166503, 0.002531519394252097, 0.011788704484678324], [-0.01748903454393047, 0.0018661622988948873, 0.011513533720279558, 0.011315028763226436, -0.012342741951769098, 0.008523301122371674, 0.0049169565057030976, -0.011970006263041497, -0.007147687981756273, 0.0020467877624024745, 0.004206667053414156, 0.004861451439011141, -0.006125494679183694, -0.0008085097238812907, 0.0069480454905848366, -0.0013905329395306433], [0.007565151563215328, 0.018460057043286193, -0.013473523483856957, 0.00876053325760921, -0.013053955736367771, -0.0180586244193128, -0.01665526323393599, -0.005677068741864877, 0.010035517771904907, -0.008216313616677249, -0.014893920355680454, 0.001503505226579188, -0.002502364797605492, -0.0011537786928739583, 0.009487016653259274, -0.00616629110099922], [-0.009377736493816484, 0.012308998152556413, -0.0011252133108464748, -0.005990999637399401, -0.01047896678261031, 0.0016590759688920147, -0.001976102754714834, 0.0018817042563036232, -0.002906843970557418, -0.00011674341920669593, -0.0007041702981890676, -0.012512429952408989, 0.007416980518706057, -0.014707476257641898, 0.004606616825020833, -0.0018820207477672703], [0.013954266473586868, -0.015854571497492292, -0.007968545508570759, -0.00029207669210744525, -0.0025062768297848966, -0.00641774463430829, 0.005081028217331647, 0.014470181760181474, 0.007608735301699144, -0.0064026571380276, 0.014090119487802075, 0.00027150051832322737, -0.010704631991870396, -0.016847826343114568, 0.0034442964209016242, -0.00562251667109611], [-0.0064954446213034865, 0.013491009768748344, -0.0066627646162160555, 0.022304622299487147, -0.0005153086973392739, 0.014450681897331204, 0.022195290973781378, 0.00611760941936075, 0.004931942361897083, -0.0021445086558389355, -0.011244319953294899, -0.011613809089962174, -0.007980458461047158, 0.018709028959425174, 0.0011590580609816827, 0.017605593270351706], [0.0005464555410928997, -0.014224970067824432, -0.001758878707327185, 0.006464899004677931, 0.019630480043987646, 0.025372853838854466, -0.021380259841800857, 0.0007773094250905228, 0.006068195343500508, 0.005980507409101452, -0.004100066444104647, 0.005118906888412545, -0.01768209731824731, -0.0006333901854511339, 0.0016376885259519263, 0.013308316211287183], [0.004928140887877895, -0.01602238080050197, 0.00034460114203418253, 0.010177000647887754, -0.002022591113087217, 0.012078388115329465, -0.0037533757270800986, 0.012306452689927388, 0.01452048792046285, -0.004776862275852213, -0.009397895905245136, 0.012405966679273281, -0.0073534616977816505, -0.0062956303928793774, -0.010804383577558406, -0.020059319664335995], [-0.021821054866218763, 0.008955745794503226, -0.006126782006390387, 0.0010323464323564063, 0.0006181109377196378, -0.004163946183975924, 0.005150064269236468, -0.005125327039177603, -0.0052108943627976, -0.00648106480231601, 0.0007490818756150203, 0.001994920866164113, 0.000974586441926663, -0.013976267539307858, -0.005706965752253163, -0.005511040543173561], [-0.0093228739908497, 0.008145005107111088, 0.0004841303786201218, -0.0020491851071639455, 0.004231766464872513, 0.004001385720192038, 0.01299833570304042, 0.02130168752954194, -0.006079390480769932, 0.011944088524453623, -0.0038322292294950813, 0.004194952866954924, 0.0025335460106050713, -0.00024002093619441731, -0.005404675042720142, 0.001991424535697597]], "bias_visual_assoc_hidden": [[-0.0021696521704668483, 0.0020592905382263555, -0.004724391121680427, 0.005713672642675176, 0.0032421157832286072, 0.0051626169522193035, -0.0008582036618495364, 0.003060381955514055, 0.0015678165317604606, -0.00034905660360749676, -0.0028799719665173846, 0.003343804098163865, -0.011341816146613982, -0.004845782201960167, 0.002993334900452578, -0.0017713287071548399]], "weights_visual_hidden_to_label": [[-0.016296437968648853, -0.013313279118987121, 0.00788449875967657, -0.004787037932572076, -0.01347632542235978], [0.0009166784366997911, -0.006667139198752814, 0.0008191125298579906, 0.004685441705075762, -0.02187419351469359], [-0.007940185224312515, -0.0021280824013094083, -0.0072705328347664995, 0.018373792979548637, 0.004463659355209556], [0.016200940401533415, -0.008722272441659459, 0.007373558563099285, -0.00029988278387094137, -0.01673466557742014], [0.00936281794716677, 0.0051776881615087115, -0.025837670335771216, -0.006754836663014064, 0.014588676164782741], [0.013941445724610278, -0.002616317789328472, -0.0025960752367579776, -0.016688385224319077, 0.005211273564105246], [0.0023645766700244814, 0.0072371850586439536, -0.0025795468563808554, -0.00047350497736836655, 0.015259745694955609], [0.011893679334276654, -0.006336925586061041, 0.005202250834601335, -0.008379818358168095, 0.008247352779417978], [0.003395319617305029, -0.01361595434531154, 0.0017658562403431426, -0.013079364211572972, 0.0076415097896040006], [-0.0005449476047470691, 0.0014570515630032647, 0.0015922807807737854, -0.003518595247324182, 0.006628371329983784], [-0.018521669160313437, -0.0010553914845319286, -0.0020084199526893397, -0.0017829830096830492, -0.017356337770576113], [0.001732150269234447, -0.015451534833427528, 0.0006421008239517899, -0.022724559962086315, -0.00037284980015178984], [-0.03185230961364275, -0.0013928369347457432, 0.01682464898012314, -0.002976210204936172, 0.015726600314212035], [-0.012803978283078778, 0.005495866107644522, 0.004215488399509951, 0.004527242697188416, 0.005070546162583613], [0.011162241873718936, -0.015463972672902122, 0.001941316976139856, -0.0005531480299519548, 0.005128670799428569], [-0.004855660165275666, -0.004975574684501897, 0.0025388166273692665, -0.005344399778524093, 0.007387945217657484]], "bias_visual_assoc_label": [[0.3180866611770729, -0.021570605913648587, -0.04400142037525592, -0.12626245391020158, -0.12625218097796692]], "input_size": 15, "text_hidden_size": 32, "output_size": 10, "visual_assoc_hidden_size": 16, "visual_output_size": 5}