{"weights_text_input_hidden": [[0.03456552552485391, 0.020487360517925473, 0.01036118772472834, 0.0054223205271773, -0.01598517912503425, 0.015464567113229168, -0.006505123155353082, -0.007896990051979856, 0.0002695859745131862, 0.021304562618553093, 0.0033542822572641432, 0.030734855058935313, -0.005059948500001934, 0.024095869492840663, 0.013716633540026961, -0.0009497299118606792, 0.008197905925782288, -0.004876987012528631, 0.004894079959476027, -0.004079052397665194, -0.0018572848283768808, 0.009771906108653512, -0.010581186563310802, 0.020655182433573553, -0.001472018750714995, -0.020381195313300828, -0.00143263373238402, 0.0012806438722245393, -0.006177057729937623, 0.008730367651150466, 0.02953524666828722, 0.020142305063077518], [0.06493892512133755, 0.02478592793155756, 0.025557637075607854, 0.018255524566652907, -0.0085558729457008, 0.013318219779532228, -0.0050964042826146805, 0.0025122875457871097, -0.012540998801284634, -0.003795366134723378, -0.017200381795663803, 0.024652344617744907, -0.03012873915818053, 0.03921051897002532, -0.005552345784182596, -0.0059739574886546725, 0.006524393268044451, 0.021367681260204593, 0.018111578631558795, -0.020601245798843426, -0.010136841165276132, 0.0038653891788263985, -0.008252610697585913, -0.009467990087519522, -0.029209082081080213, -0.04882985569014566, 0.010509873589191136, -0.001229648410814495, -0.026743848363236095, -0.009737418622018306, -0.0003617436197513882, 0.028928226837663197], [0.039019849323056695, 0.017685640320751664, 0.0293784905189589, 0.016664263278844862, -0.021776127077126898, 0.009322420023411661, 0.006926594712652555, -0.010517796549347386, -0.00934131069870234, 0.005428115451177673, -0.0062250793157159375, 0.021051525373347892, -0.003564072067728382, 0.02521393149928792, -0.0015536789767082624, -0.031850752797495725, 0.008700475964446838, -8.128761667067157e-05, -0.005490520812021295, -0.003768334179510196, -0.022964070637576047, 0.02968624531179417, -0.01416268023703134, 0.028194180978378117, -0.011131549107210417, -0.02584634198309648, 0.01449614883685705, 0.006706659860829557, -0.019945971066091413, 0.0064949794908979955, 0.02029698120589434, 0.017487845169591617], [0.0488944981768943, 0.03385414724528457, 0.0058775951610244345, 0.017460236360518477, -0.01899376003120576, 0.02553739067115549, 0.015045313886925411, 0.011424276169950754, -0.01358821598704305, 0.0008512552818035268, -0.02404378838876319, 0.03423824415906426, -0.01317506022721724, 0.03314792654417041, 0.0018470130159448353, -0.0164211855138198, 9.617252613367107e-05, -0.018706229107931443, -0.00019016706636974557, -0.0032512031192642424, -0.003647214697588612, 0.006575396518924659, 0.007137097855437693, 0.0022531722350069817, -0.024620497955341065, -0.031642411379121195, 0.008367717089850174, 0.0027361131458364532, -0.03766501430549823, 0.022609723205602752, 0.021163227112463764, 0.0167073929726315], [0.038125526661502346, 0.02519999376413912, 0.02267201330984747, 0.020926720690864486, -0.010545044493497486, 0.018202590359491008, 0.0020261311385461993, -0.0021996025583131055, 0.01603318721908964, 0.010962661957173964, -0.02801328513668165, 0.041197076337153186, -0.019919401320061432, 0.022611045909351726, 0.006337466222077869, -0.008841164491467313, 0.006359933429142518, -0.013201825473123078, 0.00020096841003770357, -0.007977732337786243, 0.008766034649750292, 0.020490134290774214, -0.005834598982778236, -0.00410475851139763, 0.0002014990100123195, -0.05021499985112999, 0.02150820830101514, -0.005761221195510541, -0.028011664470213273, 0.012756876942794917, 0.004992873075184183, 0.015015169320936524], [0.04989905744624517, 0.04265689071952992, 0.0313915861847455, 0.03136759937513448, -0.0033519352524225836, -0.0041464356567545305, 0.019029157695639995, 0.00335979249971447, -0.008583613048970857, 0.006783261300030043, -0.010691671969972288, 0.00993237301592816, -0.039424038232487586, 0.04217659708912588, -0.018321538541908516, -0.004321199183415852, -0.00014525947135788636, -0.012520605877721882, 0.009028534418168322, -0.002959375311849322, -0.02761534729107058, 0.014793487023961445, -0.02228307213135364, 0.011685008699434484, -0.012274722962467271, -0.03477785007678163, 0.016278124440938686, 0.00357199090361622, -0.022219433932029128, 0.008536965995612482, 0.013920789499093745, 0.03881189393031778], [0.0561624671892839, 0.049796325098131165, 0.011571415349875385, 0.02311897836537204, -0.018034825103406104, 0.01754705363742002, -0.004115007209079301, -0.014709193630026094, 0.008983596218768196, 0.010358113916002094, -0.03713813487554588, 0.034719761726139525, -0.05088845240415731, 0.058405593035278404, -0.015257179743941944, -0.01922237021423243, 0.026002792038791103, -0.02740901030979422, 0.006986752502336088, -0.015434423877908967, -0.013772846575113693, 0.03095525734958244, -0.029212342628583136, -0.0038450692837922397, -0.0381874719794161, -0.038949403964076604, 0.014674219763336056, -0.005527511126235554, -0.034723736305866046, 0.02557791139151329, 0.007527246678308778, 0.024393671844985403], [0.031389846404669554, 0.017535777208775572, -0.00018835910613359882, 0.013062978159359903, 0.006823311744196061, 0.03200822774880861, 0.013738625194753901, 0.00243788903074831, 0.007908073749945451, 0.021344898994104678, -0.00658340484282554, 0.015225160266435219, -0.02393407067312531, 0.023359478183536623, -0.017023281984393214, -0.003993473036462632, 0.01687398888907085, -0.021399207271859805, 0.0034663393692594495, -0.026038329445905138, 0.00891056195943589, 0.021723657622407726, -0.019018202691998432, -0.0010206851866900906, -0.024224711950100286, -0.038819567720421874, 0.013627182680812911, 0.015812652090546827, -0.02683894373332021, 0.017173385471897888, 0.03713799538966476, -0.007119764689038672], [0.03769280164705404, 0.017624016117419657, 0.031364485942734326, 0.003762006464942718, 0.006368306343809727, 0.0256371760816953, 0.010473932244890984, -0.008632494426520542, -0.00463121503732594, 0.008186442831083263, -0.0006443027303550411, 0.03484468279267122, -0.013589131960800182, 0.011057085531461584, -0.005376523601481529, -0.014627215006102277, 0.020492598780587762, -0.019679008832468946, 0.004407922205498435, 0.007399654545753923, -0.010297497480118514, 0.001716546693596524, -0.007801090836843698, 0.004623527322913524, -0.020993560458095216, -0.02758171350305967, 0.01800836710393125, 0.005717534476752816, -0.023009020705701135, 0.02587631073542457, -0.0071792813586927995, 0.016030069055548504], [0.03905382546926349, 0.015127659171392771, 0.006827603827349711, 0.011434581518647026, -0.014117709025341993, 0.015207319248408933, -0.0036755068332796166, 0.012620682207979227, 0.009779480182126935, -0.0005993016490647813, -0.022655490337917014, 0.013989795838426872, -0.01955175581986571, 0.025934270037057804, 0.015347880366569637, 0.0035657044640682823, 0.014322189839184745, -0.02375682724448768, 4.432305634819594e-05, -0.007792569804689679, 0.0018540208085719313, 0.006529262192953417, -0.024342195992694878, -0.004384436274621055, -0.03300112504561736, -0.008034941878176338, 0.021767876072014063, 0.015198094687326073, -0.01955368184663921, -0.0015564743606926762, 0.006093730940962472, -0.004026256976799019], [0.05933679717463731, 0.036619015902443486, 0.005095070758229285, 0.029845905550910833, -0.020779457862384117, 0.009174022139047775, 0.014158685832702956, -0.013615402004110832, 0.013984151160229259, -0.006456736728762593, -0.025670781733913926, 0.030838226762664223, -0.018614859874498076, 0.02770139527545054, 0.015970368399502884, -0.011696609954237191, 0.015200650703778205, -0.005794403360637625, -0.001366228533148692, -0.0022480161215472087, -0.011633847975799774, 0.016826277442288, -0.027572728715339622, 0.021889861202868892, -0.010334588895091057, -0.03316937158577802, 0.020627552550639295, 0.004136945622335806, -0.0247809853933604, 0.00048062948132111865, 0.02189340528785123, 0.020896107717127986], [0.03157646855777819, 0.015192316510505772, 0.014227017995802498, 0.02515459592427236, 0.0064164135470497425, 0.000766655739747225, -0.0007054027014793718, 0.013092638366450826, 0.006704880734163099, -0.014194230691468196, -0.005255207041514465, 0.0308243914150487, -0.017445245487262246, 0.02932290466066516, -0.0032598063057488144, -0.011779625361893021, 0.0024308825690973145, -0.003094768391349765, 0.009854874289033129, 0.005775820390987803, 0.006041415884594218, 0.006502361534157251, -0.011913936773196802, 0.00825608687838085, -0.02020023237422797, -0.022700109666406648, 0.02059974795247014, -0.018083278475037826, -0.022742116222678563, 0.015691659744855715, -0.00020161481484965303, 0.008486147183928396], [0.008733556378555734, 0.02750100752035589, -0.008598201336272255, 0.015189365881877647, -0.010708956198292213, -0.0034877784740430175, 0.0016919401390567597, -0.00974306759116446, 0.018838316793338205, 0.004853675435421686, -0.010531410891426929, 0.012994926570685508, 0.0038546326629914627, 0.026677462977238615, 0.024179880619965868, -0.004554596334691771, 0.006006045379879185, 0.010681920808580464, 0.005834132470609572, -0.0008696721727324891, -0.006391374096638996, -0.008762127911059321, -1.1815291399174001e-05, -0.0032258950928102962, -0.04737729545373523, -0.0188940532715355, 0.012296234485893438, 0.004815060751058905, -0.015413875036289914, 0.00036144539082643215, -0.0013305165820818481, 0.033504438287039244], [0.03256237687319726, 0.03750208995851586, 0.0009970582055164343, 0.02615130989663721, -0.008804620360785808, 0.01681816269650377, 0.0048449229556723145, -0.002332784587625837, 0.009923978274659547, 0.01709146588007695, -0.0255914771613059, 0.031072702151670628, -0.02043180362433054, 0.027026135592315897, -0.011041560084633532, -0.006349527471515521, 0.007503035835628768, -0.03442896966025899, 0.031125673269541746, -0.006634631750540751, -0.014386632928584595, 0.016681150072774136, -0.013022176771252043, 0.0047733885422463415, 0.006596237097797372, -0.03270261975851726, 0.025442485931318225, 0.010589343343120804, -0.04400326250553341, 0.017237964907225237, 0.0009610291184364073, 0.01703010862784889], [0.03375992812763084, 0.024004304524162887, 0.009034142308037132, 0.01179548284588017, -0.008526141822829696, 0.0036371384796375795, 0.011587671450101882, -0.008068600791101069, -0.01852393755296356, 0.0201408769086938, -0.016689304027136562, 0.026934789507505736, -0.017193467240896577, 0.03777715840516248, -0.0052437714505277795, 0.018153592570171823, 0.004358534601022066, -0.02461857852291845, -0.005538170249579734, 0.0043510080126982755, 0.005217651502525559, 0.003628137545193862, -0.023213530307784416, 0.0025336715517771196, -0.012986209421056437, -0.03334600736861364, 0.014671870176085497, 0.006342994707031666, -0.004844468151883906, 0.006593466381121677, 0.03221410311769001, 0.01863471622849409]], "bias_text_hidden": [[0.06745713902860832, 0.04884584007106619, 0.024458581864812715, 0.030542310551089743, -0.011930395333888733, 0.016536902057197433, 0.007776182601393835, -0.005054561884960701, 0.002323333584073954, 0.017723379177800015, -0.024329222882941263, 0.03757472743433417, -0.03319216995139406, 0.044942218608139614, -0.007573279307856919, -0.012620634329520455, 0.022607810791263703, -0.02129124266523201, 0.011586351092203441, -0.01135721725437369, -0.010101996547118405, 0.018288753450116227, -0.02400421012359248, 0.011612426488503915, -0.025431530625859695, -0.05180580249949421, 0.03351228116019309, 0.009018892056344988, -0.03809170133043241, 0.017080787484843984, 0.022395372740791602, 0.027291962608296718]], "weights_text_hidden_embedding": [[0.04629303345572856, 0.058314142688870044, 0.028758101103720905, 0.07664714118508119, 0.05837474102708407, 0.05858132278615355, 0.08652695597199703, 0.030218468593512807, 0.058445928970428156, 0.04954003660458889], [0.01036264483912912, 0.043475937916576515, 0.03704554900984466, 0.03875313926516033, 0.036924374981635026, 0.05358719188746156, 0.06288763546178586, 0.028775015720710017, 0.026219382952237365, 0.03924522869459274], [-0.006123888920704668, 0.018353467859783035, 0.02064029871527154, 0.020826509772004138, 0.028186179375117443, 0.028657685923126203, 0.028171895746164466, 0.01239969231968462, 0.022075320068484092, 0.013636212786771964], [0.03305008192157785, 0.024248629303350654, 0.007502710164552957, 0.00365112381061609, 0.034580032080176334, 0.02479278840575145, 0.050023731629694555, 0.0016430001655241002, 0.014772558884855652, 0.035871822407699996], [-0.008044806998142504, -0.003831134533569992, -0.01586554843382222, -0.007495747454038931, -0.015608410163671085, -0.03302198598728675, -0.025136619930295423, -0.011829675728676305, -0.005539498576547416, 0.008795322300339754], [0.01490060105778694, 0.02664700211842367, 0.0028824748264188603, 0.02364724127928039, 0.004277790809089552, 0.01041754682258717, 0.024907810574122998, 0.024751441124070305, 0.008922008136528981, 0.019334847036892415], [0.006262572926791149, 0.017995966210155014, 0.0029965013552576327, -0.006668923431996711, 0.010673428169409372, 0.006332759002677586, -0.0022681988670620727, 0.0031529505588107735, 0.011022377198157726, 0.023972909564012646], [-0.004645912263324368, -0.020722056551980103, -0.003179618945534392, -0.009061031351652659, 0.011880418357754524, -0.0023745252808610594, -0.007595300964153877, -0.006587569463286322, 0.01504983546181868, -0.003959058803578417], [0.02004476637862422, -0.0016014592534097055, -0.00448058275798268, 0.002603886982711106, 0.008162935080862953, -0.0018377185807479425, 0.0037621581767124665, -0.0009768715486711556, -0.011371669052406094, 0.0010149369706669146], [0.018428043278644803, 0.0330705474073, 0.013755048278013144, -0.002205801488039771, -6.019670556608869e-05, 0.004155457153414832, 0.009578802945000381, 0.01808934008302524, 0.0021418892253575864, 0.010724300519245295], [-0.00638207578706636, -0.02870135194867737, -0.02221523244611032, -0.028297115612632765, -0.01314980243262083, -0.022611529416065937, -0.04034006540664937, -0.010606006201711928, -0.011467274954974708, -0.02549959742413246], [0.037146045028455636, 0.032717880747363565, 0.03001322875346246, 0.0617998792070976, 0.02748356882226748, 0.03584480920093886, 0.051690114096301205, 0.016991089278099652, 0.025958542834816516, 0.015722247663352156], [-0.02833970309236743, -0.014495642279279086, -0.023598839819654494, -0.03578923395878025, -0.048972121517034006, -0.04049291172445323, -0.03873574695826826, -0.01490638875680457, -0.009772275943512222, -0.011455116114954603], [0.0480227750083769, 0.03330838523226832, 0.02974941413129465, 0.037845668637515345, 0.04314744194662483, 0.04475676930266243, 0.07095054054019127, 0.018619927013669664, 0.035385000046064055, 0.02729317865694567], [-0.004941816350339622, -0.009182833489870347, -0.0031256986204499203, 0.020370227311479416, -0.001834348371115323, -0.016536293124137694, 0.0017446643097283404, -0.01643194943016993, -0.00699328329478947, -0.0024382227967790805], [-0.018625669007331144, -0.022855945185869486, -0.0025856253048251216, 0.0010456516111894754, -0.0009363875100075688, -0.013630023495988033, -0.007381805769904861, -0.005128757239923997, -0.011825478683065181, -0.03482916062212974], [0.006507676615781369, 0.013902258826446235, 0.00878962721310657, 0.0038762412550840267, 0.030163145583405947, 0.013440081927894471, 0.017601211213111576, 6.426168562292679e-06, 0.028977231496313868, 0.014109241333424756], [-0.024071054319536156, -0.0070223160965438, -0.02377460850643982, -0.003585792087536308, -0.02029883414978188, -0.0027646893412238954, -0.028316538387645373, -0.03102444982321479, -0.010733489235235314, -0.013485994369751578], [0.014905407373194832, 0.007587662344295099, 0.02087691160094425, -0.009684663983069974, 0.006653469387117413, 0.010630370933690621, 0.02154349684211161, -0.0073434802234851665, -0.007074688011240249, 0.01832891011078585], [0.002515446503022627, -0.0030204112242699075, -0.018733463414107802, 0.002720533384524613, -0.024907756935436204, -0.0008463095842874229, -0.012267242787803837, -0.0004319357852314645, -0.02554779414406937, -0.00901634258735404], [0.011771655108019323, -0.02209621963862216, -0.014708400336674714, -0.018402542857282517, -0.0017895040764337252, -0.00822654637118738, -0.020967969118692757, -0.005889801945061093, 0.00324692249358822, -0.008581634068369311], [0.001895285234173157, -0.0012208601373060845, 0.03853979102047563, 0.03233175635168537, 0.029946012999095044, 0.011282125233845966, 0.025580181433145634, 0.008577715545691663, 0.025132533117722677, 0.00019950781871662732], [-0.024579912378643088, -0.014360464721954418, -0.0009770415400268426, -0.029567259726630497, -0.01617519128332812, -0.021789072114462613, -0.025442584898142898, -0.004597089760324603, -0.013527160014294598, -0.02435477864469923], [0.0021350294969148414, 0.0037950175290935827, 0.008586468525023155, 0.00710815716625076, 0.014406165231805417, 0.008850410570826963, 0.0009929118514891498, -0.007331932288656131, 0.01233078833618146, 0.02204143045236137], [-0.026316254507365962, -0.006945347266573652, 0.016150818854959406, -0.031080190648267555, -0.0265328978675492, -0.028005097272564245, -0.03847009848195881, -0.012698240831916698, -0.02337217115435143, -0.031605231577198425], [-0.04041705604900078, -0.03153023690925982, -0.029432791668784146, -0.03694889910069147, -0.05920175407650181, -0.05380388308536701, -0.06150214317151898, -0.042551812090215746, -0.03480794099549682, -0.040958611340495485], [0.015648109530295346, 0.009242259205390407, 0.033637819533763096, 0.037602038912248316, 0.011107369483908109, 0.028413766306326794, 0.027797517732492314, 0.0032669455660829425, 0.018593497048388283, 0.03856257732717735], [0.006426228691763377, -0.015352392980802798, 0.00276040662848365, 0.0006221307623526613, 0.0099922686782903, 0.01575622934474246, -0.000832772318639866, 0.01768314337971575, 0.01120160096041614, 0.002287166191225716], [-0.015872503012808768, -0.04201787157600478, -0.0006391149191382736, -0.051278377390467825, -0.0397695033864856, -0.034097501839666235, -0.04959398082997072, -0.011564232122524831, -0.014350997041856947, -0.04362721144046196], [0.022273114917714547, 0.009777335509235586, 0.004676152146734214, 0.0005573074014828739, 0.021934554858777575, 0.005267551347827316, 0.02145334835726918, 0.02842720385770211, 0.02538342033151849, 0.005936301003814593], [0.03354521498590135, 0.008917224565055977, 0.02247199733113234, 0.0346721418923724, 0.00916569573095887, 0.006114594305615608, 0.016566727990392528, 0.014140323514792589, 0.01665826578660615, 0.005492984406943033], [0.030097385192461294, 0.02393246452395835, 0.025828345756508296, 0.03449849759340443, 0.03698708294739332, 0.032151423333988294, 0.02684534541173886, 0.0008326204682855317, 0.010401843694910986, 0.013717069020157123]], "bias_text_embedding": [[0.33184566286929973, 0.38180383074006624, 0.2972882297442618, 0.3521619236348057, 0.3578342773656186, 0.3811083281849935, 0.44038758452982146, 0.30215887428004923, 0.3339152189080047, 0.3084559322263781]], "weights_embed_to_visual_hidden": [[-0.005257445051682656, 0.012616898064109709, 0.018751945248295664, 0.020480491598925572, 0.0057844235216484, 0.005697478927753967, -0.018203925965555538, 0.010214728964118609, -0.0018613571863489238, -0.006391335456146807, -0.0007592978966174016, 0.014779304443913016, -0.0035784122548622697, -0.00015477025049632137, 0.003956028625085147, 0.011374881891530195], [-0.01902448169120299, 0.0028177430222724852, 0.010141808446957962, 0.014276325540374894, -0.010872975039805744, 0.011034472750458628, 0.004554272698474637, -0.010252803454404673, -0.0060883565714559985, 0.0017163178954905448, 0.0024851538393716017, 0.006310852900600773, -0.011094353814488688, -0.0031260992839912158, 0.008635115347233262, -0.0018865182579370437], [0.006409317128467125, 0.01917642144210476, -0.014506332893740849, 0.010989706275469285, -0.01194703361944013, -0.01616815160201313, -0.016928245951914826, -0.004384284062278342, 0.010832996868158818, -0.008465009610260359, -0.01619002799704805, 0.002594737924712396, -0.006243481368977815, -0.002898631780951508, 0.010757333816862783, -0.0065397647583243755], [-0.010856978631792736, 0.01322558048324121, -0.002438174949013696, -0.003140904098770251, -0.00907707618388223, 0.004073512903116146, -0.0023254231051996295, 0.0035333423237286425, -0.0018898693506339131, -0.0004356946510038283, -0.0023551644126537778, -0.01112303538718443, 0.0026564489508091676, -0.01693007013128076, 0.006220547358782437, -0.002352460370312031], [0.012563730628568673, -0.01499283412689341, -0.009204967976330997, 0.0023876842552000054, -0.001184496433126126, -0.004146816054302795, 0.004752678517491411, 0.016023606602168367, 0.008565558913528603, -0.006702219174567245, 0.012536183954184746, 0.0015793487697828904, -0.015186550162447078, -0.018939741913977876, 0.0049644830918532, -0.006066476000419337], [-0.008156437569309269, 0.014520096978070664, -0.008137428070562043, 0.02550522168828298, 0.00105896852981297, 0.017161929499131957, 0.021802943039111063, 0.007972124397595351, 0.006074154951300427, -0.0025027857948527487, -0.01309845585954604, -0.010053369932503687, -0.013326961420796217, 0.016212859121276468, 0.002971639396330699, 0.017076797244713587], [-0.001243276642134376, -0.013115954781626813, -0.003346960359885791, 0.009912966580189777, 0.021326103789179013, 0.028293845147635187, -0.021802874629351956, 0.0027755786079201577, 0.007298374784973685, 0.005594659751137625, -0.006097200874067718, 0.006799544306216415, -0.02344045713543811, -0.00332195196505964, 0.0035898436140530247, 0.012739660894962276], [0.0036878881014092307, -0.015253744267766212, -0.0007659380945086301, 0.012569894264511744, -0.0008314332588931763, 0.01410817828471345, -0.004046393613429675, 0.013694239513232724, 0.015377272267444021, -0.005043696773520802, -0.010790648847826514, 0.01357878337231775, -0.011374824401358013, -0.008170673624128977, -0.009438356345714518, -0.020462237913910088], [-0.023156269737445064, 0.009783135612348696, -0.007315278287625547, 0.0036060724669562424, 0.0018889920639436988, -0.001982702143433535, 0.004834712695652314, -0.0036334593504162007, -0.004291510731872535, -0.006768754120069626, -0.0007441168480635852, 0.0032517795335952116, -0.0033328462397043484, -0.015986464249748276, -0.004245709222820798, -0.005938619826211749], [-0.010553222896008326, 0.00890726368103053, -0.0006035050234603664, 0.00031993516931740854, 0.005390465608353442, 0.006007087845974708, 0.012707813536245418, 0.022674015367033996, -0.0052353605757418055, 0.011678486795303302, -0.005201551535325528, 0.005346990137279857, -0.0014123343458977231, -0.0020834202224506815, -0.004068186499244913, 0.0016039304828671767]], "bias_visual_assoc_hidden": [[-0.005524821063585179, 0.004138482767393613, -0.00772365260278181, 0.012185454467525331, 0.00645601560555351, 0.010650823986212116, -0.0016508570497582012, 0.0068129917524870475, 0.003883575814435355, -0.0010713167181902125, -0.006643288727523996, 0.006512483721740159, -0.022205014833819342, -0.009912259341048514, 0.006682016669094056, -0.0028571002117262064]], "weights_visual_hidden_to_label": [[-0.022296684772412943, -0.011728577238932619, 0.009435844437322666, -0.0033552517793729825, -0.01204391232949538], [0.004538324004336284, -0.007623611462458526, -0.00011723612377119434, 0.00382122058393998, -0.022738797043859425], [-0.01048638539544587, -0.0014556479192529732, -0.00661223867433843, 0.018981393671337658, 0.0050715301920693755], [0.026898025215635956, -0.01154746198342306, 0.0046078437672892065, -0.002852416076625264, -0.019288312761194682], [0.010497356830661574, 0.004878222602844179, -0.026130898092218486, -0.007025688022801056, 0.014317681956186731], [0.022203126814458757, -0.004798235652971781, -0.004732083146854484, -0.018659828378601816, 0.0032389614022793442], [0.00088942189579008, 0.007626801944692427, -0.0021981363040782264, -0.00012151669261962984, 0.01561188474609017], [0.01775630497101497, -0.007885219963837384, 0.0036865227527790056, -0.009778809436565939, 0.0068477406806761836], [0.006383736374809471, -0.014405227710575693, 0.000993200202264864, -0.013792452984246369, 0.0069281112081153815], [-0.002029344863881461, 0.0018491318361234094, 0.0019760929721907663, -0.0031644173516581593, 0.006982698228915026], [-0.02276365292591875, 6.490508726616073e-05, -0.0009116899290819695, -0.0007707285839655815, -0.016343635026093754], [0.005131950355592266, -0.016349419644796102, -0.00023689469698339081, -0.02353584082519922, -0.0011844886910929383], [-0.042728607375017845, 0.0014795060903567002, 0.019636594156192715, -0.0003807838500811465, 0.018323183519560055], [-0.01862378887131056, 0.007032877735163256, 0.005720164329710033, 0.005915998139664368, 0.00645991375062062], [0.014059476416752583, -0.016229067966722764, 0.001192293545571194, -0.0012445490591428158, 0.0044369560099750795], [-0.00435523784407876, -0.005107706481197672, 0.0024094550786836785, -0.005463835542349432, 0.0072684520056672825]], "bias_visual_assoc_label": [[0.561774495142614, -0.08594079475048436, -0.10701260247953233, -0.18440370629830505, -0.1844173916142925]], "input_size": 15, "text_hidden_size": 32, "output_size": 10, "visual_assoc_hidden_size": 16, "visual_output_size": 5}