{"weights_text_input_hidden": [[0.010000730831598808, 0.0031891512816920146, 0.001479279393851455, -0.005701334093055254, -0.010995382178780985, 0.008360058291828953, -0.009770913057165953, -0.006155162060318828, -0.0005301192886419463, 0.015557255290610153, 0.012189073508258078, 0.01654979494053257, 0.007016883050112658, 0.007136249351115425, 0.016139677050887404, 0.003952746284481714, 0.0010027267357272012, 0.002890795347458963, 0.0014566471196556104, -0.00020082589433343794, 0.0021407439251635123, 0.002918034844678009, -0.002230434496063594, 0.016979237311133814, 0.00842591795653583, -0.0008762820989479914, -0.011455961583107377, -0.001561747374059346, 0.008156886905515597, 0.0017099719214034802, 0.02198260828267306, 0.009961242710024092], [0.021676845274918838, -0.006062917998248755, 0.00981663729736226, -0.001854810382228888, 0.0004073815563691902, 0.0012209990000326956, -0.010085812781840441, 0.00622631887068374, -0.014051385165699827, -0.012695951967520177, -0.00041663205425550575, -0.0012001781740024007, -0.008935748750896024, 0.008900633857077048, -0.00351670727144909, 0.0018912392572112346, -0.0058176649341646364, 0.03285318486204095, 0.011481114063792089, -0.014213756547226702, -0.0015806010741366595, -0.00829127474253184, 0.00671127339310544, -0.015820284706382103, -0.011494163276809733, -0.01670761789949939, -0.007221811098629177, -0.003962102042177771, -0.0001252026150597881, -0.019773667279570754, -0.012772646117903354, 0.010213935499050546], [0.008269377490854905, -0.004068369194097883, 0.01855165226518343, 0.003096942593707632, -0.01580184678021008, 0.0009962358854528192, 0.003713960542928521, -0.007995820854095585, -0.010272690096418569, -0.0006414703585861856, 0.005765497625758338, 0.0020080906629677078, 0.011291593912892875, 0.003822473771332333, -0.0005657371683718839, -0.026181677535836525, 0.00039010599995353, 0.008373510452587067, -0.010708475357846237, 0.000660188252566697, -0.017210114405569375, 0.020230676588698693, -0.0032475068524481948, 0.023140879968043367, 0.0010207103226413515, -0.0032143330258088535, -0.00025679757998339986, 0.004244083162861181, -0.0018526496844134585, -3.40204557554582e-05, 0.010157931700702578, 0.004110975195547155], [0.0110242879430663, 0.0064894165488754854, -0.008717995179632294, 0.0011981254135526632, -0.012403496934532627, 0.014351131085752498, 0.010351041946026814, 0.014536493844994688, -0.014201920675618464, -0.007662159536257489, -0.009327045922885812, 0.012310461348319987, 0.0046090795444784505, 0.00781521894774625, 0.003720846974992195, -0.010102080608450786, -0.011197335048070385, -0.007202841866910488, -0.004862800804560131, 0.003842936288125961, 0.0047825043277544225, -0.005678286828296445, 0.01910242178922796, -0.003278096961443031, -0.01044664317133862, -0.0031395550380038167, -0.006525789595717033, 0.0003362529734117015, -0.01449409983070508, 0.012444079542591214, 0.010206562317411749, 0.001324019864177255], [-0.007212590929678846, -0.00767632715724388, 0.005272795308273767, -0.00018298426551567788, -0.001094362112220698, 0.005596867569846995, -0.003140350808348441, 0.001416638987722912, 0.0147047368123595, 0.0014015879233834716, -0.010259380661767344, 0.014544310351552807, 0.002526055912912325, -0.009189816974775398, 0.008479533661956341, -0.0015549194952533133, -0.007284630300470503, -0.00013341322633373792, -0.0065870745731014665, 0.0001340198210594423, 0.018531921097144688, 0.006327110471980942, 0.008869465352303443, -0.01048852262852463, 0.01782431174983515, -0.016111070052105287, 0.004033464621588222, -0.008303453148986473, -0.00023931699790628595, 0.0012705634889414248, -0.007598155736027398, -0.004408295755563927], [0.009528438308086317, 0.014181411148871061, 0.0173019749406278, 0.012153397363836709, 0.005063011747105257, -0.015295875582989147, 0.013935746106045806, 0.006242379101819979, -0.009857892289432622, -0.0010409999951002749, 0.004532229100795213, -0.013882604309594433, -0.019989062628439514, 0.013942060978211842, -0.015558907136446077, 0.004460028881418438, -0.011386341244894302, -0.0018546410051436624, 0.0022109118726287096, 0.002260066764169781, -0.02120118297255732, 0.00465462540740038, -0.007442653723183322, 0.004935499791522655, 0.005433994787347028, -0.004039519503031309, -0.002125622017441806, -0.000558022073834249, 0.002125532047957732, -0.0006447792703403912, 0.0021001300807425008, 0.02186158647560296], [0.011712523054769223, 0.018211333391948095, -0.004446862683311416, 0.0003667223278904869, -0.009101493639735767, 0.005565664778990375, -0.009269780224966296, -0.011643909917399907, 0.007157350686592501, 0.0020290422423566014, -0.019828397940983712, 0.008930198272780875, -0.02929718992769929, 0.026658781560745748, -0.013570199568686775, -0.010900814261843795, 0.012865276429031612, -0.014939666393611205, -0.0013425960537708215, -0.008204388486320607, -0.005434594663491992, 0.01859532854427962, -0.013634554521077393, -0.010910706280860443, -0.019074388864681786, -0.005549505736904028, -0.004064026170646728, -0.008365019086211707, -0.007144831132049987, 0.015070515243431953, -0.004587124555253652, 0.005750274834627025], [0.0077840170146856276, 0.0011534846631446867, -0.007895495493122946, 0.0021274283778182387, 0.011615029521867474, 0.024671111933136234, 0.010527648113680147, 0.004185157481197953, 0.0067871010009129575, 0.016411212515516783, 0.0019574527360940565, 0.0011835856711924512, -0.012327020960716549, 0.007013099576254685, -0.014721949792732397, 0.0018633869779058397, 0.010938423432063854, -0.014104824004725075, -0.00012173638146010679, -0.023714204937672845, 0.011865534797185311, 0.016347332425114394, -0.009872103391799515, -0.0048661418602470126, -0.013051818951183675, -0.01959739328418429, 0.002475328031475079, 0.012147259906744645, -0.012633545068932201, 0.010896438159020574, 0.0295017206258735, -0.016786109616215777], [0.009357267563271269, -0.002138358233407643, 0.020852805572251627, -0.008927750589190257, 0.011087490727327285, 0.017671425033728646, 0.006355008181418349, -0.006987457746946128, -0.005018371413809561, 0.00192396467612994, 0.009447907412947909, 0.019336688622792593, -0.0006793488585152973, -0.007676792835049831, -0.0029594044339846023, -0.008954736474328345, 0.01156230570485892, -0.01147162730387566, 0.0009202645755625237, 0.012529483824563413, -0.005421408784175311, -0.00614030771303856, 0.0016222022214118397, -0.00010065817995539691, -0.009586038573492849, -0.005912771589663877, 0.00668087190669691, 0.0029405401722645704, -0.006031291662729218, 0.01801509684085456, -0.015137792306667373, 0.0050099168421507915], [0.016079301149632703, 0.0007233142911014535, -0.00018867941041520662, 0.0005725348056599598, -0.01258688273819333, 0.008616920709362208, -0.007633852953597581, 0.013071538395381112, 0.009302236478295757, -0.004112143585164952, -0.014370872238861864, 0.0008840977896818444, -0.010448444145894945, 0.011238686892697254, 0.015619846502214587, 0.010234915976331395, 0.007612229577952477, -0.01749054559592302, -0.003752290214352286, -0.003914856538743631, 0.004302749320339059, 0.00038976142882264517, -0.015139893646585743, -0.01008232222996437, -0.022039018923747784, 0.008869975550457055, 0.008940382450460062, 0.012651876980133701, -0.005251590549234224, -0.006916979884671498, -0.0016262368622125833, -0.01264800601424612], [0.020462742100657287, 0.010836603446421272, -0.008033671424396012, 0.012619346513270136, -0.014740919318115891, -0.0016753606740285765, 0.009198611249180037, -0.011153369630165215, 0.012578044040270426, -0.013902937581787138, -0.01176000543061511, 0.008023894225827322, -0.0007064545416855391, 0.0016770204995870213, 0.017340254250470644, -0.003917623741391835, 0.003970493222018179, 0.004208512725655961, -0.0062394272238721574, 0.003513299862454823, -0.005391236247697055, 0.006243438347017991, -0.013534749128919495, 0.015303810042480508, 0.006416535844069174, -0.004821499435915679, 0.0039838189118526855, 0.0010323285762747075, -0.0009542969503972217, -0.008843624322705192, 0.00984951318338841, 0.004746264193356038], [0.003917190263578612, -0.0031623869650552147, 0.005584812114089137, 0.01162240783016061, 0.011800331057520918, -0.006848506845671048, -0.004497199413007016, 0.01466392720071853, 0.005304843352868355, -0.019263596172708522, 0.004411916879781676, 0.014448624071194854, -0.004120679756352022, 0.00995204726031783, -0.0011310597039370916, -0.004785901667555115, -0.005036756388720034, 0.004019792207188788, 0.005128027342714556, 0.008570065480752684, 0.008901230005786048, 0.0006684283161356725, -0.0008125055466602314, 0.0031759008860725883, -0.006862842718842565, -0.001343878860609459, 0.00727031265939002, -0.021771511334224947, -0.006134741037337704, 0.00934014951858424, -0.00894134852311404, -0.0032306167204604573], [-0.016059485098969473, 0.011461564904977429, -0.015808810464414035, 0.0013443641872922672, -0.0063378517672775594, -0.010107108134296933, -0.002156597502678514, -0.009007603274306527, 0.017364905097445857, 0.0007112802806467054, -0.002318848737601371, -0.0005615901464403104, 0.015298812847581235, 0.00916768523858175, 0.026570907469506494, 0.0027340720794758965, -0.0009844853287301642, 0.01750953974216315, 0.0005649650226808477, 0.0016069672347072486, -0.0050037000158485, -0.012703600495400971, 0.010512595945215041, -0.008440765344028524, -0.03408570757677365, 0.0009302125011964767, -0.0003074576452218108, 0.0007073602103726457, -0.00044316610152662895, -0.005690001593504536, -0.008650563701804805, 0.02393252510991753], [-0.0016612886478363296, 0.011321989635568378, -0.01246808085558906, 0.008876671622207776, 0.0007602796216170853, 0.007454388007928559, 0.001055267645026707, 0.0010815448127715892, 0.008632714296112289, 0.00903502046735828, -0.012025531544057597, 0.011190895436434036, -0.002239819184812901, 0.0017499474225672277, -0.0075294467860877335, -0.0006278660454211855, -0.0025816940893027447, -0.024444955526175264, 0.02487254872397778, -0.0015664632389339455, -0.007096054489937322, 0.007587123448654669, -0.0018647055391593965, 0.0007332864479455778, 0.020074072830139254, -0.005681093430587529, 0.013012732918932601, 0.00802207428695068, -0.023385344739804217, 0.008578298939378929, -0.007572917136413515, 0.001942033917124351], [0.012556720632360595, 0.009411997181971438, 0.0012703183063867256, 0.001595855170557142, -0.005904062445721874, -0.0024826865068761344, 0.008411962684493603, -0.00705209631367743, -0.018919264280951916, 0.015785199822384764, -0.008684243905603553, 0.0152534017574467, -0.007888466113274213, 0.023704599670540387, -0.004416838150644641, 0.022552592852557698, -0.002485737026439208, -0.017932166833874087, -0.00876498669919985, 0.008893952215199072, 0.00911708341094774, -0.002960557417004637, -0.016096938172665293, -0.001417075263970641, -0.004354495653810578, -0.017345214167816207, 0.005575649719511394, 0.004864816054513491, 0.008338081665677063, 0.000645964895288434, 0.026054396654989286, 0.010543528418593783]], "bias_text_hidden": [[0.009226391035586973, 0.008301437519955868, 0.004118094325026531, 0.002665102445625617, -0.0011486382446836243, 0.00011522410343721667, -2.9517272223450073e-05, -0.0012202784672422182, 0.0003579826384506351, 0.005931294044403972, -0.0027609122865651986, 0.004024671101821487, -0.005616830876029705, 0.00477307212894408, -0.0036490004040882883, -2.375482079848854e-05, 0.005753083643243803, -0.004760907700841456, 0.0022093010257799583, -0.002737820874812851, -0.0008115798921459809, 0.003167994903529944, -0.0030056839872324758, 0.0017494020284307204, -0.00013792275127089918, -0.007136170163928183, 0.007842580017627566, 0.003231074624631245, -0.002701868000127753, 0.002524068785866264, 0.005267803646825577, 0.003451936475938747]], "weights_text_hidden_embedding": [[0.004680592071451413, 0.011866295121755263, 0.006766251658956056, 0.02428240285724163, 0.005882532191097883, 0.012011262159345018, 0.01225089188513738, 0.0060597935936574825, 0.02296129028979635, 0.00033325805634794455], [-0.019350253145004524, 0.013121770453241956, 0.02327983772563855, 0.004747423200180633, 0.0013538677295109134, 0.01950080509179239, 0.010474818829454271, 0.013202654733075105, 0.002888281350965965, 0.005047577696049649], [-0.019647783935936452, 0.002478856584239257, 0.012552127674856318, 0.002922731604071583, 0.010993097323885722, 0.012708927950212175, 0.003556787792664101, 0.0050043661588960765, 0.010237728677890873, -0.0019447477688643929], [0.013940988538142084, 0.0062680011889761035, -0.0009335891443898452, -0.017847539162161363, 0.013342993286245854, 0.0031289210173659683, 0.01834208557739011, -0.006846526434299813, 0.0007146578016073755, 0.014784106532471381], [0.0018523901689319504, 0.007865708660240578, -0.009378208819613165, 0.00605936240136728, -0.0021826173219261437, -0.023155379868354375, -0.006106748880067442, -0.006196741908144863, 0.0039055050667495365, 0.021423486483072657], [0.0032590900835743476, 0.010771051701110436, -0.0046721266627772545, 0.007663171093942611, -0.013522621216098032, -0.0027135597061784035, 0.0018263249814729487, 0.014773927004843377, -0.0019958158014754487, 0.005139388703114769], [0.001025475496639626, 0.011843000837383728, 6.569434191559817e-05, -0.013826800839852086, 0.003939809921443626, 0.00027607239032947787, -0.011086129845200465, -0.0011067259789734882, 0.006028185175865691, 0.01754741246770394], [-0.0020196244956796824, -0.0182561025475507, -0.0022913106489393952, -0.006678468125646331, 0.015262510420200359, 0.0002655793136816265, -0.0024623966564187956, -0.005979282415022413, 0.01671843761598184, -0.0017204643355261794], [0.01638874174921604, -0.0012054203494809065, -0.0037624865441307108, 0.0016180040033782071, 0.0070149705829545975, -0.005641047721109634, 0.0009069943753286881, -0.0007255124539676637, -0.012480585347126255, -0.0022050713575982673], [0.01201558261299596, 0.026030181566706938, 0.010432651712563554, -0.008869109336593878, -0.008903812676021482, -0.0035553541585168443, -0.0030263182134347747, 0.01302009109701054, -0.0024149268761886294, 0.0034778504137427547], [0.009624995878699935, -0.009327462257552877, -0.013278671585680057, -0.0077261576797450346, 0.009330545076894584, -0.004848506119756883, -0.007912613920520253, -0.0018658294814497738, 0.002496974046048198, -0.005645953768536481], [0.011305164317308915, 0.0012194911607377862, 0.015397888785223204, 0.029648181541930736, -0.008246680603785353, 0.006723608015394566, 0.0032571852854120465, -0.0002455040046538284, 0.0030609769816808395, -0.014334152770637166], [-0.007624766949067719, 0.007722256281666341, -0.013246426619171466, -0.011032878709958916, -0.023232882168233503, -0.01646052513226704, -0.00031072642136282006, -0.004367869442457242, 0.006879240466740199, 0.013289290386667341], [0.015443118211762898, 0.0010219916522041762, 0.013867723331525299, 0.0002575011976362917, 0.005062089639643235, 0.008395701119999564, 0.01438102525832586, 0.0016595498974467419, 0.009132219036162903, -0.011486775406045768], [-0.004345928201652271, -0.0060042896401137896, -0.0018130307468015542, 0.021644684538862622, 0.0005059719909021178, -0.013335722885812551, 0.006426198046218925, -0.01543649798171744, -0.0075962289991066976, -0.002729860409300047], [-0.009733038684111798, -0.01218455052045315, 0.003167086278019363, 0.012660956155543027, 0.010459881428186666, -0.0028897166266551974, 0.009267604664798283, -0.0002489858548143116, -0.0048862368561545955, -0.025830721913409255], [-0.003627734585005797, 0.005628436066115728, 0.005053786472933236, -0.0072767425667381825, 0.019143258959907938, 0.003120739409181393, 0.001283352771398613, -0.004452618831886581, 0.021298465023341664, 0.0018992618498059584], [-0.013713408566042633, 0.006444946274916605, -0.01725490192845793, 0.009682776454710426, -0.004217825973452904, 0.009116768229877467, -0.006360096961081675, -0.02263702994721111, -0.0007366981635312213, 0.0005725694402069179], [0.009077313809737364, 0.0011357495031188826, 0.018745110245532676, -0.014432864657758235, -0.00012375582194765455, 0.0019293840419524868, 0.011008488560680617, -0.010103218705985966, -0.009925346134405127, 0.013801866455671509], [0.009110775080650014, 0.003956487256642138, -0.015401047626209018, 0.01046257720102571, -0.01731121717947566, 0.007408893094069753, -0.00016449233792090575, 0.0034758080327929614, -0.021315568282878724, -0.0017832554593923973], [0.019573337187500338, -0.014673264261046478, -0.010956452416204873, -0.009935152784967377, 0.005876910948417892, 0.0021706886981105494, -0.0077479330113652675, -0.0032572874655696447, 0.008554095216868252, -0.0006765146635104415], [-0.011190695250614401, -0.016945947663005893, 0.030177627567979436, 0.01575628128107141, 0.012998845941662165, -0.0046817493887007545, 0.000337364451558467, 0.0004997007441341665, 0.01472946262852883, -0.01436742065804964], [-0.00973104182205198, -0.0028917525330860055, 0.004965232544979662, -0.01316795207259746, -0.0010849774528130032, -0.006818408168671965, -0.0024715394621114724, 0.0008350584525998856, -0.002187618099483547, -0.006443929265546724], [-0.0030822692600599236, -0.0002855665198350224, 0.005940750370331218, 0.0009805870415972877, 0.00981282462933107, 0.003569564099021476, -0.005140806756247102, -0.009727928409345483, 0.00864578862314956, 0.01748668313695534], [-0.005372691212678786, 0.005998444846734289, 0.022947079321905775, -0.009598231568679956, -0.007644625053132201, -0.007592618225718171, -0.008706165532291718, -0.0048997018001985465, -0.007259723679325739, -0.004723958739459924], [-0.00816288215124776, 0.005800332763739745, -0.012237816454833988, 0.0025312468049031125, -0.017208241245204137, -0.01627061767664204, -0.0020518293448016215, -0.022802574863664552, -0.008352863301462872, -0.004328916009472499], [-0.0006123999817145997, -0.005854707980635589, 0.026675300173984114, 0.019341767370576874, -0.00747651553967859, 0.010645490399317252, 0.0007942958002629274, -0.004203072496636846, 0.005968336016329423, 0.01970365455103624], [0.0036731269690633557, -0.017195045440836453, 0.0014566923891490397, -0.0027461148743372485, 0.007192813113997291, 0.01338217651528962, -0.004713406389273729, 0.015647845439075363, 0.008657268498757883, -0.0020322372725591364], [0.007679649120363384, -0.01606572228340792, 0.011262177238198001, -0.02347280122340775, -0.009955949545602133, -0.0063199731059272, -0.006529004290395603, 0.0016834439408521223, 0.0037861041986605843, -0.017159787414667164], [0.011950827290027933, -0.0033089772735545994, -0.0013833814104307403, -0.011848962923532222, 0.007035980000915111, -0.007534803291052598, 0.0009431697275650953, 0.020228612592680294, 0.016516405429301058, -0.006099302068457011], [0.021601192948815878, -0.002561853529150334, 0.015981909515558442, 0.01949469907024989, -0.004941024875680871, -0.0053968510325555176, -0.002327805699729874, 0.005575098489302881, 0.006516322642459006, -0.009252183389542378], [0.010432723853216688, 0.003381939417098798, 0.016317134981691194, 0.012647239423338971, 0.013537473782322436, 0.008935515596095395, -0.007789158664173113, -0.009297267179829273, -0.005309650228837091, -0.00825462114313933]], "bias_text_embedding": [[0.131170971963797, 0.14003825803836636, 0.17333850733498884, 0.11566142756935356, 0.11344743132455666, 0.1337986601108815, 0.10030117428776693, 0.12918483872577483, 0.13229523604161, 0.0570388965924366]], "weights_embed_to_visual_hidden": [[-0.0034795462876912775, 0.01149357498410724, 0.020513571659506465, 0.01699118413039574, 0.0038338717337513847, 0.0026762719680409135, -0.01779176670776548, 0.008165470572326864, -0.003127024761254277, -0.00603378465300656, 0.0013465215507590654, 0.012984705576258268, 0.0026351617758765262, 0.0026862148058458346, 0.0018313709093845136, 0.012051650111066767], [-0.016842161250271402, 0.001440039187085301, 0.012319041054783084, 0.00999198647050853, -0.013307277593320625, 0.00731844536006618, 0.005057844611678389, -0.012774116656067565, -0.007651355151539367, 0.00215336071409828, 0.005091169698651268, 0.004092580061362548, -0.003404413243500161, 0.0003844166017719951, 0.005995355233237513, -0.0010383957882199389], [0.008166624298335506, 0.018057948010061615, -0.012697796834446344, 0.0075165443137783835, -0.013965290574528335, -0.019195735048093528, -0.01652168233880455, -0.006431297311538049, 0.00956649417919574, -0.008119276557354794, -0.014066557035771117, 0.0007760705386540995, 7.21930799021883e-05, -2.9028784478479878e-05, 0.008593764539582171, -0.0058288930450265996], [-0.008853118870484365, 0.01196346750581857, -0.0004703607607988207, -0.007063669197997155, -0.011263278883680715, 0.0006813073319630693, -0.0018621113476363007, 0.0012297481513153135, -0.0033147896095631524, -3.066648388372655e-05, 1.3293613702563983e-05, -0.013136277373397372, 0.009626862486945692, -0.013739359501980854, 0.0038338506874906492, -0.001595552988754084], [0.014497729016608047, -0.016212324586160273, -0.00729319356092802, -0.00140337938193116, -0.003316990707472183, -0.007429646857951635, 0.005199204197972532, 0.013794236614610558, 0.00718484169561274, -0.006313098574913797, 0.014834013969133081, -0.0003745259035118641, -0.008419040281081433, -0.01584560162392552, 0.002642581293335174, -0.005327120684952741], [-0.005934720239126175, 0.01311858292747482, -0.005949094683256597, 0.021149553250167787, -0.0013642551128960232, 0.013395318908761444, 0.022318353762009874, 0.005415266231315824, 0.004493204749298582, -0.0020538126929144367, -0.010471889375990237, -0.012289163022025958, -0.005590307728377265, 0.01975420978369, 0.00032424424860768956, 0.017917095954880977], [0.0011369504591323487, -0.014612409820909243, -0.0010333286010691712, 0.005260168975027167, 0.018755141349985526, 0.024277989787957827, -0.02125218490348647, 4.3977354674692796e-05, 0.005606912408101341, 0.006078707092020409, -0.003292767587286269, 0.004420065364318827, -0.015212364811238945, 0.0004513367868185431, 0.0007679626061854746, 0.013625872713573043], [0.005497755640914092, -0.01639886274291975, 0.0010610429599154938, 0.009008802580378323, -0.002877851999047316, 0.011012737925152295, -0.003629021225333768, 0.0115964379470895, 0.014076535153872317, -0.004683845924089017, -0.00861689122178116, 0.011725294019353844, -0.004943440676460604, -0.005240490434254417, -0.011646603302945379, -0.019746265775911903], [-0.021248702719364226, 0.008576933151427645, -0.005402900850726199, -0.00014385045922260485, -0.0002480027882721673, -0.005238567213545712, 0.005274858806018601, -0.005841349918114474, -0.0056589108632764595, -0.006388415816197191, 0.0015375387037373542, 0.001307382163645051, 0.0034087953837764404, -0.01291149140010717, -0.006559217467650584, -0.005194484973110084], [-0.008941285774528731, 0.007896324161307188, 0.0009545250158047418, -0.0028248973723940403, 0.0036551993180065365, 0.0032923766560635443, 0.013079121396970853, 0.02082735707473399, -0.006377870130565663, 0.012005937970418547, -0.0033071032498048314, 0.003742018558341088, 0.0041412956374813886, 0.00046382402718144286, -0.005972277786267974, 0.0021988924731902344]], "bias_visual_assoc_hidden": [[-0.00012290313989505482, 0.0006628408050342247, -0.0019430464195995542, 0.0014169307948520356, 6.23175551607462e-05, 0.0012088222039157008, -0.00039224638392654573, 0.000466249160355565, -2.4553930670172123e-05, -3.082863737924045e-05, -4.4751405933319835e-05, 0.0008084962822492677, -0.0023517444176024186, -0.0009416453042586853, -7.516906337857662e-05, -0.0005689067800177764]], "weights_visual_hidden_to_label": [[-0.013602975455684698, -0.013975975314006935, 0.007217740210619707, -0.005469054664200685, -0.014158316459618661], [-0.0009821014745994689, -0.006223438649626762, 0.0012772944633884253, 0.0051839060899197716, -0.02137576047089482], [-0.0068234094204732785, -0.002398190671061352, -0.00754397481008379, 0.018087174351644336, 0.004177052424343847], [0.011073140443888824, -0.007480636238525258, 0.008632674158600938, 0.0010136692737246556, -0.015421169476007003], [0.010248803544587352, 0.004987992764266607, -0.026043593480347123, -0.007000030940332393, 0.014343503386498513], [0.01089032969946303, -0.001852371277693888, -0.0018332811826072487, -0.01592618758865814, 0.005973451387806224], [0.0034046619269839165, 0.006991388311871344, -0.002831153227337752, -0.000744852064115771, 0.014988410642473088], [0.009626499185908508, -0.005773951918310561, 0.005768632951915802, -0.007810896399860123, 0.008816255184413202], [0.0019662602441008607, -0.013268237495282314, 0.0021187397562223076, -0.012715128455361104, 0.008005733040687912], [0.0006015642197504852, 0.0011893155463385183, 0.001316762289695134, -0.003820232378814542, 0.00632675114471999], [-0.016821507829105225, -0.0014687923241175193, -0.002427775399038283, -0.0022166940105401364, -0.01779003181499271], [0.00023895527527168157, -0.015083741743604646, 0.0010133654919986677, -0.022347484760053552, 4.212233908459569e-06], [-0.028098461996188397, -0.002331028608683165, 0.015887351506542857, -0.003915400793810069, 0.01478743243314925], [-0.010277842554533196, 0.0048688936493977274, 0.00358474899150346, 0.0038930221150591236, 0.00443634288242061], [0.010430393923730852, -0.015278956118011729, 0.0021279123548546375, -0.00037302965847649895, 0.005308788444336014], [-0.004752848035288693, -0.004998998686512044, 0.002513144889776179, -0.005371257839922657, 0.007361086888672308]], "bias_visual_assoc_label": [[0.06757813320025972, 0.034063818867118935, 0.014911194592235747, -0.05827911928112837, -0.05827402737848609]], "input_size": 15, "text_hidden_size": 32, "output_size": 10, "visual_assoc_hidden_size": 16, "visual_output_size": 5}