{"weights_text_input_hidden": [[0.011512556923979617, 0.0042528828859911055, 0.001999688818038919, -0.004722807230204849, -0.011098016455380022, 0.008633408756164532, -0.00913674545857477, -0.006074981794981294, -0.0006881317789340786, 0.016176007219035428, 0.011835069661268183, 0.016961527521734725, 0.006583034604381243, 0.008044847739042151, 0.015380342923613576, 0.003045096021691067, 0.0017649130358353047, 0.0023741685579880896, 0.0019732979572039573, -0.0005898234085582842, 0.002326319772785461, 0.002923543369871133, -0.0028586741069841497, 0.01762830869866912, 0.007875807673119777, -0.002289325813830318, -0.010376681328656545, -0.001013211718465809, 0.007535577692039944, 0.00221669815448418, 0.022417345959100696, 0.010320420833609699], [0.023059851218080223, -0.0048919219339860496, 0.010401325530508283, -0.0011724418052779632, 0.00022360396640962722, 0.0015187693455365474, -0.00961171591815242, 0.006150562349047745, -0.014210493869352246, -0.012076298509348127, -0.0008638452019527129, -0.0006840955655549999, -0.009459781116990309, 0.00969020317109106, -0.004137287650595597, 0.0012327030525642803, -0.0052207902558172705, 0.03236287249852377, 0.011896413467159883, -0.014509912768590878, -0.0016392181177768157, -0.008118953164711703, 0.006184211106055003, -0.015304738423058382, -0.011850558851560635, -0.01798980187583922, -0.006178418343177233, -0.003504508622501311, -0.000748558591405295, -0.01941893351763552, -0.01231719755861175, 0.010643996214341199], [0.009909253256189526, -0.002567786844205185, 0.019266954410572065, 0.0038308686181294134, -0.016044064906595955, 0.0013995774486513719, 0.004146178379064292, -0.008201537727022715, -0.010443699678446517, 0.00015916001374471117, 0.005123121174191387, 0.002740307276181109, 0.010633911815850414, 0.0047968932493737786, -0.0012006478169469732, -0.026814997522729735, 0.0010032133278665594, 0.007647984576136263, -0.010157498009803293, 0.00031275122991352154, -0.01745232274211416, 0.020608824257468975, -0.003818883192018587, 0.023661703072226783, 0.000739369826114513, -0.004708875642434335, 0.0010532481791428242, 0.004717510097494507, -0.0025554533844351886, 0.0003656639507948692, 0.01081644270625331, 0.004632228316574279], [0.011771533906090752, 0.00722846599880265, -0.008368530021409751, 0.001456207283373591, -0.012509524166689453, 0.014575734899160045, 0.0105187757945671, 0.014380230684109223, -0.014260060775967141, -0.007256336565044513, -0.009652086213846254, 0.012684980815502405, 0.00425765850517032, 0.008232721181422991, 0.003462616606468327, -0.010331888948459437, -0.010960807721966195, -0.00758064230823148, -0.004648355284935809, 0.003706787920482797, 0.004590043525983725, -0.005448100114134697, 0.018853749823396847, -0.0030734280057942514, -0.010536073110998448, -0.003841109687030935, -0.0059267112680577065, 0.0005406451121623283, -0.014854522611176108, 0.012620638116154728, 0.010546050339848295, 0.0015949776791837032], [-0.006138411673428503, -0.006911844216444868, 0.005742230586014334, 0.0004282787107433685, -0.0013075391811317005, 0.005695871695266186, -0.0028888212003143243, 0.0015187408229406717, 0.01464209696040749, 0.0017159853469276365, -0.010472513878606758, 0.014889344028901717, 0.0020178466664576827, -0.008492627086784424, 0.008083515179791641, -0.0018264927244495543, -0.006705943482415333, -0.0005119915852493206, -0.00634562223210243, -0.00020902006077117092, 0.01856965321754437, 0.0065616382555909155, 0.00849927366045526, -0.010149925071556862, 0.017447730415680245, -0.017085120290670257, 0.004587216894339334, -0.007940618685513707, -0.0006768301540637883, 0.001646336867159746, -0.007289569846999556, -0.004075609679660608], [0.011765471951248664, 0.015894503353402194, 0.018233167866656522, 0.013463816923902408, 0.004685404221665525, -0.015012857637032416, 0.014834776275293894, 0.006376458814178077, -0.010209508675322165, -0.0002602967584724893, 0.003960408225448186, -0.013213709478117766, -0.020731089305588785, 0.015258668158346955, -0.016688263489187127, 0.003212267755555471, -0.010226224926268086, -0.002308103100675215, 0.0029062016036855856, 0.0017296337735020085, -0.020993787552977868, 0.00469006081055911, -0.008351881731518972, 0.0059165682440591606, 0.004669024694969543, -0.006031764353215224, -0.0005129161865066367, 0.0002440840211105682, 0.0011768808915093825, -0.00013017975066554447, 0.0025936518431728377, 0.022516714429735043], [0.012835280185128839, 0.019025028358060733, -0.003976054638148878, 0.0010922532450496852, -0.00935558682671944, 0.005622599174085958, -0.009112830848929974, -0.011548362071688165, 0.007084351393145288, 0.0023143850916223932, -0.020125300371531044, 0.009359208551986978, -0.029777384257510867, 0.02748685886566504, -0.013872235960692656, -0.011105180366243137, 0.013445806488543944, -0.015356342122872586, -0.0009301636747824747, -0.008594698263710962, -0.005452064074373802, 0.018925039075477112, -0.01399185400166755, -0.010584542049335623, -0.019392679686209342, -0.006453595764413708, -0.003402987040581429, -0.008087019084275095, -0.007521806975401431, 0.015393552327733153, -0.004231040235160704, 0.006072498454862668], [0.009081500260199524, 0.0023406800723606053, -0.00736639539099575, 0.002624745380459211, 0.011540042525316057, 0.025132546582366664, 0.01095852053108847, 0.0039576748240923295, 0.006699157892046355, 0.017206143317455347, 0.0014798133567721886, 0.0017250273881807964, -0.012855471324508375, 0.007699422474902718, -0.015326631592082945, 0.0012627465687222966, 0.011379897419105582, -0.014859939648635936, 0.0002103250595620712, -0.023961033966195592, 0.011681984402897532, 0.01660993882394563, -0.010341270695964863, -0.0044679512901956596, -0.013291478968005964, -0.02094127763703655, 0.0034896325565762615, 0.012614114960894818, -0.013232431206563795, 0.011373587357476499, 0.030113160070008627, -0.01640314115406269], [0.011247426574320313, -0.0008503174409557652, 0.02156155872399279, -0.007674936467946385, 0.010829157323300769, 0.017877630773004843, 0.007110049868554904, -0.006765413728706185, -0.005258840580801276, 0.002543190389251702, 0.009066981358971585, 0.019819976738019596, -0.0012659559164134085, -0.006500443486592974, -0.003908559425170036, -0.01000104387445043, 0.012610409136487352, -0.011948373389819076, 0.0015265104443687324, 0.011999385259814747, -0.005116921852201619, -0.006128066322048811, 0.0008524572689619577, 0.0007199829090909266, -0.010324355452378144, -0.007618049567414967, 0.007928955881441215, 0.0036404501971727165, -0.006768315458512654, 0.018598204919441086, -0.014707332539540074, 0.005483941115803707], [0.017702221027198452, 0.0019681938584370003, 0.0003497646982657192, 0.001551732141560592, -0.012603855723339824, 0.00903447111678093, -0.006814299224999134, 0.013024514130432976, 0.009095272326772716, -0.0033020862076072357, -0.014840536794614605, 0.0013480163721836561, -0.010836179962224664, 0.012110791208938565, 0.014719740793640546, 0.009022534289416942, 0.008339876095636847, -0.018027307097404747, -0.0031630718933946308, -0.004222514406131631, 0.004450816627731737, 0.00026754552630980905, -0.01586765099419896, -0.00931211378362386, -0.022583148298450314, 0.007313342405178724, 0.010295278100054657, 0.013246499012822793, -0.006006749993599345, -0.006451409693296796, -0.0011395912454273784, -0.012248435110617571], [0.021576716808072778, 0.011801201064824277, -0.007518402804803497, 0.013077597939850562, -0.01494582239820651, -0.0014207991809540442, 0.009664673152023193, -0.011179793490115147, 0.012391049373234863, -0.013370386934954865, -0.012070361249058095, 0.008387191566611302, -0.0011435545542824279, 0.0022562182726250015, 0.016670247536078524, -0.0045377780161807435, 0.004488592516147588, 0.0038509150138347405, -0.0060244261928699425, 0.0032859735169196284, -0.005361600161079895, 0.006318798895379246, -0.013960890858727145, 0.015736573379863773, 0.006107311204001425, -0.005949211012370809, 0.004788110235485158, 0.0015281727731112648, -0.0014250442976212335, -0.008497484955726822, 0.010180151862410515, 0.005082671523389329], [0.006007123556733839, -0.0015337107368577406, 0.006376519348216231, 0.01286634231202224, 0.011591656164325665, -0.0064624272950235435, -0.00362592151938501, 0.014670359271223024, 0.005020502747738521, -0.01839653840512332, 0.003801830650354837, 0.015110600679942056, -0.004737867244440279, 0.01116371116245027, -0.0021551837324209635, -0.006052878218765628, -0.0040502357939746336, 0.00344085744144731, 0.005874157506819585, 0.008115021782070296, 0.009024601585194211, 0.000685892970101838, -0.0016836470431653703, 0.004095836931236858, -0.007525597317454089, -0.00322861529431687, 0.008909595719298431, -0.021070542231441437, -0.0070554772009989155, 0.009842552484564013, -0.008371467142277381, -0.0026521766872551907], [-0.01366888810255479, 0.013225626164371593, -0.014874578366186431, 0.002834427069880327, -0.006704069585924676, -0.009799065209620015, -0.0012649776126843525, -0.00884005867695726, 0.017034353193401616, 0.0015607178689375947, -0.0029164883237288624, 0.0001528022844170288, 0.014544214372688533, 0.010657112834547023, 0.025407620094177012, 0.001461702804343849, 0.00025549557248205477, 0.016856911841664265, 0.0013796490345654984, 0.0009728182310572792, -0.004762149601651982, -0.012592354189891294, 0.009570178277190356, -0.007445655798344907, -0.03488972775094303, -0.0012018216759701749, 0.0013876483669306326, 0.0015482235665551655, -0.0013590520396616242, -0.005024920091458935, -0.008038464451311013, 0.024555929956538228], [-0.0002315316765107916, 0.012276533064829023, -0.011961333542474969, 0.009809558298573095, 0.0006409268139508006, 0.00767250240768601, 0.0017059659388710105, 0.0012311191237815626, 0.008470310951667179, 0.009569660965709124, -0.012287379329834388, 0.011517286707166391, -0.00266762859420132, 0.0025862911592474695, -0.00830705251438432, -0.0015184290708105327, -0.0017985821647508143, -0.0248481767667915, 0.02528780018048676, -0.0019437507813988278, -0.006833043802299071, 0.007526900627919653, -0.0024751118743360895, 0.0013786386460731773, 0.01947850171876842, -0.007041500679991202, 0.01395496147587379, 0.008594715061270691, -0.023987781335388307, 0.009077611174873943, -0.007232735015676406, 0.0022889352954583338], [0.014101783748642375, 0.010680292678070432, 0.0019343361007309902, 0.002425312066484595, -0.00621918290998048, -0.0022455678864946893, 0.008688678640072302, -0.007074027160869489, -0.01905163430479227, 0.016380357589898545, -0.009183937353841622, 0.015898136841489264, -0.008535209566761126, 0.02476051023226439, -0.004948410256003504, 0.02215556788288976, -0.0017953770747719381, -0.018644057134952888, -0.008232855356874402, 0.00843110227571354, 0.008995262808798983, -0.00250100445502558, -0.01658328728380538, -0.0009885386735985215, -0.004679843870596273, -0.01870209591287153, 0.006622046998525906, 0.0053101127401469755, 0.007817452710346378, 0.0011276465184225396, 0.026652648757955043, 0.010977934292816821]], "bias_text_hidden": [[0.012596354652771185, 0.010940615842231822, 0.005429455743739993, 0.004584823374903521, -0.0015373444935052683, 0.0007554546419909979, 0.0011804632530323924, -0.001228634497651245, -1.8844147511111457e-05, 0.0073507405555057765, -0.0037317574455752994, 0.005154840130905861, -0.006753889260907252, 0.006791485067005119, -0.005201837473848489, -0.0017479299642938805, 0.007320830595368339, -0.005949093274112524, 0.0033263162675491805, -0.003551994822505097, -0.0007214821059763424, 0.0034623796372659343, -0.004318203329983708, 0.0030646740518068573, -0.0011374964334708983, -0.010232143003268305, 0.0103242341376039, 0.004367181369334258, -0.004109408970041991, 0.0034973329679686056, 0.0063261516183199355, 0.004377988480009533]], "weights_text_hidden_embedding": [[0.006761658011111731, 0.013611220469757584, 0.008769543610766229, 0.024945972148133908, 0.006917501138258194, 0.015284617206813612, 0.013402723293641103, 0.007898650432465223, 0.025573480007322836, 0.003373241072927768], [-0.017835667794134258, 0.01422527909888029, 0.024489422274819796, 0.0050173091196744546, 0.002140423132591854, 0.02193953861386861, 0.011479133081897774, 0.014142706567615439, 0.004962699776422261, 0.007047824375958131], [-0.01887020944124543, 0.003107862581852578, 0.01322407381577888, 0.003101700782438081, 0.011381788203518711, 0.014094133638673149, 0.004078436503102054, 0.0054230266402016045, 0.011310723434892877, -0.0008229139450096756], [0.014776497624950504, 0.006981312519109211, -0.00021652087274044306, -0.017637430703334157, 0.013724995069679296, 0.004643669961211035, 0.01868867246899602, -0.006213837185360193, 0.0018483982239436878, 0.01605802284964878], [0.0013189628663948423, 0.007381155816480737, -0.010068767977564216, 0.00581233718792725, -0.0024830599736669467, -0.02394067076181556, -0.006560032783657804, -0.006784680997508015, 0.003257672892613607, 0.020692725431028854], [0.0038649929955907763, 0.011260628430708134, -0.004069275267031944, 0.007948905168550036, -0.013118239517230706, -0.0021572316495996023, 0.002140218192128152, 0.015608860910198773, -0.0014194859665293885, 0.005970170455353329], [0.0012565655484460918, 0.012150867826898087, 0.0004236851070312232, -0.013674543147421158, 0.004117248477155247, 0.0008216066532674146, -0.01099263443631002, -0.0007284167207430724, 0.006376627135471984, 0.017912396703442544], [-0.002044937703954232, -0.018207924236651657, -0.002335628084868884, -0.006631968053071629, 0.015113703362001267, 0.0002649546794195635, -0.0027779399517418894, -0.005925220037679904, 0.016572843028417106, -0.0014978689697846047], [0.016697861031363077, -0.001119296651376529, -0.0038906785159561964, 0.00149173221577165, 0.00712342731642777, -0.00520565705292818, 0.0008316948331661722, -0.000689777258154296, -0.012036595428774199, -0.001807995189697163], [0.012416256987062151, 0.0262158516127895, 0.0107418774922066, -0.0087918732267629, -0.008599014841946638, -0.0033163056135819555, -0.002572540338354895, 0.013359024371135163, -0.001974850625852546, 0.0038187298349384663], [0.009031387374166772, -0.009810245782963177, -0.01387820889867314, -0.00793218938088274, 0.00889187810196392, -0.005701686914946988, -0.008427855298218457, -0.0024082956985891774, 0.0017275635136492138, -0.0063675367668109386], [0.013070280227318907, 0.002493270625907427, 0.01686219115466359, 0.03005223169287141, -0.007232975218646404, 0.009235519310158811, 0.004495968565004851, 0.0010601303208371325, 0.00532761254853264, -0.012063010361863483], [-0.008660672656982846, 0.00691280466228875, -0.014168867062245592, -0.011307105836993266, -0.02382950538404023, -0.0180746800824774, -0.0010566279983327729, -0.005100365948288514, 0.0055210075515771985, 0.01189411728837928], [0.01754566686521743, 0.002672091402920538, 0.015916602972376532, 0.0008476899580069368, 0.006122130978894731, 0.011630801300852252, 0.01594259247355305, 0.003228403484917684, 0.011842829697443954, -0.008614421625341066], [-0.004030022859589752, -0.005850606592802624, -0.0017358301977374172, 0.021584761888871682, 0.0005172061472965826, -0.01281897774065661, 0.006390969622518576, -0.015301937243469057, -0.007156672908442421, -0.002254278923540364], [-0.009912155982337852, -0.012441848304745451, 0.0028606470868474828, 0.012502412692997783, 0.010299609294560681, -0.0032877480539197316, 0.009112961029473482, -0.00047657332194692045, -0.005115740973212166, -0.026148261434138596], [-0.003253821846519373, 0.005822872015846755, 0.005285546664517115, -0.0072350403042387304, 0.019286315460875298, 0.0034840114756771066, 0.0014913396290920002, -0.004188229184389164, 0.021710254345110754, 0.0023766192267469844], [-0.01449800729152793, 0.005999879509743831, -0.017749968495922783, 0.009570804264865031, -0.004657397991899316, 0.008276778864671217, -0.006889403982825993, -0.023180942542061097, -0.0016608562513242737, -0.00036588468010228815], [0.00951486727533278, 0.001336418139888457, 0.018733979470471663, -0.014521979948248182, 1.0427442882168256e-05, 0.002622760662870938, 0.011018305859094645, -0.010062358677409672, -0.009320623307904155, 0.014442514791469515], [0.009021362556763448, 0.0037850767030076235, -0.015657197187498906, 0.01026585032378667, -0.017401970189134766, 0.007447754203487037, -0.00014480432700539187, 0.0030433597535080526, -0.02126618759037879, -0.001996126912488889], [0.0191413154718017, -0.015004343220868991, -0.011243837031417485, -0.009932795868995304, 0.00574752658973435, 0.0011664999022105672, -0.0079476883869259, -0.0033336356499482998, 0.007830715972932625, -0.0013211190270640428], [-0.010559672008971685, -0.016342524879376753, 0.030983897981411386, 0.016102036824425018, 0.01345205434842791, -0.0038286850684347406, 0.0008392122309207697, 0.0013079798979181733, 0.015447922301367819, -0.013503620256786704], [-0.010562701907002472, -0.0035110822170818213, 0.004219853709397916, -0.01336795009268077, -0.0014439393065036911, -0.008034085420089184, -0.0029530915156287733, 0.000156636032562772, -0.0032298527943267004, -0.007600661129565141], [-0.0028974519406843287, -8.703275268883069e-05, 0.006149270304207177, 0.0010460062431059023, 0.009812365089770193, 0.003981099174475251, -0.0051878574326295465, -0.009505734407108295, 0.008888497488515515, 0.017859025461662313], [-0.006830242603004984, 0.004894727554866497, 0.021534105126306883, -0.00996903220138861, -0.00819389809180377, -0.009804472691483187, -0.009710505220179815, -0.0059156132128511405, -0.009088399570660531, -0.006810134700599702], [-0.009807486967772934, 0.004417904234265726, -0.013886695620000406, 0.001959179515817284, -0.018284995011039643, -0.018763658495168097, -0.003251253007322881, -0.02432420699148616, -0.010466011663393594, -0.006503615640798528], [0.00029935201199402303, -0.0052268138137489, 0.027265385635901026, 0.01946511507736969, -0.007070599336142, 0.012039859409167472, 0.0011943957087099087, -0.0036339103312325355, 0.007155981773349371, 0.02098627778757646], [0.003892287052667577, -0.017024795868249194, 0.0016530223642083751, -0.002659076802476884, 0.007245609970736668, 0.013572731579379873, -0.004751575919526372, 0.01601692615306805, 0.00883715774834047, -0.0016680588518698575], [0.006686169065044852, -0.0168432592134575, 0.010477111714620508, -0.023732533681892966, -0.010464531513802512, -0.007804335419962562, -0.006965137477575755, 0.0008556754194997844, 0.002561018834929734, -0.018607867147295405], [0.012626453825336673, -0.0028741800064622652, -0.0008765318618209752, -0.01172297420248319, 0.007460622331724227, -0.0066629668214268495, 0.001525367054519497, 0.02062035972688785, 0.01737570306685402, -0.005294696986666076], [0.022158709745477952, -0.0019218391566292962, 0.01703864713934666, 0.019991926334946248, -0.004584776291088253, -0.004822535688512978, -0.001875160549646166, 0.006746618909465684, 0.006996193012407773, -0.008430216398840677], [0.011888527978584333, 0.00443146648194908, 0.017449132681837173, 0.012822681016161148, 0.014297300842533705, 0.011542846263173987, -0.006698515881357329, -0.008648964395394976, -0.0031454094253287506, -0.0063897223712657955]], "bias_text_embedding": [[0.1657543891495351, 0.16662939740582855, 0.2043758559683357, 0.12471471134101211, 0.13016268475374193, 0.1856380819643907, 0.12172485410269664, 0.1560271870848688, 0.1759006309845521, 0.10541517735272464]], "weights_embed_to_visual_hidden": [[-0.003513981853626094, 0.011530933946324581, 0.02041826111886741, 0.017092660454578187, 0.003892622719299182, 0.00277039767226258, -0.0178080242331432, 0.008218177236017567, -0.00310251146756501, -0.006038204035548867, 0.0012990878317154094, 0.013046336413579024, 0.002425537243772115, 0.0025987079653584846, 0.001881398244202271, 0.01201640126950756], [-0.016877389339120134, 0.0014786271053284694, 0.01221999509420756, 0.010096188644065094, -0.013247618586358588, 0.007415136640087819, 0.0050409851089186246, -0.012720532380879666, -0.007627020638726763, 0.00214883767835999, 0.005043427772889219, 0.004155633625713153, -0.0036194611917753712, 0.0002948560120912426, 0.00604518586153051, -0.0010749303112717577], [0.008121561279231923, 0.01810781706090101, -0.012825853141692684, 0.007650938831385989, -0.013889073366400948, -0.019071191769504725, -0.01654357450775619, -0.006362343817459075, 0.009597713707304648, -0.008125093038015055, -0.01412770124761589, 0.0008573876397015489, -0.00020447455747386314, -0.00014428160836075352, 0.008657589546594882, -0.005875980140050363], [-0.008882195799450585, 0.011995037566210957, -0.00055191135042807, -0.006978640119179383, -0.011214299000709027, 0.0007604587495071103, -0.0018758385213454379, 0.0012731708004067135, -0.0032955065324689324, -3.4356953032181134e-05, -2.5300485479716498e-05, -0.01308502390754125, 0.00945068318168706, -0.013812496660866785, 0.003873640189928576, -0.0016257301192318953], [0.014469525670873269, -0.01618104917997899, -0.007373183011259115, -0.0013188893959663538, -0.0032690867671327146, -0.007351463373621077, 0.005185456387768189, 0.013837812778515849, 0.0072048652159955925, -0.006316755417583103, 0.01479524843697536, -0.00032327308424930274, -0.00859271067594216, -0.01591808759839952, 0.0026833585630154427, -0.005356506277288831], [-0.005971355102366471, 0.013159212575913222, -0.006052708832168856, 0.021259476060989907, -0.001301920414714949, 0.013496940002831456, 0.02230048795046866, 0.00547213704199104, 0.004519571927709683, -0.002058584117107529, -0.010522601792222929, -0.012222399261150839, -0.005816042045467037, 0.01965988321239091, 0.00037780952307002485, 0.01787904201193302], [0.0011110415482017042, -0.014582809428903469, -0.0011085063790031555, 0.005340116677322311, 0.018799377893606427, 0.024351515036531466, -0.021265381599171036, 8.540347052167775e-05, 0.0056263561501185355, 0.006075269345701165, -0.003329425702412733, 0.004468795016591117, -0.015375188824991701, 0.000383072814106591, 0.0008071106407714677, 0.013598521851602216], [0.0054633221071623715, -0.016361384006202125, 0.0009648981780274966, 0.009110168513779165, -0.0028194568187725265, 0.011106868469759838, -0.0036453480028272515, 0.011648667976785081, 0.014100334693892033, -0.004688251892870494, -0.008663582577746763, 0.0117866531442371, -0.005152953822223511, -0.005327746875395362, -0.011597832152152647, -0.019781799670951204], [-0.02128442896468932, 0.008615975613761725, -0.005502273330225559, -3.778344186478849e-05, -0.00018696275273601847, -0.005140354740789609, 0.005257805899429641, -0.005786167417071392, -0.005633071875190881, -0.006393032041735394, 0.001487922834518585, 0.0013718888568311175, 0.003190237075913049, -0.013002848257911958, -0.006506659707262192, -0.005231145716683627], [-0.008960711129064101, 0.007915653767314804, 0.0009055044893324897, -0.0027713960861814784, 0.003688696757305984, 0.0033425379301781073, 0.013071067174302769, 0.020855745755009158, -0.006364267499024913, 0.012003543602975935, -0.003333694624080663, 0.00377455995002627, 0.004028458242325437, 0.0004167885725784376, -0.005944196039631696, 0.002180251413474095]], "bias_visual_assoc_hidden": [[-0.00034928722536401726, 0.0009085796097888686, -0.0025778130651784386, 0.0020789557702227584, 0.0004438846144570617, 0.0018251254548713744, -0.000499083810606566, 0.0008044702626337937, 0.00012576611808269285, -5.953496900043314e-05, -0.00034545677402144184, 0.0012076441347310283, -0.003723633786484217, -0.0015111907245398864, 0.00023500896690303676, -0.000803815947266221]], "weights_visual_hidden_to_label": [[-0.013806909861792916, -0.013972836678639204, 0.007239629967607768, -0.005379593159227739, -0.014068871950839184], [-0.0007510044447079955, -0.006225234088608243, 0.001251139098600899, 0.005082323321867617, -0.021477323928965137], [-0.006924275990578439, -0.0023972250544064986, -0.007533683770849074, 0.018131983570586208, 0.004221853119617566], [0.011531826067153094, -0.0074852553948444745, 0.008583019309698212, 0.0008114442363453792, -0.015623356056670056], [0.010084538268177373, 0.004986415419026207, -0.026024653557581764, -0.006926572589476869, 0.014416947734528006], [0.011071331438679268, -0.0018559989312017027, -0.001852657985813836, -0.01600519373411678, 0.005894460250763025], [0.0032940170137467023, 0.006990955878209294, -0.0028202969299366484, -0.0006947367552759204, 0.015038516383131396], [0.00978154364094959, -0.005777356903332897, 0.0057493599488692305, -0.007877085912445353, 0.008750078230026255], [0.00208028331921065, -0.013267582326063634, 0.0021064808079460026, -0.01276634298008305, 0.007954528269357693], [0.000465899432649527, 0.0011892216267555848, 0.0013304262595810242, -0.0037591791953172538, 0.006387792698020703], [-0.016961876996402125, -0.0014686266987893727, -0.0024124543451634556, -0.0021542468303668454, -0.01772759650707207], [0.0003527157035782902, -0.015086089169663496, 0.0009994131241759107, -0.022396219705925216, -4.451345464488646e-05], [-0.028319167320263742, -0.002328773304943237, 0.015909506989296666, -0.003817244197440292, 0.014885570374361091], [-0.010437224375293408, 0.00486889392340683, 0.003602452662001236, 0.003963867795494099, 0.004507175078238968], [0.01045468152761761, -0.015276568928942622, 0.00212457087040362, -0.000384697424088701, 0.005297122901443368], [-0.004759179731410438, -0.005001117778065142, 0.002513834320840942, -0.005367376783770321, 0.007364967189130051]], "bias_visual_assoc_label": [[0.10697714741562778, 0.03437320190715865, 0.010690115870324656, -0.07602446936529102, -0.07601599582782016]], "input_size": 15, "text_hidden_size": 32, "output_size": 10, "visual_assoc_hidden_size": 16, "visual_output_size": 5}